1,0.21282794719930806,-0.001686137419251428,-0.057918137838115356,0.20262290857961066,0.06986079953249004,-0.01731487412959047,-0.36405272581918685,0.05103236986817268,0.007257677595988941,0.1670464703354653,-0.39970922105263906,0.19807778690514213,0.00800206549737114,0.2508910026257974,-0.4478640976283118,-0.2417695081171772,0.19807778690514213,0.0,0.2571576162205582,-0.6638614926205034,-0.024036661222365717,-0.29725452837684757
2,0.3852109452685826,0.08511333760068275,0.027843665682803338,-0.004012474037620359,0.20436716258081208,-0.01180588346267811,0.048233895118502366,0.06023546188732988,0.04134356014266787,0.06928343835565791,-0.6332125132284471,0.12314084663918447,0.0,-0.036651001471072565,-0.38868558265360803,-0.26173333738728666,0.12314084663918447,0.0,0.09270675704224829,-0.752619343874908,-0.027157334679303046,-1.408752625140668
4,0.8123777007636498,0.0402476605405773,0.0849975317083407,0.3182625973355374,0.30111466495863753,0.06193479360397198,0.03505798125705251,0.12571835559395056,0.07271118880823572,-0.08664821315729128,-0.49627118050446156,-0.0016212330236956233,0.0,-0.018112297872492567,-0.3786527694827826,-0.1845330932827801,-0.0016212330236956233,0.0,0.2917310476746105,-0.8397967150591378,-0.03323249325352935,-1.6310492890423558
8,0.5197949741942304,0.011159363656382882,-0.12379777949015314,0.4963992491589944,0.10441839248106038,-0.1879590867675939,0.12018197703336368,0.1787940320278028,0.08381963167836103,-0.1360963112836024,-0.5248052263292562,-0.0023002344287034538,0.0,-0.03608476009969675,-0.3584141309886851,-0.26410241209577534,-0.0023002344287034538,0.0,0.3308146506122869,-0.9720215572719765,-0.01739439652447164,-0.9253543792752665
9,-0.006248088054762527,-0.06730511713914579,0.06921104194759926,0.11690385582288279,0.554621272846256,0.14228069884439767,-0.16888047631825842,-0.0015067016530503421,0.08937615789296592,-0.03972400494158797,-0.714359500136637,0.0,0.0,-0.03164763694938431,-0.26450093127237906,-0.45793493685645426,0.0,0.0,-0.265603230658259,-0.42825156250874374,-0.06022871191122448,-1.3846153250492481
19,-0.35142081202195746,0.01655069634681689,-0.1365080725427875,0.054112863133378264,-0.08158032598799228,0.01684845165057684,-0.023006937980675057,0.025887256374034766,-0.04492175964320645,0.006662812808640605,-0.40267952170087223,0.0,0.0,0.0,-0.12110909722770376,-0.27490761166453287,0.0,0.0,0.0,-0.39601670889223545,0.0,-0.8198597982797223
5,0.15869802637189825,0.08289894273470352,-0.030432518922713717,0.06081019263936493,0.106470985904328,-0.12474859959391432,0.22369755528313112,-0.004811259658259821,-0.0958663612842722,0.09586729773892064,-0.49415030380895847,0.19156069914985874,0.0,-0.13315396439607613,-0.2263149384671965,-0.23037480235662247,0.19156069914985874,0.0,-0.11447459036150741,-0.4753691148583875,0.0,-0.8352887988485169
10,0.07270797084414997,-0.03146491485823975,0.024439643785875334,0.059659936389348286,0.011125254141168401,0.18797155051343142,0.06775244026382687,0.03225896031681471,-0.16653669274512414,-0.1045313803857412,-0.6079398840855489,0.08765427960183321,0.0,-0.20097138614013094,-0.278407963485432,-0.32074619444756736,0.08765427960183321,0.0,-0.3305774995534209,-0.4695480445197066,0.0,-0.9277858700049486
20,-0.05164395459463825,-0.05326496025210481,-0.07476377563713657,0.17600033539879062,0.05146570973064953,0.015335858587273732,0.06081772342089949,0.03147983110426612,-0.5258047678120613,-0.30626243091286426,-0.4973313823637356,-0.08092637608527731,0.0,-0.07890712127505566,-0.11991221003758797,-0.5238481058786812,-0.08092637608527731,0.0,-0.4427154756149871,-0.2799519615763381,0.0,-1.3823269892805277
41,-0.13791677690305945,-0.09622534115350413,0.010977020419663716,0.15482314324582033,0.05043873060380749,0.013429943516243815,0.22291435027114162,0.021092300776162753,0.09226578179063144,-0.25489526620651687,-0.47260252677441217,0.0,0.0,-0.17802447733806676,-0.1801428229832369,-0.3693304926596257,0.0,0.0,-0.3716926974437041,-0.35580509553722617,0.0,-0.9689304750706462
83,-0.47425359460396416,1.0311023984457588,-0.16430508800234353,-0.12391368326589702,-0.7768900190724716,-1.1695835968806485,0.17810997703622056,-0.3102534344816692,-0.04186180949752044,0.0,0.33007224811405145,0.0,0.0,-1.885477343899277,1.0536128777668534,1.1619367142464665,0.0,0.0,0.17142669441931702,0.15864555369473518,0.0,-0.3091907537924081
167,-6.485471490808825,0.9298429956446327,1.1365477336402365,-0.06421413391081608,-1.4095807126367605,-0.061161153969707796,0.09229955574570646,-0.012864920114918747,-0.021693486707635535,0.0,0.17104893488767053,0.0,0.0,0.0,-0.07419901409126518,0.2452479489789348,0.0,0.0,-0.05673929705062187,0.2277882319382926,0.0,0.09898058677272448
21,0.08481894343035082,0.17291843425207654,0.6326099784749347,-0.09507862918785402,-0.006303461763814443,0.09627467527506688,0.0007008737650791992,-0.06788883036752089,2.13412390568337,-0.2936988471910367,-0.11286952738055267,0.5772654787695346,0.0,-0.13543569812635836,-0.7470359979989973,-0.10136215721575974,0.5772654787695346,0.0,-0.5756129729199817,-0.4082208804211442,0.0,-0.2817024097276093
42,0.00657363491169308,0.4770775078360971,0.3956635194009552,0.7765388368623106,-0.3362871235141503,0.823288870372734,-0.07130297251535424,0.01670737767770232,0.21271858485253484,-1.2644759572893176,-0.6236729019390366,0.0,0.0,-0.26639320071156725,-1.103792609931466,-0.5179630485853134,0.0,0.0,-1.2970792815042855,-0.5910695777240751,0.0,-0.8809107083202088
84,0.08402787755500227,0.2694907236656868,-0.12807426928541646,0.11875471029126115,1.4364282803479465,0.11591545598232059,-0.13000580171908413,0.1083072148428082,0.27813591034590546,-1.5413993352987938,-0.8401079230702782,0.0,0.0,-0.19448899886486176,-1.1221427274200093,-1.0648755320842027,0.0,0.0,-0.8278392636416868,-1.5536679947273768,0.0,-2.022234386630452
169,2.146627658352796,-4.621682785816015,2.4827104535017073,-0.14690465905167757,0.25390536096850236,-1.7772736313951343,0.21115654672343537,-0.17857879100357205,-0.04962886010194199,0.0,0.39131393558503375,0.0,0.0,0.0,1.6432831500233769,-1.2519692144383414,0.0,0.0,-2.192289161286496,2.5836030968715162,0.0,-1.1011386528222054
85,1.938594508161553,-5.267581140417018,0.48398147596059166,0.20208493807616673,-0.2170332509691429,-1.9320993727075617,0.7361679888753621,0.3380173731831846,-0.25634561945655887,0.47307659225053195,1.5481588947922955,0.0,0.0,-3.501532052323635,2.746770301297334,2.775997238069127,0.0,0.0,2.273693709046786,-0.2524582220039731,0.0,-0.031210679874878355
11,-0.056859781883709555,0.023288242369906842,0.01966692391827339,0.005887713354671168,-0.010759049512859336,-0.11012726004304522,0.016327569604456818,-0.06166105269102803,-0.059411755348911625,-0.3077136692044086,-0.10520551994678089,-0.04790311869369921,0.0,-0.12779193721517523,-0.1302566613212755,-0.10696747192103964,-0.04790311869369921,0.0,-0.3839873281843419,0.018971257726846765,0.0,-0.10723114117085239
3,0.0476376958597857,-0.2025275128328739,-0.23558593790939183,0.24809241883279487,-0.1673491331667319,-0.10274763088413287,-0.23211513759121266,-0.006184756604763387,0.008435301295700462,-0.20950140116125435,-0.04164993212072372,0.0,0.04211103529892703,-0.12142267706213095,-0.0686457275201736,-0.10319396399859988,0.0,0.0,0.3556204897939661,-0.6067718230759452,0.0,0.35373534121279915
6,-0.010108787422660305,-0.05863238773099548,0.09658482158326354,0.05678440056811799,0.035813385154785445,0.11161389619735791,0.02382710392303944,-0.012716970324131925,-0.044958917132090596,0.18062999144095743,0.15388051551240767,0.0,0.0,1.1077481098366941,-0.15937419885063608,-0.6138634040326931,0.0,0.0,0.23541132213944735,0.09909918481391755,0.0,-0.26065264148902917
12,0.24452318242342197,-0.3290718578987522,0.11766813563480352,0.11714286495410542,0.12947483570878354,-0.5135170068737129,-0.3056948053217862,0.147445985733896,-0.03487515164532175,-0.36211626873865943,-0.8697273301544343,0.0,0.0,0.0,-0.7373985116801784,-0.4944450872129154,0.0,0.0,-0.47604475576341404,-0.755798843129678,0.0,-0.588662879396815
24,-0.15060374257804462,0.1429012539028429,0.47362141849514977,-0.22367317856343122,-0.7572146170220442,0.2812909767973094,-0.2367139752134259,-0.45522876761918696,0.13407718961719706,-1.012030593465668,0.04609229840078333,0.0,0.0,0.0,-0.4539132551334782,-0.5120250399313986,0.0,0.0,-0.14725370269019336,-0.8186845923746876,0.0,-0.8663650891281159
49,1.3164044561313595,-1.3136976489043828,0.3754156854485911,0.4511260672346098,-0.43686074041118755,-0.3684611711985657,-1.2082703126166372,0.15685587751858046,-0.14148735153389427,-0.26985889937131646,-0.4684261015996969,0.0,0.0,0.0,0.0,-0.7382850009710127,0.0,0.0,0.20189921480590964,-0.9401842157769197,0.0,0.2755273053167686
25,0.20344952563446556,0.13129469406759064,0.03843964079184073,-0.1471100761948695,-0.0008601087639883118,0.0008581539829249933,-0.4923909165013839,0.2163231062165151,-0.15269025874548792,0.04932324323109313,-0.7411080283159196,0.0,0.0,0.0,0.0,-0.6917847850848297,0.0,0.0,-0.9232941015366232,0.23150931645179712,0.0,-0.5889639193082136
51,0.21942287019201157,0.22436559004276962,0.039834023512835506,-0.0033720431701421004,0.0060735366869089985,-0.04345532956779931,-0.40141675386655723,0.13609116460001347,0.4994554388447846,0.03816755268943702,-0.6112789163128711,0.0,0.0,0.0,0.0,-0.5731113636234322,0.0,0.0,-0.4909122017948215,-0.08219916182860947,0.0,-0.2705083226312929
103,0.18191744114222305,-0.21451036696751538,0.24520658040481477,-0.21394031936430302,0.14837298449366448,-0.4330425809230506,-0.37193227639938975,0.14094115496237244,0.3704577584448601,0.04225738810930947,-0.5424271809679949,0.0,0.0,0.0,0.0,-0.5001697928586806,0.0,0.0,-0.4228482920681135,-0.07732150079056783,0.0,0.16845579531966254
206,-0.2812123970444373,-0.5783697264399835,0.2215430005331729,-0.7989168761177552,1.013877981769268,-1.0273705846064631,1.0122029711184737,-0.15522115500802838,0.3672022862127155,-0.26964911315704715,0.9388355702949162,0.0,0.0,0.0,0.0,0.6691864571378687,0.0,0.0,-0.2601942590930589,0.92938071623093,0.0,-0.07149444860982412
13,-0.16649181188560627,0.14976311834839892,-0.19972473476562275,0.1186049995667385,-0.8341190887376795,0.0206661574529861,-0.15596630357852864,-0.05470876169191512,-0.08579040741279848,-0.0587950807328424,1.0931477657002124,0.0,0.0,1.3926832785093581,-0.35878270710984306,0.0004521135678556853,0.0,0.0,0.3258327434685688,0.7085199414988024,0.0,-0.1820966004963796
26,0.10392231682871765,0.4479836410940963,0.6280845871854108,0.21728508024870777,-2.352456174658578,0.655058141060694,-1.0581763675324878,0.2549875347826111,-0.060396700771348996,0.6591335545125871,-1.2008980561616054,0.0,0.0,0.0,-1.0267104472778752,0.48494594562885635,0.0,0.0,-0.32467205777627617,-0.2170924438727353,0.0,0.1324547548044971
52,-0.03922055926707587,-0.1885867828468061,0.4014793093718759,0.2532694990282413,-0.8233901165111509,0.4057227828175456,-0.47350579027565876,0.028007461916686384,-0.09744024036270076,0.6573450567253275,-1.5237217574650408,0.0,0.0,0.0,-1.5635190929394225,0.697142392199696,0.0,0.0,-0.23807205549230467,-0.6283046452474188,0.0,-1.4428858474276782
105,0.072632750964397,0.07498630778863433,-0.021564357469690328,0.27659472467617136,-0.3954594343752034,-2.322565454591886,1.8657330459389827,-0.030911635230766597,1.1615961447963923,-0.9625850743249477,-0.22664039255028404,0.0,0.0,0.0,-0.9625850743249477,-0.22664039255028404,0.0,0.0,0.9396281399396025,-2.128853606814835,0.0,-0.7948718249648961
210,0.9663917363753796,-0.5157791715483084,-5.29723460321533,1.0523687175459149,-0.8415239816409719,-2.594418295405503,-0.7343492962688661,0.38654923588239887,-2.803374474909251,-0.5540319755209208,-1.265367510832271,0.0,0.0,0.0,-0.5540319755209208,-1.265367510832271,0.0,0.0,0.049899030927443334,-1.8692985172806276,0.0,-0.5301569440419704
27,0.4835384471993036,0.04527434000821177,-0.18216023440279078,0.03845521513404102,-0.7690663977529694,-0.05471075987459792,0.22639744973218545,-0.020308845583082085,0.15421885052130535,0.2273633265735261,0.4774430369181685,0.0,0.0,1.256789076402324,0.33137206456408025,-0.8833547774747067,0.0,0.0,0.08615944657128931,0.6186469169204042,0.0,1.4920680635202588
54,0.2159470851763619,0.06786500877736842,0.16495380025423564,0.22850717299527804,0.8117990392825429,0.3902949353194637,0.49527351634369965,-0.0889292550178781,0.14768947350478986,0.10819555844488198,-0.27067248109987574,0.0,0.0,0.0,0.7145680987201085,-0.8770450213751046,0.0,0.0,-0.21030129999627203,0.04782437734127579,0.0,0.14587148649600418
7,-0.04290113192763747,-0.07468033929942179,-0.14621674030526136,0.018022067243552417,-0.13298665183710187,-0.336793300473526,-0.10857107817667225,-0.27635279832493137,0.04280854232078269,-0.09774430166033632,0.1976971127738318,0.0,0.08236247811028413,-0.21855300570103098,0.01813406098081016,0.21800927772343243,0.0,0.0,0.20219707221469987,-0.1022442611012049,0.0,0.9668814699986483
14,-0.14099697118741847,-0.03697765200435764,0.2592648002073124,0.10622655634527214,0.12590581281484614,-0.24651912996301897,0.17352164823444505,-0.21391415485607362,0.3486973108957776,-0.3140209252871671,1.1887884880876987,0.0,0.2898827328828526,0.019468460007371256,0.4217021659978305,0.14371420391247222,0.0,0.0,-0.0014768293992494148,0.876244392199781,0.0,0.058307655204401995
29,0.017337688784379,-0.11521999520945421,0.10275772247192419,0.2632945890463783,-0.0534670434420505,-0.2282059475386912,0.460227110225272,-0.19716505172033058,0.25123640722716617,0.17525915277557505,0.4392827095851296,0.0,0.29950256074540305,-0.3034302666196476,0.3680281773791249,0.2504413908558176,0.0,0.0,0.09294328730198395,0.5215985750587172,0.0,0.6083066350049491
59,-0.3713487800150195,-0.23089681152046534,-0.4463615151703968,-0.7483242764484985,-0.4355529261824898,-0.11103945554805053,-0.16983821997607934,-0.489179297290764,0.20927018077735504,0.5863274100342393,0.5411907435888036,0.0,0.45125225840101063,-0.41752398736556157,0.26275471595902405,0.8310351666285731,0.0,0.0,0.9356339328311571,0.19188422079187759,0.0,1.3488017783252388
118,-0.20263280412716175,-0.09112588768137792,-0.2676117810559529,-0.906641391145789,0.34166517869499846,-0.9709807385805738,0.2568629263042005,-0.13505940219229876,-0.2929140800812058,0.0489210153723284,0.41291035469474563,0.0,0.6865854270545378,-0.9224095660598272,0.7991747378958929,-0.10151922882353326,0.0,0.0,0.5456857488281661,-0.0838543787610924,0.0,-0.04455028368721098
236,0.3804250289641781,-0.42449671514699144,0.15767820545582895,-0.8897189198388459,3.014941282960706,0.3625479269453536,2.0922959899867304,0.3543546572794965,2.743173110202363,-2.7967409359097033,1.3627202649937602,0.0,0.0,-1.3278436897777628,-0.2078410060717708,0.10166402493358746,0.0,0.0,-1.2527947820973167,-0.18122588881862697,0.0,0.006551246555594581
15,0.6369538578976992,0.09721926152098775,-0.12135218984199315,0.08080735892520831,-0.13981353439478064,-0.05330568895722902,-0.32882546593489337,-2.0076825363814917e-05,0.01660034944805117,0.21523129230346733,-0.21513679524497198,0.0,0.0,-0.21513679524497198,-0.0027979522644441457,0.21802924456791054,0.0,0.0,0.24123413120229129,-0.24113963414379608,0.0,0.8067826056009295
31,0.5063526547287297,0.04352658935564794,-0.08737208647027359,0.04827282513856941,-0.14367063446864725,-0.18812732966047366,-0.19970966596401107,-0.04305579852880641,0.022753964367543185,0.2026538677511911,0.0,0.0,0.0,0.0,0.0010216336890414405,0.2016322340621511,0.0,0.0,0.30433135091078234,-0.10167748315958841,0.0,1.451808977310541
62,-0.12178085806190075,0.18351794198389776,0.08822046327519185,-0.061581032866379455,0.0866023676310429,-0.22672460574673092,-0.2117930559951206,-0.06518630645668892,-0.035542989325081716,0.3068171437820202,0.0,0.0,0.0,0.0,0.14503104277104437,0.16178610101097438,0.0,0.0,0.07176400424765016,0.23505313953437068,0.0,1.415457708699737
124,0.13126951499285636,0.026623199979987786,0.1349388071311099,0.22020832533222737,0.02853745560835496,-0.15792374058411351,-0.13277262748184337,-0.052194244749003284,-0.012347153414449318,0.24566645920319075,0.0,0.0,0.0,0.0,0.23130793301917565,0.014358526184015074,0.0,0.0,-0.029321028139443994,0.27498748734263484,0.0,0.8850469134046852
249,0.11858276153830949,-0.011805070614125848,-0.0031652353420558443,-0.8485275339366785,0.034352043860745564,-0.5113906281360241,-0.6396833694844924,-0.07248277035590124,-0.03965606449044311,0.3411599426757174,0.0,0.0,0.0,0.0,0.17731404901778208,0.1638458936579358,0.0,0.0,0.15681039102196298,0.1843495516537522,0.0,0.9673159996980439
