1,0.21010906878464078,0.0045857233178781985,-0.05178783080003217,0.2880654872121064,0.09055912841299836,-0.023812465335738886,-0.3063722262063954,0.05134915523395372,0.007489453508333128,0.32788014316657577,-0.2275407742580685,0.8882746938999605,0.08131123090616062,0.26388685788175087,-0.6687634887132191,-0.4643699250668264,0.8882746938999605,0.0,0.20440378539885282,-0.7178681958530579,-0.2744709145379896,-0.5119538009109901
2,0.39869232963623547,0.0853955744966784,0.04396199311117884,-0.02380228040232365,0.19101877609324688,-0.020955674605245368,0.5338187258480369,0.06393004487446154,-0.03687365894491842,0.6668956212097743,-0.9349218234369266,0.21239986705015784,0.0,-0.00831897168055598,-0.3044864962273285,-0.1676206013703814,0.21239986705015784,0.0,0.2830761504978687,-0.5467254695860492,-0.21677675018966025,-1.145934087568683
4,0.8809015348995137,0.04289764018521605,0.08610213892727378,-0.08656640923566454,0.31641952879189544,0.04680853481411668,0.34496886599110066,0.1441797543148634,-0.011804009177654416,-0.04112039919595162,-0.47289219864143883,0.0,0.0,-0.2900042819424222,-0.20864757461013408,-0.015360741285207685,0.0,0.0,0.5436226838843059,-0.8401993402126495,-0.21743594150897178,-1.1222109055921394
8,0.887648713715081,0.07214742629130258,-0.08789203502112859,0.0795766017634886,0.14673141172384624,-0.15234599164303506,0.3812902812526847,0.27457514650713516,0.026624873236920255,-0.08137751911238725,-0.6667267939786016,0.0,0.0,-0.26356586319929004,-0.3270299445302301,-0.15750850536118263,0.0,0.0,-0.2728184787377988,-0.3312453136325097,-0.14404052072072154,-0.8350452899286145
16,0.8950938254432308,0.04619498331534108,-0.06256363164657253,0.09325754069008477,0.11920522700616254,-0.12708931755500028,0.37116004356397786,-0.4897802652706561,0.03171705064844223,-0.09594908400078749,-0.6939433628742928,0.0,0.0,-0.18139318883365058,-0.38174576578148195,-0.22675349226003558,0.0,0.0,-0.2925534597048751,-0.33870285132502154,-0.1586361358451705,-1.4559821479322528
32,0.16214667590927545,0.07491024343873509,0.18594761400686494,0.5925622686328892,0.03848281381193452,-0.20246987890974283,0.3272491075679758,-0.19960707494853838,0.09650794239801738,-0.2696580898349831,-0.6072248557912564,0.0,0.0,-0.041004187410317534,-0.3141416267222769,-0.521737131493663,0.0,0.0,-0.24310738016441347,-0.5624237130441768,-0.07135185241765443,-1.8248093214040795
64,0.2917339510329458,0.2329306312139099,0.25978991388940503,0.4809908184596528,0.8471683314288421,-0.23980014483593814,0.29717507085168915,0.04731981935968559,0.07161838227959598,-0.18632925809449977,-0.5808998264344548,0.0,0.0,0.0,-0.33429034403200214,-0.4329387404969537,0.0,0.0,-0.006113826267374781,-0.76111525826158,0.0,-1.7431324237922354
128,0.2634333471661026,0.1613427593884617,-0.10118941944906638,0.5254098508252687,0.6088620490294073,-0.49453834351401244,0.30819968686158805,0.1816462134419855,0.0766652459970173,-0.15814836995734266,-0.6766417340106761,0.0,0.0,0.0,-0.5385437363848812,-0.29624636758313644,0.0,0.0,-0.0308146740418368,-0.8039754299261819,0.0,-2.3666767389995673
256,0.26051247931719235,0.18195725665702447,0.41744752438270233,0.5973236090352237,0.669048700853211,-0.254429747969289,-0.1453345415816511,0.44217169029647524,0.08289988153686038,-0.12732359344800603,-0.7117549874626675,0.0,0.0,0.0,-0.6104193777801759,-0.22865920313049884,0.0,0.0,-0.006715530940155567,-0.8323630499705179,0.0,-2.0366144561088726
512,0.19898480356284362,0.37567858417957967,0.288011749328404,0.5951152702029147,0.6809539639277898,-0.15503483503061782,-0.19470038019547226,-0.011740558292634594,0.08965956069330258,-0.11773956810626632,-0.7699370214982402,0.0,0.0,0.0,-0.563243404435092,-0.3244331851694145,0.0,0.0,-0.00727882750373405,-0.8803977621007727,0.0,-2.978700486030939
1024,0.23361892199428416,0.4624939086845527,0.09454415818835361,0.4732391746715693,0.8562592498658776,-0.325343103530398,-0.2770403785939119,-0.02379252206529013,0.107311955555857,-0.07435544256598793,-0.7717785121053876,0.0,0.0,0.0,-0.3992906947489268,-0.44684325992244767,0.0,0.0,-0.004628328468625536,-0.8415056262027503,0.0,-3.4014205856236477
65,-0.00044865821526805794,-0.11520715348626055,-0.24516310485434198,0.20819355832438804,-0.1828774770099572,0.21184040850622926,-0.11665849266770253,0.05232211088526418,0.09280251811161011,-0.11520983299902254,-0.6165200217641552,0.0,0.0,-0.10467028288615907,-0.4545100511613442,-0.17254952071568333,0.0,0.0,-0.2165787453976044,-0.4413284946074081,-0.0738226147581644,-1.6053769472409858
130,0.2346572269556945,0.058096248874955916,-0.29895081952514857,0.23542530669676417,-0.16614864791280487,0.05205141882452104,-0.32432312187213813,-0.08550211416837075,0.07622679520469279,0.0,-0.6010334947712322,0.0,0.0,0.0,-0.4992294335101606,-0.1018040612610728,0.0,0.0,0.0,-0.6010334947712322,0.0,-2.004766550764976
260,0.222916243348154,-0.0029592090020673337,-0.5997693761698903,0.22285121720005796,-0.07292828235296149,0.26588083384681227,-0.30531094920139823,-0.04539437883174991,0.07175829791037981,0.0,-0.5658002603427761,0.0,0.0,0.0,-0.5051002214042993,-0.06070003893847691,0.0,0.0,0.0,-0.5658002603427761,0.0,-2.2016541848996
520,0.24376851755482337,-0.1123911282507656,-0.45963500248613315,0.24957407143699786,-0.06463995659665778,0.2593491135277068,-0.34814972481849554,0.0019764046521604656,0.08182684484879904,0.0,-0.6451887999949562,0.0,0.0,0.0,-0.5832734102358864,-0.06191538975906969,0.0,0.0,0.0,-0.6451887999949562,0.0,-2.7986199506594587
131,-0.016374048697503044,0.007720359698027039,0.10359450330490126,0.14562563516954496,0.14135486800982403,-0.11635007775773984,-0.034875798428877405,0.043341881265531124,0.07822750433785071,-0.12339749091270559,-0.4934112073036316,0.0,0.0,-0.0571629316067409,-0.1520284472947528,-0.4076173193148584,0.0,0.0,-0.12328426653342088,-0.39818627305862614,-0.09533815862428989,-1.1541133747679464
262,-0.20072298406342085,-0.07268230736124404,0.15391502239574983,0.2352801522376716,-0.03205169745727771,-0.009376165995793963,-0.33818494784154185,-0.11008442293299336,0.07948478853934263,0.0,-0.62672214027454,0.0,0.0,-0.06274304194769748,-0.21179018711737946,-0.35218891120945844,0.0,0.0,-0.1985831712824445,-0.42813896899209586,0.0,-1.4854409958678176
525,-0.1781812152529975,0.18578650594376991,-0.5894242280809378,0.12888141449997584,0.12115121291608687,-0.10219792082721393,-0.18525045153995323,0.06859988531977919,0.043540060140022416,0.0,-0.34330492890637215,0.0,0.0,-0.12516735889596978,-0.07323961167199362,-0.14489795833840893,0.0,0.0,-0.08584935196100923,-0.25745557694536253,0.0,-0.7185160025917187
1050,-0.125315462507087,0.2518571909070034,-0.16639995094392818,0.15349682138348184,0.194017158288221,-0.09331466493511832,-0.2206319319318397,0.12927708419742281,0.05185589295608215,0.0,-0.40887365767095346,0.0,0.0,-0.09757987331597025,-0.08430201574185621,-0.22699176861311895,0.0,0.0,-0.08527847072751854,-0.32359518694343375,0.0,-1.390284184919771
2100,-0.04633259852754184,-0.1477562497327454,-0.0588828220781252,0.19637537458758,0.1673023442591457,-0.35433854846146945,-0.28226433543436774,0.35417314557469104,0.06634157184521304,0.0,-0.5230904259804215,0.0,0.0,0.0,-0.05441365818732919,-0.4686767677930921,0.0,0.0,-0.08381407974686977,-0.4392763462335515,0.0,-1.635387296688204
33,0.29293576490033146,-0.0314422087309037,-0.06522359571749439,-0.22578491835778225,-0.013752370492064668,0.035075200058107894,-0.2616222182252772,-0.14880874477136674,0.06866004412011067,0.2369738002660867,-0.7783449304286887,0.0,0.0,-0.14685933598351925,-0.21598083620793593,-0.17853095797124768,0.0,0.0,0.0,-0.3836458430817965,-0.15772528708081418,-1.4876869862748117
66,0.47864683818614606,0.07636313717683035,0.013825440417988161,0.22729396609555236,0.0729490556705174,0.0019150777165067596,-0.32670583276005344,0.03578724611368092,0.07678681206022071,0.0,-0.6054491190527416,0.0,0.0,0.0,-0.4096056664956016,-0.1958434525571322,0.0,0.0,0.0,-0.6054491190527416,0.0,-1.6460171290499588
132,0.4279393871816377,0.02677075991636154,0.019359631062373137,0.22635841712326288,0.023368848874154368,0.09448450706427096,-0.3253611014795397,0.05559457482295146,0.07647075517431684,0.0,-0.6029570718117531,0.0,0.0,0.0,-0.3848548254627554,-0.21810224634898545,0.0,0.0,0.0,-0.6029570718117531,0.0,-1.8705207067763925
264,0.41246838874931424,-0.3232079154199033,-0.21658391305234434,0.270551381656632,0.2721772446285254,-0.2458026399457861,-0.38888280215654414,0.25877136918321264,0.09140048217191468,0.0,-0.7206750733261801,0.0,0.0,0.0,-0.17460358156846678,-0.5460714917577109,0.0,0.0,0.0,-0.7206750733261801,0.0,-2.0715863404300183
265,0.10957705821407437,0.014111577350561719,-0.03794158473363794,0.1764497364495628,-0.15905497662194282,-0.09126993407728795,-0.25362379423135295,-0.1143959259236763,0.05961008549224593,0.0,-0.4700139617677511,0.0,0.0,0.0,0.03022553454842162,-0.5002394963161696,0.0,0.0,0.0,-0.4700139617677511,0.0,-0.8226363238265402
530,0.03126294599613732,-0.008521486440111374,-0.09548352035447778,0.19584976290735573,-0.034222466704408365,0.02140622761390777,-0.28150883626892076,-0.12273405912421735,0.06616400423970376,0.0,-0.5216903398530921,0.0,0.0,0.0,-0.1264843827835791,-0.3952059570695145,0.0,0.0,0.0,-0.5216903398530921,0.0,-1.7813961392505826
1061,0.009155118755073747,-0.07770707463798206,0.18196355972365658,0.19536777405284167,0.06105710917139648,-0.07422098793400533,-0.2808160393029526,-0.09697888456358066,0.06600117375096587,0.0,-0.5204064530329813,0.0,0.0,0.0,-0.15660764635144533,-0.3637988066815355,0.0,0.0,0.0,-0.5204064530329813,0.0,-1.5837520912577547
2122,0.22185128915410884,0.10328247509138938,-0.5280209044333487,0.2376372168782007,0.24895060964371601,-0.17193596300099936,-0.3415729250038082,-0.04669168473556419,0.0802810766356586,0.0,-0.6330007174610494,0.0,0.0,0.0,0.0,-0.6330007174610494,0.0,0.0,0.0,-0.6330007174610494,0.0,-1.9057996347012458
2123,-0.0915068824421041,0.10852827571320559,-0.3991477830039393,0.13788430598000223,-0.23881074484245765,0.15852936057690176,-0.19819094973599494,0.044139384815963766,0.046581510592714856,0.0,-0.36728617578742084,0.0,0.0,0.0,-0.3583236925976937,-0.008962483189726003,0.0,0.0,0.0,-0.36728617578742084,0.0,-1.4779126937718599
67,-0.14287956960994552,0.016025844622886226,0.15095859987944743,-0.2534079849506611,0.056624650641277946,-0.07608208852271912,-0.21538081115894203,0.04435268718499765,0.06336131479613388,0.23299595283440414,-0.7325876300516033,0.0,0.0,-0.14720442414796117,-0.14446747773769142,-0.20791977533175082,0.0,0.0,0.0,-0.2987203194303429,-0.20087135778683873,-1.3049462346383336
134,-0.32674349398851826,-0.08238985151966925,-0.11191517901957215,0.21502339382995692,-0.09497160694923024,-0.015370059714325288,-0.3090684638525609,-0.11328715661084482,0.07264143969239117,0.0,-0.5727636619942899,0.0,0.0,-0.061217231189878055,-0.16617961477189847,-0.34536681603244285,0.0,0.0,0.0,-0.5727636619942899,0.0,-1.574602635483346
268,-0.1734582268399964,0.016497718673257812,0.14572620858428018,0.2592717467031271,0.7926882735898734,-0.10566493076748813,-0.3726697781417981,0.26639456417914315,0.08758987855510479,0.0,-0.6906292029357318,0.0,0.0,0.0,-0.21772887093107385,-0.4729003320046583,0.0,0.0,0.0,-0.6906292029357318,0.0,-1.8328252083391408
536,-0.11380244202977355,-0.09100440070868998,0.02283730333850737,0.2991591451811823,0.5328382459799647,0.10941520501301766,-0.4300027815657728,0.14171685393230218,0.10106505443908734,0.0,-0.7968783510529877,0.0,0.0,0.0,-0.13523747826715352,-0.6616408727858343,0.0,0.0,0.0,-0.7968783510529877,0.0,-2.0374643258603586
1072,-0.0875215795591986,0.15573258180876484,-0.060177021771096094,0.31857684436008676,0.4173423112167583,-0.07601158252852144,-0.4579132258661807,0.14984683425225848,0.10762494356903293,0.0,-0.8486018044461895,0.0,0.0,0.0,-0.1452036534980348,-0.7033981509481545,0.0,0.0,0.0,-0.8486018044461895,0.0,-2.309470171330183
269,0.1538934405746983,0.17221237704176826,0.3754443175500937,0.14282307513242148,-0.043813363864789616,0.10804088100420677,-0.20528979497357613,-0.2545008029812046,0.04824997696351248,0.0,-0.3804417094951252,0.0,0.0,-0.15750051313699245,-0.2246300171849413,0.0016888208267973005,0.0,0.0,0.0,-0.3804417094951252,0.0,-1.6173962011437726
538,0.3442550906067543,0.5594013633363423,0.31837100744700203,0.12836827607100676,0.38680452164033985,0.2847688625538246,-0.18451288106838862,0.03185878882204557,0.04336670637800792,0.0,-0.34193806811764577,0.0,0.0,0.0,-0.0384299394857749,-0.30350812863187354,0.0,0.0,0.0,-0.34193806811764577,0.0,-1.1266012731153188
1076,0.5390016540829772,0.25423945771492257,0.403871804629937,0.1650806751794441,0.1213535225707267,0.08264138972792881,-0.23728223139200938,0.09425552500717008,0.05576927094689885,0.0,-0.4397298840656819,0.0,0.0,0.0,-0.4182154281009221,-0.0215144559647586,0.0,0.0,0.0,-0.4397298840656819,0.0,-2.0101455161687785
2152,0.5103209468964719,0.09885950146216269,0.5050465677524579,0.1861417328779643,0.04779367555894357,-0.20545441491021296,-0.2675547921308655,-0.024030926503257832,0.06288433654703766,0.0,-0.49583079624091714,0.0,0.0,0.0,-0.3401046274614516,-0.15572616877946674,0.0,0.0,0.0,-0.49583079624091714,0.0,-2.3689718319912307
539,-0.11504559607257595,-0.09559185952865103,0.08235238208036708,0.16279538506624108,-0.16595512879499152,-0.09544662929483355,-0.23399742087831063,-0.1565706592057275,0.05499723046804285,0.0,-0.43364249463963606,0.0,0.0,-0.09558799483453777,-0.2814636553884031,-0.056590844416713665,0.0,0.0,0.0,-0.43364249463963606,0.0,-1.0967912118138627
1078,-0.23972252993541338,0.31563668061540195,0.533592818551222,0.13870472893242308,0.34584016282822727,-0.011071008050049493,-0.19937020217499987,-0.06564776326139637,0.04685867440898511,0.0,-0.3694715587183058,0.0,0.0,-0.08409594538897186,-0.5395372769709549,0.2541616636416286,0.0,0.0,0.0,-0.3694715587183058,0.0,-1.3190653367445386
2156,-0.058991175498291415,0.31779070291600386,0.5876568239171083,0.15822376596014723,0.24272813653840927,-0.025993902746005933,-0.22742630659500276,-0.06259139372040423,0.05345279854518533,0.0,-0.421464948495401,0.0,0.0,-0.08846814945720873,-0.29084409591674965,-0.04215270312143846,0.0,0.0,0.0,-0.421464948495401,0.0,-2.094894902170143
4313,-0.010206020446870072,-0.05033128702702497,0.0660183342445408,0.1757164305414234,-0.34015211888287433,-0.09642689064550454,-0.25256976133509124,-0.05309822426146803,0.059362352462117574,0.0,-0.4680606348770072,0.0,0.0,-0.12193456268905312,-0.07925320600817844,-0.2668728661797784,0.0,0.0,0.0,-0.4680606348770072,0.0,-1.012602811769399
8626,0.052950100526000174,0.03721310122759467,0.3853098952295664,0.1492249168197382,-0.020863773546032346,-0.019410247418910793,-0.21449161874207795,-0.0432400444385486,0.05041271371771452,0.0,-0.3974944693043366,0.0,0.0,0.0,-0.20001551571605702,-0.19747895358827525,0.0,0.0,0.0,-0.3974944693043366,0.0,-1.4423259716207855
17252,-0.03303966772902509,0.2091894907660585,0.14650561200721077,0.17275050968230818,-0.20033764282270755,-0.2794728547638102,-0.24830663169367137,-0.00026493385247224705,0.05836037422439085,0.0,-0.4601602308223923,0.0,0.0,0.0,-0.3921317576271314,-0.06802847319525886,0.0,0.0,0.0,-0.4601602308223923,0.0,-1.1426463917986087
34504,-0.05995470310017857,0.1657537609341585,0.14932222456269642,0.1874191062712276,-0.051729000879167666,-0.19663945692149562,-0.26939085203760327,-0.0027461024547505764,0.0633158721146737,0.0,-0.499233370488444,0.0,0.0,0.0,-0.32851677667595636,-0.17071659381248425,0.0,0.0,0.0,-0.499233370488444,0.0,-1.8664073215665344
69009,-0.037786699919250585,0.016739350788883407,0.18912286396786077,0.17803512254412693,0.0023510381667808237,0.24199212242950885,-0.25590258276748723,0.011764207955233122,0.060145677114749344,0.0,-0.47423699782454615,0.0,0.0,0.0,-0.19242715462785506,-0.28180984319668867,0.0,0.0,0.0,-0.47423699782454615,0.0,-1.6587734368487703
2157,0.07138317473929902,-0.11925139730186848,-0.04895656090040025,0.10688018919713918,-0.06071429826757855,0.1241683317829169,-0.15362652083128556,0.05388018760708309,0.03610737733966636,0.0,-0.2846996667144082,0.0,0.0,0.0,0.0,-0.2846996667144082,0.0,0.0,0.0,-0.2846996667144082,0.0,-0.756159164069641
4314,0.14759779061190742,-0.052676703514512466,0.2506411712379913,0.07212423575802404,-0.06826145614943992,-0.3046150524557415,-0.10366930944221325,0.06507863594208191,0.024365759598783173,0.0,-0.19211928830389902,0.0,0.0,0.0,0.0,-0.19211928830389902,0.0,0.0,0.0,-0.19211928830389902,0.0,-1.1993216565686389
135,0.6176703149375466,0.03406445660326527,-0.4450233689739356,-0.09699295604964321,-0.07043336904590687,0.46308597233798704,-0.22184812537659107,0.26362121087106216,0.04597951363888206,0.26816314388207874,-0.6307026904556589,0.0,0.0,-0.09782293111265025,-0.29593059190598425,0.031213976445169704,0.0,0.0,0.0,-0.25734179132192664,-0.10519775525164339,-0.8354756137657054
270,0.6626679733753909,0.006514818746025215,-0.2868685873338585,0.17349171517598483,-0.010213558873426634,0.08540164034304683,-0.014062677715582112,0.31583431606813434,0.05861077597468111,0.0,-0.4621346000539695,0.0,0.0,-0.09086139112396338,-0.24730592174307361,-0.12396728718694842,0.0,0.0,0.0,-0.31976839725979933,-0.1423662027941717,-0.9899886954206246
540,0.2038729120580043,0.039631572658054726,-0.15284202403756028,0.19362483066790312,-0.03971820240389507,-0.014880770214913328,-0.05281657116950193,0.09933261694880424,0.06541235448563171,0.0,-0.5157637273368079,0.0,0.0,-0.09966836394621592,-0.29739637938620506,-0.118698984004394,0.0,0.0,0.0,-0.36013884024887294,-0.15562488708793715,-1.142699892622858
1080,0.17803302518970884,0.26119198351713685,-0.2949874826876389,0.1572391074735052,-0.052437762704006546,-0.1928926024958064,-0.22601098670601916,0.08166911191597134,0.05312015097228084,0.0,-0.4188420869054267,0.0,0.0,0.0,-0.4282880396937467,0.009445952788313536,0.0,0.0,0.0,-0.30268869516036956,-0.11615339174505558,-1.1078507968281337
2160,0.0425490360123677,0.0650942145012873,-0.10956741143144227,0.20853722008514897,-0.5162463359392838,0.06949821143151057,-0.299745423601536,0.09126646318824445,0.0704502130052445,0.0,-0.5554862645899727,0.0,0.0,0.0,-0.34009645257052207,-0.21538981201945298,0.0,0.0,0.0,-0.325517494605788,-0.22996876998418592,-1.1940232759113587
4320,-0.27398702190629615,0.6025931186238639,0.167326686478427,0.17402662281250245,-0.06277225807203135,-0.37899622182558595,-0.2501408801343966,0.056477681626335666,0.058791484036847134,0.0,-0.46355944807289473,0.0,0.0,0.0,-0.25748958647328396,-0.20606986159961074,0.0,0.0,0.0,-0.46355944807289473,0.0,-1.559241437884136
8640,-0.05490033715505916,0.23680869979190042,0.3649353518701253,0.22486288392137527,-0.14505202333210226,-0.3837631763373511,-0.32321146491622027,0.1343187850059427,0.07596551859071712,0.0,-0.5989733793488485,0.0,0.0,0.0,-0.3639493168160146,-0.23502406253283564,0.0,0.0,0.0,-0.5989733793488485,0.0,-2.034942435664658
17280,0.1674569361215415,0.21904898960447355,-0.12181842709946746,0.2707441137363874,-0.17043473233489434,-0.2657261440840378,-0.3891598297244033,0.19308993916250655,0.09146559292800031,0.0,-0.7211884590086293,0.0,0.0,0.0,-0.4381398404743659,-0.2830486185342635,0.0,0.0,0.0,-0.7211884590086293,0.0,-2.613949254546229
2161,0.09779291246674908,-0.411522878773453,-0.17414646629378983,0.09976575481739168,0.4952146827048109,0.22356904536414782,-0.14340043674916098,0.11836131521629555,0.033703905109334714,0.0,-0.2657487543704855,0.0,0.0,0.0,0.21492492495406124,-0.48067367932455185,0.0,0.0,0.0,-0.2657487543704855,0.0,-0.8247384885599953
9,-0.6005214824954059,-0.18304692443614753,-0.00706989248283837,0.1394215754718052,0.2542931471992192,0.13815982786520245,-0.21321789197312693,-0.07631537743117905,0.0501133452699285,0.0,-0.3951340071608394,0.0,0.0,-0.09523777035528917,-0.01230116376972474,-0.28759507303597603,0.0,0.0,-0.04342825094053619,-0.3517057562203208,0.0,-1.0133822458671193
18,-0.06667691655910488,-0.3369188430817253,0.3593077871339123,0.18451232149967758,0.40213263676092825,0.04934456482885996,-0.2652127229136388,-0.11883998820264789,0.06233387184521243,0.0,-0.49149048883854324,0.0,0.0,-0.10209864104419512,0.15003286399354024,-0.5394247117878873,0.0,0.0,-0.31766527128528693,-0.17382521755325755,0.0,-1.7250733617331235
37,-0.37410601647333186,-0.20434691109543512,0.03678594231994941,0.13989646245987603,0.1035870419796001,0.036160126580317274,-0.20108316579299876,0.0748729119981303,0.04726127822627744,0.0,-0.3726460117261578,0.0,0.0,-0.10051933322731453,0.11606751906407263,-0.38819419756291235,0.0,0.0,0.0,-0.3726460117261578,0.0,-0.8259980845665049
74,-0.44588093566963405,-0.13488767804742366,-0.0029365822209899326,0.1613081659789513,-0.14404136596820483,0.009394701701600462,-0.23185973478502206,-0.10999831641228111,0.05449480264511914,0.0,-0.4296809487098745,0.0,0.0,-0.09090413107566815,-0.24161088541230888,-0.09716593222190696,0.0,0.0,0.0,-0.4296809487098745,0.0,-1.2125658101489503
148,-0.4112193468724568,0.057114891535839075,-0.10002144800058871,0.1768319352548189,-0.2196361484170056,0.12484859203474168,-0.2541731558404413,0.032383758878080544,0.05973920386847527,0.0,-0.47103203511972935,0.0,0.0,0.0,-0.2893383796431304,-0.1816936554765957,0.0,0.0,0.0,-0.47103203511972935,0.0,-1.2761918499231792
296,-0.39574900958881704,-0.17267471623522965,0.07020589703874483,0.17127231271527996,-0.1576895541961251,0.031372899253699925,-0.24618191373748688,-0.0675333541771391,0.05786099434799104,0.0,-0.456222717359773,0.0,0.0,0.0,-0.15920209652810263,-0.29702062083167086,0.0,0.0,0.0,-0.456222717359773,0.0,-1.6430858113293065
593,-0.19146731453495755,0.38416402368876734,-0.35429529294454576,0.15869219841015317,0.028012032011027557,-0.18971532551072365,-0.22809961797365752,-0.06433945972322026,0.05361104926833148,0.0,-0.4227127247521337,0.0,0.0,0.0,0.0861606124824538,-0.5088733372345884,0.0,0.0,0.0,-0.4227127247521337,0.0,-0.9706093928326919
1186,-0.19811648319201836,0.3114152655647426,-0.13757906207006262,0.21753856539013525,0.40011068680611717,-0.12048443032191822,-0.3126836993698935,0.058331736754139586,0.07349114111300156,0.0,-0.5794633928825272,0.0,0.0,0.0,-0.30057863391849365,-0.27888475896403175,0.0,0.0,0.0,-0.5794633928825272,0.0,-1.3653403993564162
2373,0.3488885995742758,-0.422410489601615,0.10310934083317629,0.08798867213446404,-0.15717397690007875,0.045409398566522985,-0.12647239562468815,0.0058421622521524245,0.029725248525853544,0.0,-0.23437781893442935,0.0,0.0,0.0,0.0,-0.23437781893442935,0.0,0.0,0.0,-0.23437781893442935,0.0,-1.0436977723038434
4746,0.3217290761251006,-0.22441387102219026,-0.038321286064859,0.10407519957930716,-0.18590930647926016,0.1735101715860771,-0.1495947091438931,-0.12520063239751744,0.03515976656796236,0.0,-0.277227939583928,0.0,0.0,0.0,0.0,-0.277227939583928,0.0,0.0,0.0,-0.277227939583928,0.0,-1.0165345225080342
9492,0.24230566080637386,-0.17877742199698698,0.026489943777471155,0.11417802523888294,-0.2039559623535252,0.06246910078349096,-0.1641162212061809,-0.10851480578947902,0.038572808227295086,0.0,-0.30413911105322666,0.0,0.0,0.0,0.0,-0.30413911105322666,0.0,0.0,0.0,-0.30413911105322666,0.0,-1.363929179702399
19,-0.3790955051085901,0.030385727674249983,-0.13129476435394438,0.09997819392549259,0.2062044318408425,-0.01683007280161041,-0.15137693546687622,0.026060580910276285,0.03557864944054824,0.0,-0.28053074978506476,0.0,0.0,0.0,-0.08785079073172544,-0.19267995905341243,0.0,0.0,0.05979989539554947,-0.3403306451805952,0.0,-0.49574853909884675
38,-0.34678324076486944,0.013176580699443123,-0.1002345134950713,0.10428785098930136,0.17836274371190136,-0.01743276934020346,-0.1582664316534409,-0.15296667497462532,0.03719791177323407,0.0,-0.2932983191964033,0.0,0.0,0.0,-0.1129825237092213,-0.1803157954871975,0.0,0.0,0.04390328907019609,-0.3372016082666362,0.0,-0.8419645604095531
76,0.08962935552354136,0.3379623608329219,0.23801723315436651,0.017646744861896817,0.2303122666212583,0.10970905592336855,-0.22602477626348738,-0.12878837578697552,0.05312339198009924,0.0,-0.41886764162344786,0.0,0.0,0.0,-0.04034481198662661,-0.3785228296368015,0.0,0.0,-0.07343974352360363,-0.345427898099848,0.0,-0.481549790482889
152,-0.021480892176224103,0.0002910614330208943,-0.041280207110852084,0.018964640849166294,0.38567890137358235,-0.04636307008841688,-0.24365022411118836,-0.2295937590985876,0.05726596249965586,0.0,-0.4515310066516849,0.0,0.0,0.0,0.00837147840059165,-0.459902485052279,0.0,0.0,-0.07265824454757172,-0.3788727621041173,0.0,-1.1874270617731058
304,0.2706355338581184,0.45269962478120923,0.15995311458487319,0.0019979426469032367,0.067242962402213,0.03803237735573483,-0.26343179362079444,-0.2079929386547581,0.06191529381816298,0.0,-0.48819008228522204,0.0,0.0,0.0,-0.25467377169718874,-0.23351631058803232,0.0,0.0,-0.058647800371753614,-0.42954228191346777,0.0,-1.1298188404603162
608,0.06374778779090845,0.1999006276032142,0.24708970516006284,0.22973986669093543,0.02872187318236711,0.24007560122921945,-0.33022150017784624,-0.11420991826545539,0.07761311164292145,0.0,-0.6119643309882059,0.0,0.0,0.0,-0.27897055319692987,-0.3329937777912767,0.0,0.0,-0.06928067642687766,-0.5426836545613283,0.0,-1.2598509864979406
1216,0.16037415727566717,0.4088624248278432,-0.015226278191258814,0.17014508441031728,-0.04709724910732786,-0.4244013570254467,-0.24456166807760454,-0.09879550194728755,0.05748018235597466,0.0,-0.45322008866735386,0.0,0.0,0.0,-0.2585759505373717,-0.19464413812998355,0.0,0.0,-0.055378750866691674,-0.3978413378006624,0.0,-2.3684522755466095
2433,0.10614791399393686,0.23063276193073004,0.03689225102804913,0.1912298213605832,-0.056489002656043515,-0.19513963853045685,-0.2748682646942832,-0.012359742955178776,0.06460324752726322,0.0,-0.5093840759094579,0.0,0.0,0.0,-0.2543107992198606,-0.25507327668959523,0.0,0.0,-0.07094064129042442,-0.43844343461903285,0.0,-1.9892775663909554
4867,0.017874723979846553,0.30737094780093144,-0.03445851225381391,0.1808795634663296,-0.07005959781007323,-0.33193330818283556,-0.2599911006291269,0.01051552354063336,0.06110661573648875,0.0,-0.48181381246739513,0.0,0.0,0.0,-0.2560901406672555,-0.2257236718001407,0.0,0.0,-0.0635107287904851,-0.4183030836769107,0.0,-1.6731843475452655
9734,-0.017839842816292875,0.040445734561241516,0.27522015818425843,0.20753547114852394,-0.3103348869145691,-0.39813195910049415,-0.29830553838954554,0.19759847667028546,0.07011179175874517,0.0,-0.5528178787035916,0.0,0.0,0.0,-0.09879396986536902,-0.454023908838223,0.0,0.0,0.0,-0.5528178787035916,0.0,-2.0619534990758277
305,-0.3606195577052926,-0.6208511513447639,-0.07527251174172454,0.20913151350628606,-0.042648972446002714,0.07188897331531498,-0.23611084723696057,0.4878483586672209,0.05549395644086638,0.0,-0.43755908258731535,0.0,0.0,0.0,-0.2215525828068838,-0.21600649978042757,0.0,0.0,0.0,-0.43755908258731535,0.0,0.10709405975537839
610,-0.16809415149368578,-0.5467634017101796,0.030259076223438073,0.21654031575369853,-0.0705242325424963,-0.029724782319595404,-0.247208311839479,-0.09722167075578093,0.058102232275979084,0.0,-0.45812483162996503,0.0,0.0,0.0,-0.2390341095898099,-0.21909072204015298,0.0,0.0,0.0,-0.45812483162996503,0.0,-0.7017817996192528
77,-0.054470704064348764,-0.2685981642434597,0.0393917824566688,0.2203850586618,0.01216067143120275,-0.004690162007510656,-0.12369778096930276,1.034241062773285,0.02907312116014449,0.0,-0.22923592114649746,0.0,0.0,0.0,-0.2359281752749682,0.006692254128515497,0.0,0.0,-0.03993413954649813,-0.1893017815999682,0.0,-0.8798664566979766
154,0.4336115094935338,-0.2750630264497237,-0.006179006391068778,0.16401257505904274,0.43956598294222476,0.18827855334834578,-0.2815192697815481,0.15027878619737797,0.06616645646459011,0.0,-0.5217096751706544,0.0,0.0,0.0,-0.3540580693598307,-0.16765160581082952,0.0,0.0,-0.27519818059123274,-0.2465114945794254,0.0,-1.1089427253700421
309,0.25467728560294384,0.33754642749717506,0.0396246757747564,0.08903783661228962,-0.18181924095731974,0.1658928542665,-0.19778646052279075,0.1424859186869987,0.04648644208128817,0.0,-0.36653657901489206,0.0,0.0,0.0,-0.02700317603087338,-0.33953340298402035,0.0,0.0,0.0,-0.36653657901489206,0.0,-0.847380935163831
618,0.25983133215458243,-0.39096940288158605,-0.09112565143934134,0.025131759132702155,-0.1981009559874018,-0.11241414427685732,-0.16339982872436065,0.06720276306830016,0.038404432002119425,0.0,-0.3028114971770038,0.0,0.0,0.0,-0.1149118678393001,-0.18789962933770188,0.0,0.0,0.0,-0.3028114971770038,0.0,-1.4525629480784166
155,-0.2657161211569866,0.194323025509931,-0.05394734495623687,0.17554040668197152,-0.03203818400939791,0.0007170836592273783,-0.06907920110585566,0.5399139674776563,0.01623592571878042,0.0,-0.12801712507265006,0.0,0.0,0.0,0.04726817549957872,-0.1752853005722309,0.0,0.0,-0.0219938944633164,-0.10602323060933663,0.0,-0.5046196614920139
310,0.4984527253636131,0.0018493293677592833,0.19907489211602417,0.21562909268545322,0.19235759394244906,0.05971404634517861,-0.1371908349463898,-0.015516874251613388,0.0322444407264429,0.0,-0.25424116079804077,0.0,0.0,0.0,0.007886632191842756,-0.2621277929899008,0.0,0.0,-0.1302958917919804,-0.12394526900605679,0.0,-0.7422261584917693
620,0.1462712223499615,-0.25398826607202935,-0.17180672552345616,0.1679319134832367,0.051443315318833095,-0.16099486983685468,-0.2413805196151386,0.04173773540904782,0.056732505930796394,0.0,-0.4473248050787395,0.0,0.0,0.0,-0.13119149762450685,-0.3161333074542341,0.0,0.0,-0.13119149762450685,-0.3161333074542341,0.0,-0.5187655513070253
1240,0.06862342944489631,-0.1140288739031303,-0.1102783000941953,0.16514629370260703,0.023221607088326796,0.027252019667353175,-0.2373765495766197,0.10260759565563535,0.05579143887899274,0.0,-0.4399046739104141,0.0,0.0,0.0,-0.11879819796133306,-0.3211064759490812,0.0,0.0,-0.11879819796133306,-0.3211064759490812,0.0,-1.0806371010727842
621,-0.04116845215658441,0.12106177034490352,-0.23354286761659865,0.17083473699920623,-0.04396421965318761,-0.02241406783910329,-0.05394645472953395,0.010472492563903396,0.012679223525446707,0.0,-0.09997321815802308,0.0,0.0,0.0,0.030357747207179875,-0.13033096536520064,0.0,0.0,0.0,-0.09997321815802308,0.0,-0.4444828011194919
1242,0.1779487870459004,-0.18142615878540233,0.3419030855998916,0.23909158225237823,-0.18987226990478256,0.15132192074751513,-0.15870726506807326,0.016132309298778947,0.037301522389176,0.0,-0.2941152688060605,0.0,0.0,0.0,-0.17039193801166186,-0.12372333079440623,0.0,0.0,0.0,-0.2941152688060605,0.0,-0.23910593335686026
2484,0.2544202044630715,-0.06658862947920681,0.21429416231976128,0.1973208521283274,-0.15796252398495478,-0.01637873869825429,-0.13071656027270306,0.005872439779974166,0.030722769354995683,0.0,-0.24224307718693328,0.0,0.0,0.0,-0.10382956517802697,-0.13841351200890525,0.0,0.0,0.0,-0.24224307718693328,0.0,-0.7859649178892836
4969,-0.04478177820513092,0.01878047059634688,-0.7611698044825099,0.010350667976634798,-0.011651432171332392,-0.05387676452194217,-0.014877753505814155,0.0032024491140066106,0.0034967703290697126,0.0,-0.02757135578964568,0.0,0.0,0.0,-0.15826933156303624,0.13069797577339334,0.0,0.0,0.0,-0.02757135578964568,0.0,-0.6199999297534664
311,-0.29522123875179795,-0.17156468072657222,-0.5106032903312028,0.02570240146919532,0.12475310050424313,-0.29518092935760193,-0.036943895256760444,-0.20394478906303204,0.008683052634498362,0.0,-0.06846418580475486,0.0,0.0,0.0,-0.5657622242235207,0.4972980384187691,0.0,0.0,-0.06305590864962735,-0.005408277155125844,0.0,-0.12796846890997887
5,0.12235912204341752,0.0683517088744539,0.00416712315658124,0.060933489983486515,0.039387146556311356,-0.11392935081911532,0.23937884508008883,-0.010551114484801272,-0.05155365953426713,0.2773823188458101,-0.4405273786193901,0.059496338219684815,0.0,0.35380951864957505,-0.299400898649339,-0.2770500179939233,0.059496338219684815,0.0,0.019034211095829777,-0.24167560908956806,0.0,-0.7184937845799908
10,0.0548644453847852,0.03396036828461607,0.12756140404799257,0.12335661307696795,-0.1769740718010239,0.16454284909755273,0.2580768074300085,0.03259408354629618,-0.19976362013460083,-0.26107133428370166,-0.28064095837643854,0.05120747298201069,0.0,0.0,-0.40359744678790155,-0.18932231885425405,0.05120747298201069,0.0,-0.24048161886664873,-0.35243814677552054,0.0,-0.41445148470048065
20,0.21579756574482908,0.10048957019853633,-0.04919672618918038,0.2428918463002356,-0.34128492791544834,-0.22061642845247115,0.2716481193782317,0.022001647655850387,-0.1691306685345572,-0.24836604262425743,-0.23265563606442993,0.029721673979867656,0.0,0.0,-0.19905327990565416,-0.311690072762965,0.029721673979867656,0.0,-0.3520388014985159,-0.1587045511700783,0.0,-0.07088436283456896
40,0.2513426141160036,0.14297374579963928,-0.008825575570022762,0.025392497373469148,0.09820181057231558,-0.15479393449798143,0.3262036463678495,0.016394364959297393,-0.12115176497630187,-0.29722258440058674,-0.3187724820444499,0.08095520003896321,0.0,0.0,-0.2723032190497624,-0.42464704743426657,0.08095520003896321,0.0,-0.4182825274285003,-0.2786677390555163,0.0,-0.40785242397932997
80,0.036128464680650466,0.055633578506385506,-0.03918930254186976,0.060575103961986725,0.03411001621489442,-0.16854595393344424,0.3637356080909914,0.0060277751653740955,-0.12525059695943047,-0.31638461787422323,-0.31271052636379804,0.09812002105137439,0.0,0.0,-0.41464469930883735,-0.3125704659805628,0.09812002105137439,0.0,-0.47595452959786383,-0.2512606356915453,0.0,-0.9053327199191081
160,0.14617457127714736,0.03610959385160588,0.02010241732454194,0.5637531176168213,0.18056783749096406,-0.2935789698129112,0.06411287851532059,-0.39562922617068624,-0.16060085917279573,-0.20714593648495733,-0.4650199569731477,0.0,0.0,0.0,-0.5427806015251817,-0.12938529193292422,0.0,0.0,-0.02410566842498978,-0.6480602250331171,0.0,-1.1833771137133628
161,-0.20190799512995022,-0.0859054368091276,-0.062361208834668905,0.15212776165728847,-0.13333435491778872,0.07847720755192866,-0.12163907710660653,-0.02018997182699907,0.028589256806511105,0.0,-0.22542074457135228,-0.0022622978472790906,0.0,0.0,0.10406056165388412,-0.3272190083779656,-0.0022622978472790906,0.0,0.0,-0.22315844672407972,0.0,-0.9999559117367787
322,-0.11050632493623848,0.029776205426471372,0.13949801873579007,0.09221180383073183,-0.41949399290884476,-0.10639115712271538,-0.14158402904316594,0.004261332667957182,0.0332769884670246,0.0,-0.26238259945323866,0.004928996900747528,0.0,0.0,0.0,-0.2673115963539869,0.004928996900747528,0.0,0.0,-0.2673115963539869,0.0,-1.107738884261622
644,0.1510564923117571,0.15043342863640097,0.10902280083799477,0.15317148711951056,-0.22258504376210003,-0.3317309843877184,-0.17910639070178622,-0.01119762435939494,0.04209600007877072,0.0,-0.3319187954221641,0.0,0.0,0.0,0.0,-0.3319187954221641,0.0,0.0,0.0,-0.3319187954221641,0.0,-1.0886242911237571
1288,0.16307406715081407,0.09115586228646365,0.10232411010074932,0.15885577103867857,-0.23102289282761795,-0.236139491289623,-0.1858960323860031,-0.00519564105253639,0.043691793259313064,0.0,-0.34450131512088794,0.0,0.0,0.0,0.0,-0.34450131512088794,0.0,0.0,0.0,-0.34450131512088794,0.0,-1.3384092420616147
2576,0.007595209540431483,-0.11310206811024813,-0.26312891177830944,0.19618265185205322,-0.31594596889288584,0.04969996299958051,-0.25423065803857015,0.02997175791712288,0.05975271881078061,0.0,-0.47113859781835776,0.0,0.0,0.0,0.0,-0.47113859781835776,0.0,0.0,0.0,-0.47113859781835776,0.0,-1.5833155242183086
645,-0.059222788826490534,-0.2819973311285791,-0.8021645405572896,0.11424999097415733,0.14048932645046164,0.5855154240411081,-0.03079584098546849,-0.0383631910561816,0.007238053982722773,0.0,-0.05707065171632535,-0.0106635393140299,0.0,0.0,0.0,-0.046407112402296634,-0.0106635393140299,0.0,0.0,-0.046407112402296634,0.0,-0.8828921489859204
21,-0.45223026943805067,-0.1558531539318496,0.09831515920322335,-0.1501342960546275,0.18988397038681457,0.05781036666847316,-0.07902481718503876,-0.07594685811998239,0.018573478575563,0.0,-0.14644827594223592,0.02356297768077371,0.0,0.0,-0.07866770940982408,-0.09134354421318698,0.02356297768077371,0.0,-0.23735207773671194,0.06734082411369473,0.0,0.004410266214904111
42,-0.11515077897472938,-0.11861483859430451,0.029466786408635707,0.2593605079193402,0.05005795835948005,0.11198851834343686,-0.14570326557231064,0.007484995762571888,0.03424514700439375,0.0,-0.2700163417304267,-0.01814988345629272,0.0,0.0,-0.08908322396134873,-0.16278323431278457,-0.01814988345629272,0.0,-0.16963073137560034,-0.0822357268985335,0.0,-0.7010229156755703
11,0.0037823777824750235,-0.02937208633052736,-0.033460826988902716,-0.06580173062663594,0.043041416750486484,-0.07044272303617799,0.18026700052151687,-0.018593337008935035,0.2532210435649283,0.09054914658490278,-0.23962255423296844,0.0,0.0,0.29231708438217513,-0.19135498404982204,-0.2500355079803677,0.0,0.0,-0.164692865701022,0.015619458052939628,0.0,-0.34442345900587756
22,0.09758943486409008,-0.07503406837257327,0.01091927453667528,-0.06461171729862192,-0.009610607876654608,0.02193997979616984,0.05748399190422788,-0.005069141639623778,-0.06229797283539185,0.2430152499001898,-0.4793520623056383,0.0,0.0,0.0,-0.1357005862239265,-0.10063622618150628,0.0,0.0,0.018859851169027414,-0.25519666357440957,0.0,-0.7359027877210057
45,0.03418522059433301,-0.03920524822040266,0.01294950570487108,-0.15443270866101239,-0.0015980664580474066,-0.015714921259829057,0.15169253185816697,0.047551547470036516,-0.06961241228981925,0.20738059249732624,-0.4141940765689879,0.0,0.0,0.0,-0.12427019948784729,-0.08254328458380092,0.0,0.0,-0.15897719906690735,-0.047836285004749575,0.0,-0.5272963947634205
90,0.11242545078145721,0.020665742107205887,0.08561273067058581,0.10833948297690443,-0.056905362664736774,0.22227134470697268,-0.15572406788786233,0.07175167906976261,0.036600371144699925,0.0,-0.28858682724298257,0.0,0.0,0.0,-0.16453749129337775,-0.124049335949628,0.0,0.0,-0.28858682724298257,0.0,0.0,-0.8358884708665177
180,-0.07175518549673789,0.024013682240900017,0.11276594853213573,0.1527463065739212,-0.18892797970188663,-0.21860865290019788,-0.21955316345387177,-0.03710309539737272,0.0516023462358589,0.0,-0.4068744909614636,0.0,0.0,0.0,0.007891488433486691,-0.41476597939495147,0.0,0.0,-0.4068744909614636,0.0,0.0,-0.6356230122833606
360,-0.09369972799496054,-0.012234196734707062,0.3302139200476209,0.16657882915115393,0.27878892173208664,0.3066636274573425,-0.23943563497476975,0.06050507183296399,0.056275392906223076,0.0,-0.4437205575444309,0.0,0.0,0.0,-0.08430866160981983,-0.359411895934611,0.0,0.0,-0.4437205575444309,0.0,0.0,-1.221471654375632
181,0.001922471262803537,-0.10171042387895878,-0.09908720283982737,0.05527260169241549,0.06957731619918404,-0.0698761689029022,-0.07944725359381198,0.044011259445252415,0.018672765278999453,0.0,-0.1472311323405547,0.0,0.0,0.0,-0.20134700849950307,0.05411587615893406,0.0,0.0,-0.1472311323405547,0.0,0.0,-0.6510851504434296
362,0.17028636208836567,-0.02590736938213339,0.1461788262138678,0.1622406886480794,-0.4178216857188179,-0.3147747924754899,-0.23320011614410577,-0.11742920707999993,0.05480983715380873,0.0,-0.43216493470484824,0.0,0.0,0.0,-0.275041380154473,-0.1571235545503744,0.0,0.0,-0.43216493470484824,0.0,0.0,-0.3033811294052133
724,-0.3666131391418209,-0.1460844870479588,-0.09741004741718488,0.14564081542114632,-0.19586531100023652,0.07841645608669852,-0.2093399341098949,-0.10065430862490919,0.04920189529949727,0.0,-0.38794740093447616,0.0,0.0,0.0,-0.16295467181001802,-0.2249927291244571,0.0,0.0,-0.38794740093447616,0.0,0.0,-0.8815095362537069
363,-0.37380476642107885,0.13323361700708938,-0.15394800577154724,0.029077082400862427,0.14194266050738738,0.2044214689806604,-0.0417945649116492,0.11789328675503521,0.009823122452075806,0.0,-0.0774534151814048,0.0,0.0,0.0,0.47586867522017534,-0.5533220904015806,0.0,0.0,-0.0774534151814048,0.0,0.0,-0.0743382172193783
91,-0.24926569542328203,0.6187070523417522,-0.3412150071300061,-0.3255687241017971,0.09726493080054845,-0.012517587241146126,0.2702470368987599,-0.20283050720806864,-0.10076362201085678,0.17221497129524563,-0.15614681400379277,0.0,0.0,0.0,0.3422723729267854,-0.3262042156353206,0.0,0.0,0.1178316144638577,-0.10176345717239571,0.0,-0.28667956154842195
182,-0.19584636037181738,0.45079531235767645,0.05840592382904629,-0.5083174513216505,0.3499147541907078,0.11283359093518618,-0.414072102119956,-0.12736429020494458,-0.08622971117540662,0.14657684586337863,-0.19478080193412695,0.0,0.0,0.0,0.4728661328140837,-0.5210700888848382,0.0,0.0,-0.14818291069869638,0.09997895462793034,0.0,-1.051704303189799
365,-0.03106193158011142,0.04737499919709187,-0.15439113688859515,-0.4216974678850206,-0.08967240063571834,0.0975566838561449,-0.25343782974142043,0.037515150230657955,-0.08898314079344524,0.062740868230747,-0.094314072673835,0.0,0.0,0.0,0.18165421656976477,-0.2132274210128636,0.0,0.0,-0.1470424099655435,0.11546920552244588,0.0,-0.3362565489240817
730,0.19756334277416931,0.24165810509816898,0.22855150851001174,-0.1795426020105885,-0.8468218930230332,-0.1019700502349897,-0.082619648491445,0.15707775436555638,-0.042472878946871226,-0.156989940876307,-0.21413626777453137,0.0,0.0,0.0,-0.08429649447770733,-0.28682971417313274,0.0,0.0,0.4321386310983188,-0.8032648397491579,0.0,0.18593791728182327
1460,0.13080758752685845,0.2117256270344236,0.15798300142652807,0.10731686600697897,-0.1119208760313294,-0.036966112642166746,-0.19686542207617924,-0.20700134585514482,-0.03178518378099955,-0.019635310856346188,-0.3724624726863576,0.0,0.0,0.0,-0.056506216546881614,-0.3355915669958253,0.0,0.0,0.2969091337953415,-0.6890069173380408,0.0,-0.529448483985145
2921,0.21276427774785545,-0.3543566085306636,-0.17392478882143836,0.034684826999838804,-0.03423252807263862,0.025280738280204485,-0.08317893836175404,0.06727730992842137,-0.061542572366027934,-0.015355723950298748,-0.16011583557822956,0.0,0.0,0.0,-0.3065953460706976,0.13112378654216533,0.0,0.0,-0.16011583557822956,-0.015355723950298748,0.0,-0.023936795261830762
5842,-0.019430345261181568,-0.12423642386746832,-0.25147806319626054,-0.02676415455961604,0.01984599021341033,0.015977769099123153,-0.055429846221980564,0.0758853651024641,-0.06659440641125976,-0.043269181353489214,-0.11954208597962085,0.0,0.0,0.0,-0.2788594772641394,0.11604820993102517,0.0,0.0,-0.11954208597962085,-0.043269181353489214,0.0,-0.3316670577124277
11684,0.006237251478025818,-0.18798071472552774,-0.5921983614855542,0.005160889956859203,0.03158669679063063,0.038109799000500585,-0.014699723238738801,0.030947600860124984,-0.0802172908931987,-0.0033553741572846874,-0.028545752479852804,0.0,0.0,0.0,-0.3140702483487426,0.2821691217116087,0.0,0.0,-0.028545752479852804,-0.0033553741572846874,0.0,-0.4257099198949134
183,-0.293213408444724,0.45659183454574287,-0.13517291091200426,0.4073135494367307,-0.004006847565682671,-0.27021750617053286,0.49894025957694726,-0.13585072474830023,-0.009396953255487745,0.08333014531135818,-0.009236991582652551,0.0,0.0,0.0,-0.085792480737974,0.1598856344666808,0.0,0.0,0.3149405514453223,-0.24084739771661845,0.0,0.39682715342644004
23,-0.2642148451256229,0.23753436459850122,0.05608488444693654,0.05592657636074598,-0.13147989057126358,-0.006274273509675112,0.16039171480273778,0.5349930556272784,0.20455958606058355,-0.25902012008458614,0.47712836905857164,0.0,0.0,0.1394641977413833,0.06918879402384023,0.009455257208758082,0.0,0.0,0.46992392409182043,-0.2518156751178369,0.0,0.13429683913573776
3,0.0583404129263669,-0.19109832895522952,-0.24783318863931988,0.248995895350556,-0.1226522513733345,-0.11170695770406353,-0.3718210907815079,-0.019031474389169613,0.009393244201050276,-0.3001730583293552,0.1735817293156817,0.2892769694224381,0.13132784380201296,-0.4507969821744945,-0.04091611798665058,-0.05548304207653012,0.2892769694224381,0.0,0.2753298246642786,-0.6911981230998642,0.0,0.4916862526530472
6,0.04664765591285274,-0.09043108856206158,0.004709258408846903,0.11535321772432833,0.0789747833588596,-0.05708430139440424,-0.10939695851687363,0.0077999190482056086,-0.06144077883553355,-0.031840034603617166,0.09912438584063077,0.35354636509951315,0.0,0.3127073432726314,-0.1991700421766115,-0.3997993149585576,0.35354636509951315,0.0,0.0028942634038864627,-0.28915627726637655,0.0,-0.39926663925632827
12,-0.042463939947026935,-0.29241092513022865,0.21160447270811825,-0.07639137818936559,-0.09420358298816281,0.26017364792339054,-0.2534050178996394,-0.4269092006640349,-0.017284176302697202,-0.44859880753451264,0.2352695603564329,0.015439258800470495,0.0,0.0,-0.29383431999085524,0.06506581401231062,0.015439258800470495,0.0,-0.09163093863474733,-0.1371375673437961,0.0,-0.5910789417826188
25,0.201611589990439,0.10067022267049777,-0.6075795596217652,0.15532212420419364,-0.0015017070053772433,-0.0064785532883539455,-0.19441789095706324,-0.08543986051660274,-0.0012622132207795488,-0.09763513171198285,-0.00995198551792385,-0.02710234735861301,0.0,0.0,0.0,-0.08048476987129155,-0.02710234735861301,0.0,0.19379674509162795,-0.2742815149629185,0.0,-0.4344289670304417
50,-0.14675889643157775,0.11517583901216294,-0.4449155214715782,0.15783754455847956,-0.33285022351462706,0.05097622127684334,0.16569031347400826,0.04602039116650529,0.06867874500235516,-0.18387872749279324,-0.08379787400722842,0.0,0.0,0.0,0.0,-0.2676766015000161,0.0,0.0,-0.24086923565968318,-0.026807365840333025,0.0,-0.5227065043725593
100,0.055909315637748494,-0.2485060100891369,-0.39545140898914255,0.04594997713665295,-0.21903052228306985,-0.09607809302841053,0.08366743543047074,0.04515390346268958,-0.026382141749517484,-0.18506318729743101,-0.0703231018853533,0.0,0.0,0.0,0.0,-0.2553862891827835,0.0,0.0,-0.31104071657519605,0.055654427392408286,0.0,-0.8490943383856084
200,-0.060374736449259434,0.04146597010534495,-0.41855801176129526,0.03497781554939543,-0.49571094798436577,-0.040498128507063705,0.2380028964825994,0.059114969644703745,-0.02061583049728069,-0.24663606902901886,-0.0809196747253438,0.0,0.0,0.0,0.0,-0.3275557437543625,0.0,0.0,-0.19350574889232888,-0.13404999486203337,0.0,-0.8645839672102495
401,0.08335617633575562,-0.07698694080224584,-0.09064826563082759,0.013401121290837235,0.11991947643177482,0.11214108922687765,0.14027396253971017,0.015894497025726723,0.5500308943511601,-0.0748117886158412,0.0,0.0,0.0,0.0,0.0,-0.0748117886158412,0.0,0.0,-0.035839057680574424,-0.03897273093526958,0.0,-0.9965788254125394
802,0.09633934656247133,-0.10775241548749245,-0.12268288530876505,0.11610317911555015,0.18016218356709607,0.1498312107604648,0.18741941772093915,0.021236566812501287,-0.029572682654241664,-0.09995569817223447,0.0,0.0,0.0,0.0,0.0,-0.09995569817223447,0.0,0.0,-0.07352257121754574,-0.026433126954689017,0.0,-1.1567458006050169
13,0.029759531228083023,0.11935098917977015,0.10511657786688874,0.2487030818658122,-0.057551275715902295,-0.16256953638626048,0.04921595851306351,0.015592911015851243,-0.08158242049323373,-0.04698563430066614,0.04055164351016901,0.0,0.0,0.4255950821481614,-0.2546800566553892,-0.17734901628327565,0.0,0.0,-0.004353381472350149,-0.0020806093181645405,0.0,0.09050312485407602
26,-0.12069073796521876,0.2861758176607945,0.16779883853669728,0.11587660089137104,0.45375755983692767,0.30351547413807667,-0.2792487928998499,-0.06428628329093189,0.05259032359477805,-0.3191926705438408,0.2572973453770129,0.0,0.0,0.41537511582532444,-0.3844090737311596,-0.09286136726099689,0.0,0.0,-0.23657710196071025,0.1746817767938781,0.0,-0.2598529477526493
52,-0.022885984319711613,0.29666616219170383,0.04906713012443296,-0.10095788296706783,-0.010353150069231362,-0.1549498364427897,0.3494062563079475,-0.22175642079473876,-0.26982490256125463,-0.006289264404064638,-0.2084183786367849,0.0,0.0,0.11148381691452092,-0.3037369086809661,-0.02245455127440568,0.0,0.0,-0.3045173340488985,0.08980969100804821,0.0,-0.2119443818987197
53,-0.20063293778447297,0.039822362968955825,0.1461782977378665,0.009886241524652093,0.08657714171397989,0.43590863209074343,-0.5477654696345864,0.16159644112161958,-0.03352559507817117,-0.39345397592781756,0.46201436233500087,0.0,0.0,0.3073475413061223,-0.040369482950905956,-0.1984176719480347,0.0,0.0,0.05346975669252618,0.01509062971465482,0.0,-0.25598998510425397
107,0.26482046511963275,0.06929902865145983,-0.20447165849307505,0.057092673477934085,0.07612831825471877,-0.08555741204897674,-0.34259138399250055,0.1331391416806031,-0.06262034555286844,-0.28876225761406843,0.3336454342374897,0.0,0.0,0.3180530505997724,-0.2372562998678066,-0.035913574108549215,0.0,0.0,-0.016379106781406,0.061262283404823384,0.0,-0.03378463800432141
215,0.0011758673713631615,0.054086064809462396,-0.1491554571557076,0.28168610857951737,0.10677002838650769,0.39723769311091545,-0.16103427643664892,0.11209927683754721,0.38456277051128707,0.09932717586653043,0.04671279264972787,0.0,0.0,0.250365154807778,-0.2293665966837783,0.12504141039226105,0.0,0.0,0.2542850987199491,-0.1082451302036895,0.0,-0.011965004606346322
431,-0.03548784492902319,0.15388223570471682,-0.02277627484883174,-0.24913956578395077,0.213153465581146,0.1360192756671489,-0.4678026127675285,0.07818132021258166,0.1557263339714282,0.2515193988436249,0.007046786163047012,0.0,0.0,0.3120793210830886,-0.19137062277887562,0.13785748670245984,0.0,0.0,0.33343560091027336,-0.07486941590360072,0.0,0.6426267474924592
27,0.19928811454520987,-0.08835611458337785,-0.05280513227261925,-0.2765756619723484,-0.17849372836739386,-0.4702547781078209,0.16915749127208893,0.10846250119061188,-0.22002051694973082,0.35803205480504263,-0.29549465402503866,0.0,0.0,-0.32600249931719816,0.3108296626496235,0.07771023744758707,0.0,0.0,0.2231846356696592,-0.16064723488966065,0.0,0.1550524853566247
55,0.06968564648991583,0.08734286987756347,-0.15878335202176266,0.19136213364484056,-0.09437685411025801,0.15851753119854967,0.026185690091210478,0.05402092934748787,-0.06412052103044236,0.1482854605670135,0.14462374223952973,0.0,0.0,-0.0680057512112359,0.13330267966461964,0.2276122743531591,0.0,0.0,0.2569043382109893,0.0360048645955542,0.0,0.5378514217506823
110,0.16125046507631371,-0.004332871236844605,-0.0555308926659015,0.1130860708338868,0.008153926972335749,0.10470350811818807,-0.05566905636739364,-0.032311421631828756,-0.11922424873296017,0.2062382270417371,-0.13560887991609583,0.0,0.0,0.38567167843774774,-0.07684050215281504,-0.23820182915929583,0.0,0.0,-0.11444677704815062,0.18507612417378924,0.0,0.002180751130386266
221,0.5789946788937405,0.05169041909414626,0.3668189840997497,0.18513822952537537,0.21627884826897062,-0.11720690999789787,0.18530044870192558,-0.07611553526294022,-0.17115908553826817,0.1360078852767187,0.1066917385350514,0.0,0.0,0.1066917385350514,0.019899387524110062,0.11610849775260272,0.0,0.0,0.33653313758971964,-0.09383351377794932,0.0,0.619467780408531
442,0.13930031461388492,0.020420014248475064,0.20921403543486897,0.07152010054109341,0.15096781418906413,0.025741413434476182,-0.07962760934391201,-0.01547638448300725,-0.21562024016499542,0.045899772527031875,0.011926420553698342,0.0,0.0,0.011926420553698342,-0.028562314550966885,0.07446208707799648,0.0,0.0,0.011926420553698342,0.045899772527031875,0.0,0.4500415610237187
884,-0.30257505339542345,0.036854838692085105,0.2640209031988957,0.036498681020731435,0.04745383673627093,0.05803766695208752,-0.04056104961097551,-0.008043510163837173,-0.0715236561406405,0.023572705765395347,0.006742583957055145,0.0,0.0,0.006742583957055145,0.0695296863730616,-0.045956980607663886,0.0,0.0,0.006742583957055145,0.023572705765395347,0.0,-0.3568214638977764
1769,-0.011800497053596783,0.020762402982777966,0.037813051925172904,0.00306310202897073,0.0009469635357839739,-0.020874486206693712,0.016139319649782075,-0.02806113989116027,-0.10613695268958911,0.040688117348919806,0.17129169383928722,0.0,0.0,0.17129169383928722,0.07206648655263588,-0.03137836920370801,0.0,0.0,0.17129169383928722,0.040688117348919806,0.0,0.17838838062511783
7,-0.14963722846071356,-0.09941657678116636,-0.17136231863510365,0.07751752421468856,-0.13096817701839836,-0.35028436112133404,0.06223888012763955,-0.38585081827556605,0.049355810989608076,-0.21214755028763213,0.2275650399319607,0.0,0.18641318546507143,-0.9708383049723801,0.31181708116511075,0.4880255279865486,0.0,0.0,0.16040482171986706,-0.14498733207551343,0.0,0.8676371265999767
14,-0.14189892934765116,0.05504918575305964,0.1657046026406325,0.150259695180823,0.2303371340335809,0.2499951795222462,0.21923311541221144,-0.24828841513920918,-0.127865582508293,-0.09647008502561116,0.36947410357711646,0.0,0.21193510393312415,-0.2700980745339652,0.4415882736255398,-0.11042128447319809,0.0,0.0,0.251817254135193,0.021186764416309175,0.0,-0.5107741925966343
29,-0.004217154440651749,0.036505014524928985,-0.02813204819644827,0.004994982042402768,0.15061773662090258,0.008781441349352399,0.0589781515410946,-0.08845461681840529,-0.11464232093397221,0.009453811666365977,0.19420276455086047,0.0,0.20223944110521286,-0.3385378405577911,0.2664402991180706,0.07351467655172797,0.0,0.0,0.20734803006447655,-0.0036914538472541513,0.0,0.30976049426560703
59,-0.1920033317630696,-0.20514527322306306,0.3170500508520749,-0.3983878045857866,-0.28605695043689916,-0.0007606735497506219,0.042956283722577294,-0.15078046637754938,0.12113000851652915,0.3153725840128641,0.29543872924846576,0.0,0.10086759464592433,0.0,-0.20161647278028777,0.7115601913956917,0.0,0.0,0.6108113132613264,0.0,0.0,-0.10427016658862492
119,0.43246873658290513,-0.0061949386495791445,0.1632145680601238,0.006998734585675402,-0.3701052815727595,0.08359808405936957,-0.047218582977276845,-0.12736353014635104,0.0027756040868985974,0.3141454313042388,0.11227124214275146,0.0,0.128325103249643,0.0,-0.0024858029605818958,0.3005773731579305,0.0,0.0,0.426416673446991,0.0,0.0,1.2548127275205587
238,-0.3115709777714455,0.04027433670205454,0.04043384686308774,-0.019924610903223536,-0.28295871057091826,0.022052813698449924,-0.1659617890208813,-0.06173306560710664,-0.0017172518912046376,0.3709943969839434,-0.160420854704019,0.0,0.1397969901039605,0.0,-0.035659697502972036,0.10643624967893399,0.0,0.0,0.21057354227992373,0.0,0.0,0.8142662428608926
15,0.6916593841467761,-0.056048380528689,-0.10482776213682286,0.022607414035650003,-0.1031616770775431,-0.6129986166651181,0.26680322381838445,-0.0734404917740746,0.036439731703939125,0.09397691799805206,0.27368031144567406,0.0,0.0,0.0,0.19589509053455428,0.17176213890919362,0.0,0.0,0.3068181095136386,0.06083911993006013,0.0,1.0887438531743752
30,0.045806805703112755,0.050759375408150426,0.021225381841157853,-0.04741188662529816,0.017340175777598957,-0.5142659355086922,0.19361512303651082,-0.06146038198684018,0.00412360618653442,0.28928006328271344,0.0,0.0,0.0,0.0,0.1341079837196336,0.1551720795630326,0.0,0.0,0.09676797687766733,0.19251208640497133,0.0,0.37488245292648825
61,-0.007776941506022917,0.05447924452452507,-0.002506299651247295,-0.0122955853224785,0.00042537021995732254,-0.008836052320242652,0.22785022500177599,-0.11120936941231124,-0.007839708798011151,0.5234372514656204,0.0,0.0,0.0,0.0,0.23373283799470262,0.2897044134709265,0.0,0.0,0.2410785216195749,0.2823587298460541,0.0,0.6914538800893875
122,0.43622289727742775,-0.026055558648767994,0.05573060324078107,0.2808071512743832,0.002302732825090583,-0.13255161108058044,-0.16580487897421325,-0.018787415055443128,-0.0014927821753085468,0.08842809693770654,0.0,0.0,0.0,0.0,0.11257598651046453,-0.024147889572759335,0.0,0.0,0.08340384622517534,0.00502425071252939,0.0,0.7793158068103341
245,0.2553615542606639,-0.0630337244649132,-0.0032558577252213257,-0.7316011916543554,-0.03809351824162539,-0.41194432879756654,-0.5152889431034406,-0.05838758972271018,0.02026793831246777,0.2748171277803912,0.0,0.0,0.0,0.0,0.1723852588237928,0.10243186895658751,0.0,0.0,0.12067941443596751,0.15413771334441378,0.0,0.7307354200168023
491,0.2418626638701285,-0.0746789478725332,0.02127764688281538,0.1636569064377991,-0.0237680076578871,-0.16779673081439123,-0.20989195392001375,-0.023782938593197633,0.0073335400745464414,0.11194089198402099,0.0,0.0,0.0,0.0,0.07950020120933252,0.032440690774706384,0.0,0.0,0.033879721654305674,0.07806117032974462,0.0,1.2053535155391522
982,0.2202482043781383,0.039830547087502784,-0.005376872515141483,0.15601564234235998,0.07276155095624404,-0.16385153341022196,-0.20495702349703782,-0.023223759715587832,0.01839154961395875,0.10930896397010842,0.0,0.0,0.0,0.0,0.03492063345335968,0.07438833051677099,0.0,0.0,0.09037797211378756,0.01893099185631999,0.0,0.9145432817529457
1965,0.20449626013113656,-0.1257876056997794,-0.030489632718906232,0.15444498604284712,-0.037408409489284845,-0.159652684762012,-0.19970480825606102,-0.022628629172372204,0.01447488098497716,0.10650781962899081,0.0,0.0,0.0,0.0,0.12182373718500014,-0.015315917556079191,0.0,0.0,0.10344206677627114,0.003065752852675522,0.0,1.1079898468246179
3930,0.09485516801998782,0.49590005358733746,0.10481749426190277,0.13464494893725867,0.12899512847073624,-0.1487461936719105,-0.1860622020251743,-0.021082780176347987,0.0578851273760166,0.09923185939348908,0.0,0.0,0.0,0.0,-0.10110538696256277,0.20033724635605019,0.0,0.0,-0.12049591857358379,0.21972777796706466,0.0,0.6712304325832487
7861,-0.019905117035524684,0.01540871110767827,0.04083423938235362,0.18579862153874194,0.19510868061256248,-0.16820882182732858,-0.2104074263459084,-0.023841346973420417,0.055849179348010675,0.11221580696798573,0.0,0.0,0.0,0.0,0.09062496652556505,0.021590840442421374,0.0,0.0,-0.02771641153411207,0.13993221850210724,0.0,0.9369164580242973
15722,0.4339204282245255,-0.18642892862943636,-0.14120677512210303,0.09706414519849169,0.07671807380923519,-0.08787495499317584,-0.1099201749320936,-0.012455097595397641,0.04376971104013273,0.0586233164213172,0.0,0.0,0.0,0.0,0.027704637603936343,0.030918678817370312,0.0,0.0,0.5571395734214949,-0.49851625700018554,0.0,0.465183677934847
31445,0.447883726059794,0.10798530327173447,-0.022539794897373636,0.04814353861567278,-0.5929759248389072,-0.04358572653595576,-0.05452009262190916,-0.006177692811494469,-0.052157749535900744,0.029076997403496393,0.0,0.0,0.0,0.0,0.006165441533793824,0.022911555869701714,0.0,0.0,0.029076997403496393,0.0,0.0,0.8672047761200052
62891,0.06863645833324168,0.04562286745505776,0.284805454548066,0.1179549099837029,-0.5049202159399967,-0.10678796361774383,-0.13357789648271517,-0.015135763187314194,-0.34870408803448183,0.07124060071080246,0.0,0.0,0.0,0.0,-0.14275176748336751,0.21399236819416542,0.0,0.0,0.07124060071080246,0.0,0.0,1.6462559667218932
15723,-0.1840393051104598,0.41993912221739693,0.36009318694897785,0.27785323469825246,-0.19737051330023825,-0.2515485037640816,-0.3146545627226222,-0.03565363037285212,-0.16602989358402467,0.16781354292142464,0.0,0.0,0.0,0.0,0.15353344924507906,0.014280093676342686,0.0,0.0,-0.11022096456129679,0.2780345074827129,0.0,0.8970503686667143
31447,-0.19107227241291325,0.08878943319732246,0.13351712111669298,0.2663740423696196,0.0006011595800298377,-0.2411560616612355,-0.30165496512390616,-0.034180640933990133,0.07120397677715085,0.16088051607853024,0.0,0.0,0.0,0.0,0.20208721807614713,-0.041206701997617085,0.0,0.0,-0.048556858270382315,0.20943737434891316,0.0,1.4378495292099758
62895,-0.002150277045985557,0.14090621560130365,-0.21270770268735212,0.3154633473242688,0.2900179857645205,-0.2855980175937396,-0.3572460897031935,-0.0404796927913996,-0.0028628262089347898,0.19052872295630546,0.0,0.0,0.0,0.0,0.1150856062720381,0.07544311668426348,0.0,0.0,0.33704901558766975,-0.1465202926313683,0.0,1.4465469500691444
125791,-0.01763660598713921,0.06969719509193195,-0.15896304185522933,0.3093913189069216,0.304176965074066,-0.2801008360876231,-0.3503698283972015,-0.039700540959532335,0.19480041483849214,0.18686143219202025,0.0,0.0,0.0,0.0,0.09367688573940147,0.09318454645261852,0.0,0.0,0.2485882361997424,-0.061726804007722805,0.0,1.9644542291846527
3931,-0.0650430454371417,0.2994114396750284,0.028215752992387426,0.28026574196477555,-0.3399614100750709,-0.2537326157967325,-0.31738660368605204,-0.03596319899258124,-0.12113411391804149,0.1692706121261702,0.0,0.0,0.0,0.0,0.029831003240975536,0.13943960888519802,0.0,0.0,0.16776930231341436,0.001501309812753401,0.0,1.9462803318596635
7862,-0.06484001458359748,0.14380749654532904,-0.04443627577079021,0.19193504094728947,0.20391853848846014,-0.173764298344829,-0.2173566071527024,-0.024628761342166294,-0.06001808612806363,0.11592198761734465,0.0,0.0,0.0,0.0,-0.008584085922298923,0.12450607353964246,0.0,0.0,0.15494385737205374,-0.039021869754711544,0.0,0.7095470014209623
15725,-0.11728730160677801,0.16369152898906503,-0.05855647079445178,0.18002743907854557,0.22975951648180884,-0.16298400479616693,-0.20387185768361304,-0.02310079915696693,0.2423411679812215,0.10873021653914086,0.0,0.0,0.0,0.0,-0.016994082640874788,0.1257242991800173,0.0,0.0,0.16920878628913508,-0.06047856974999141,0.0,1.1776741123542278
123,-0.35644900668037377,-0.23832516781361798,-0.4831496650631839,0.023376884912073157,-0.18258144154647263,-0.2291400304446211,-0.24156947128521505,-0.053214446393623965,0.5884994814567254,0.250468316705153,0.0,0.0,0.0,0.0,0.02135954646470162,0.22910877024045126,0.0,0.0,-0.14144459387189917,0.3919129105770531,0.0,1.7019085640760854
31,0.4719336525888865,-0.2029608251651286,-0.213407786869477,0.34013615133655917,-0.3121795286630862,-0.14681514928559405,0.137056307904507,-0.07932974482121716,0.02668213828898906,0.03320871396146519,0.36938495817228123,0.0,0.0,0.0,0.49802026990220283,-0.09542659776845555,0.0,0.0,0.5602691169870688,-0.15767544485332127,0.0,1.3643274492190383
63,0.46577036807755784,0.00110946683347804,-0.1805071503939825,-0.017628309982466027,-0.011283201382298663,-0.392920408684542,-0.2375030468987646,-0.10413087223531853,0.05182422907271326,0.21255389768966163,0.29843974699778575,0.0,0.0,0.0,0.21485660727505732,0.2961370374123919,0.0,0.0,0.5109936446874469,0.0,0.0,2.130682399880149
