1,0.21282794719930803,-0.0016861374192514227,-0.05791813783811537,0.20262290857961066,0.06986079953249005,-0.017314874129590447,-0.3640527258191869,0.05103236986817268,0.007257677595988939,0.16704647033546524,-0.39970922105263906,0.1980777869051422,0.008002065497371138,0.25089100262579733,-0.44786409762831203,-0.24176950811717746,0.1980777869051422,0.0,0.2571576162205585,-0.6638614926205032,-0.024036661222365717,-0.29725452837684746
2,0.3852109452685827,0.08511333760068275,0.027843665682803338,-0.004012474037620343,0.20436716258081208,-0.011805883462678142,0.048233895118502415,0.06023546188732988,0.04134356014266786,0.0692834383556579,-0.6332125132284471,0.12314084663918447,0.0,-0.036651001471072565,-0.3886855826536081,-0.26173333738728677,0.12314084663918447,0.0,0.09270675704224851,-0.7526193438749078,-0.027157334679303043,-1.408752625140668
4,0.8123777007636495,0.04024766054057729,0.08499753170834073,0.318262597335537,0.30111466495863737,0.061934793603972034,0.03505798125705263,0.12571835559395053,0.07271118880823557,-0.08664821315729125,-0.49627118050446145,-0.001621233023695627,0.0,-0.01811229787249258,-0.37865276948278265,-0.18453309328277998,-0.001621233023695627,0.0,0.2917310476746105,-0.8397967150591382,-0.03323249325352936,-1.6310492890423558
8,0.5197949741942303,0.01115936365638287,-0.1237977794901532,0.4963992491589947,0.10441839248106038,-0.1879590867675939,0.12018197703336368,0.17879403202780278,0.08381963167836101,-0.13609631128360236,-0.524805226329256,-0.002300234428703452,0.0,-0.036084760099696765,-0.35841413098868513,-0.26410241209577545,-0.002300234428703452,0.0,0.3308146506122868,-0.9720215572719766,-0.017394396524471643,-0.9253543792752663
16,0.6197086974996137,0.05572851961264587,-0.09170261998961017,0.5542373913947745,0.13999015320847522,-0.16231314382025894,0.041111817154562934,0.26396751985664496,0.10602946610526917,-0.1372697510303448,-0.6987520230826867,-0.0013583586148234025,0.0,-0.06299860692447454,-0.4559835192025142,-0.315681289371215,-0.0013583586148234025,0.0,-0.1986675665809812,-0.6228441468576837,-0.013151702059541383,-1.7852338175547806
32,0.5815878932408838,0.030725030913355825,-0.05415140195571561,0.6192846037243701,0.11275697610286782,-0.12135418224298797,-0.1432134167629965,-0.275050984350233,0.10730072067159435,-0.12975893870609834,-0.7162864310820468,-0.0012532702097490865,0.0,-0.06921471746488837,-0.45299648305562396,-0.3225808990578845,-0.0012532702097490865,0.0,-0.21184986491365773,-0.6179937612873005,-0.014948473377440517,-2.240949656735397
64,0.2128303444736467,-0.013712803253825928,0.17766089284220474,0.9066981112110357,-0.17048924201749524,-0.1535318971594203,-0.07497899428432124,-0.37941072001753634,0.1360988799156333,-0.20876152311917373,-0.8643517464402256,-0.0012483471586029954,0.0,-0.02934154739541177,-0.524454603554096,-0.5180687714512877,-0.0012483471586029954,0.0,-0.13321660423708218,-0.9386483181637082,0.0,-2.520009370312111
128,0.2754755854088573,0.059835999733698325,0.2349153453243507,0.8621912856546102,-0.023584999549961193,0.17124658172912155,-0.17195666792410377,-0.16809699970476222,0.139917632985304,-0.17532789343255512,-0.9278955033723787,-0.0011804211545604773,0.0,0.0,-0.5673077969965685,-0.5347351786538084,-0.0011804211545604773,0.0,0.0,-1.1020429756503716,0.0,-3.0323052691553816
129,-0.1564130884558999,-0.02212595151763445,-0.5314626051411477,0.2691507042183002,0.06315757753435737,-0.02773673900737706,-0.38686950854924435,-0.3824977666274524,0.0909272907490984,0.0,-0.7169440507403868,0.0,0.0,-0.17688194693655493,-0.1957627835169177,-0.34429932028691757,0.0,0.0,-0.19898665330005236,-0.5179573974403381,0.0,-1.3830228284264976
65,0.3298239666282426,-0.03758025752571658,-0.012102495580199529,0.3705480596384948,0.046942380575131684,0.15575740562282317,-0.33576270353763127,0.07791669213838061,0.1069794032772585,-0.04945011878866837,-0.7940617256698397,0.0,0.0,-0.12418115407891218,-0.3130163175505752,-0.40631437282902366,0.0,0.0,-0.3801955043769693,-0.4311932518528783,-0.03212308822866291,-2.0718115339087992
130,0.5843341143570271,-0.018035254315320496,0.00161941550517019,0.34006879747379837,0.3464477567171704,0.17808646604077744,-0.44742577421570934,0.2566754142914509,0.1051600412069537,0.0,-0.8291665274288132,0.0,0.0,0.0,-0.2548716195626,-0.5742949078662027,0.0,0.0,-0.27928984623729625,-0.5498766811915166,0.0,-2.4218672538762487
131,0.05302860579287268,0.03024411364999613,-0.00019941887357897043,0.3934124634800721,-0.08395840946866823,-0.09777930077670076,-0.2615032129452626,0.014959848448814114,0.10747444853328694,-0.08107634817411274,-0.7663388321061646,0.0,0.0,-0.1872839423789367,-0.3906825397493955,-0.26944869815193706,0.0,0.0,-0.4044659186236096,-0.39624156957413376,-0.04670769208252471,-1.7048217990312038
33,-0.06004214025918054,0.047950504264948964,-0.2885161485459667,0.2409215425872396,0.23515836476643492,-0.05547701790086832,0.8730148232810445,0.32669343886727276,0.12038326645173329,-0.16574138164256152,-0.7834573240509968,0.0,0.0,0.0,-0.43702569643036815,-0.512173009263186,0.0,0.0,0.0,-0.9491987056935575,0.0,-0.8227910101303995
66,-0.5248082246532856,-0.034177462955959144,0.25523340646402365,0.12192525112233846,-0.21680404848012003,0.21286399796005068,0.9730802784608193,-0.32097538703999234,0.08923800562159052,-0.20423168261960647,-0.4993926825545153,0.0,0.0,0.0,-0.42334314274049234,-0.28028122243362674,0.0,0.0,0.0,-0.7036243651741222,0.0,-1.6995254115295646
133,-0.32246970929214536,0.04100297097623527,-0.13794310474386864,0.1916929619275655,-0.0437142035435911,-0.19490628070477517,-0.27553396967194177,-0.004103115476684169,0.06475971049143776,0.0,-0.5106177560334559,0.0,0.0,0.0,-0.13205536104430268,-0.3785623949891584,0.0,0.0,0.0,-0.5106177560334559,0.0,-1.4094241191758379
67,0.20978567644932028,4.032856079753091,1.8723458752904447,-0.08070410843277473,7.640160146389157,-3.5033427771166883,0.11600177253101011,0.43095321438641065,-0.02726430143820802,0.0,0.21497372848876525,0.0,0.0,0.0,-2.1874104385836253,2.4023841670723924,0.0,0.0,0.0,0.21497372848876525,0.0,0.1135956821668258
17,-0.21196143269635387,-6.35293626394031,1.4194305014905082,0.07205403864583622,1.1516653903447096,4.2276029602792375,-0.1035684101249607,-0.9765970347261189,0.024342044880116268,0.0,-0.19193230234705874,0.0,0.0,1.6584019753641908,0.20880873305788572,-2.059143010769134,0.0,0.0,-0.1378853216240229,-0.05404698072303608,0.0,-0.12787157429227158
9,-0.006248088054762551,-0.0673051171391458,0.06921104194759929,0.11690385582288274,0.5546212728462557,0.1422806988443977,-0.1688804763182585,-0.0015067016530503562,0.0893761578929659,-0.03972400494158799,-0.714359500136637,0.0,0.0,-0.03164763694938431,-0.26450093127237917,-0.45793493685645426,0.0,0.0,-0.265603230658259,-0.4282515625087436,-0.06022871191122449,-1.384615325049248
18,0.6662062906428446,-0.33039775490563567,0.669638414614355,0.008549959176554071,1.0804186689583666,0.18526889360510568,0.06256040122487701,-0.053582730811381166,0.11341090712003159,-0.1610690323485804,-0.7331539724161779,0.0,0.0,-0.05324472064577008,0.043499519302965355,-0.884477803421956,0.0,0.0,-0.12809333153720853,-0.4497089465514417,-0.3164207266761042,-0.7100238747085983
36,0.43798982274015924,-0.19517965696166212,0.49409890216243646,-0.04462864479373906,0.844905895677086,0.08736225896952517,0.04861039835052259,-0.08801497303828748,0.12436284083309576,-0.2032114015317358,-0.777365476256145,0.0,0.0,-0.06908994758094128,-0.10081346140907715,-0.8106734687978623,0.0,0.0,-0.19273117642553067,-0.5056444942158339,-0.2822012071465096,-2.3790662922372636
72,-0.3138120779052751,-1.229031136268759,0.12267350146529053,0.29795485306413994,2.7949564733316015,0.5636426256898492,-0.9402005803020244,0.4096558471966931,0.2625264966544762,-0.23589744602202112,-1.8340730588454612,0.0,0.0,-0.027013744685152413,-1.0973294692684321,-0.9456272909138976,0.0,0.0,-0.531006840831877,-1.5389636640355775,0.0,-1.8119385913274093
73,0.00264045151808908,0.04688794467873616,0.06971864860314708,0.28991689405541743,-0.019097934917020522,-0.1967158450101104,0.19709793500675732,-0.013367964800373113,0.09794274102092404,0.0,-0.7722595153738837,0.0,0.0,0.0,-0.30886857595175893,-0.46339093942211673,0.0,0.0,0.13174541770865644,-0.42293539171778327,-0.48106954136475427,-1.510740250110011
146,-0.2913009084236952,-0.04667354029018125,-0.16708581674923906,0.2806988908590255,0.03099526555543283,-0.02437076715972484,0.06466692761109222,-0.016315325308687244,0.09482861929050267,0.0,-0.7477052695636954,0.0,0.0,0.0,-0.2049316368017751,-0.5427736327619166,0.0,0.0,0.0,-0.4919096667221814,-0.2557956028415111,-1.5442492889376684
147,0.9884873127027577,-0.40817133930600324,0.2617878418253641,0.32456585285967166,-0.837045006366797,0.4384995461841501,-0.4665216550421766,-0.4549654758988401,0.10964821272124371,0.0,-0.8645548892656507,0.0,0.0,0.0,-2.064495964365879,1.1999410751002402,0.0,0.0,-0.022190271817867695,0.07756318632862813,-0.9199278037764032,-1.2788570393580179
37,3.4863860469429078,0.1935178152985517,4.0321127559732455,-0.057193738727117076,-4.4281174319051955,-0.35202702082467385,0.08220864090887563,1.8209092073673925,-0.019321783776759395,0.0,0.15234851730779278,0.0,0.0,0.0,-2.6279470870127066,2.7802956043204845,0.0,0.0,0.0,0.15234851730779278,0.0,0.12186540581774574
19,-0.3514208120219574,0.016550696346816905,-0.13650807254278746,0.05411286313337827,-0.08158032598799222,0.016848451650576825,-0.02300693798067511,0.02588725637403476,-0.04492175964320639,0.006662812808640605,-0.40267952170087246,0.0,0.0,0.0,-0.12110909722770359,-0.2749076116645327,0.0,0.0,0.0,-0.3960167088922354,0.0,-0.8198597982797223
38,-0.26300291481054927,-0.0009092969026567846,-0.08310697919006803,0.04531557778223442,-0.16855769341330445,0.026202114732146287,-0.03042034858892515,-0.1818088225051064,0.05221794298669336,0.0,-0.411728351936869,0.0,0.0,0.0,-0.19065024936740127,-0.22107810256946564,0.0,0.0,0.0,-0.411728351936869,0.0,-1.187942882941997
76,0.12203966938170839,0.26568379668417325,0.19385594829755268,0.19709266438030246,-0.2073125656580085,0.3925786717984327,-0.28329534722534344,-0.1528522491052772,0.06658389414462372,0.0,-0.5250010903089549,0.0,0.0,0.0,-0.13881840876636298,-0.38618268154259167,0.0,0.0,0.0,-0.5250010903089549,0.0,-1.2143867144657106
152,0.34419673826933594,-0.16281964833228935,-0.3594361282104178,0.16242960418698557,-0.27085994770924043,-0.3640527370952387,-0.23347165792551844,-0.14068682123489434,0.05487365856636287,0.0,-0.432668154163643,0.0,0.0,0.0,0.01717711270053142,-0.44984526686417325,0.0,0.0,0.0,-0.432668154163643,0.0,-2.063687695189703
153,-1.2040548101556308,-0.6989262942975203,0.8881112669630424,0.11032766779269705,0.4029440607464634,-0.6769191393807776,-0.1585818277619164,1.8850823571432658,0.03727204042134012,0.0,-0.2938828092081912,0.0,0.0,0.0,-0.461847450684184,0.167964641475993,0.0,0.0,0.0,-0.2938828092081912,0.0,-0.5233158634679447
77,-0.0264819927992351,-0.19393456845892548,0.051728045463116185,-0.08977962707439648,-0.10267351811877877,-0.2631550341628625,0.1939278168881344,1.5063689127964792,0.03361155432591587,0.0,-0.2650205863561492,0.0,0.0,0.0,-0.20074174469612124,-0.06427884166003357,0.0,0.0,0.0,-0.2650205863561492,0.0,-1.062283845591508
154,1.2981381571879356,0.11941549791661475,-0.08185459640788154,-0.12546806345790623,-0.45686463687243956,0.4049228232355739,-0.33208788539253437,0.1659313027646825,0.07805177467351888,0.0,-0.6154231038986802,0.0,0.0,0.0,-0.4413266362372899,-0.17409646766138978,0.0,0.0,0.0,-0.6154231038986802,0.0,-1.6703742751142214
155,-0.5890481023616252,0.25023829137644804,0.025620473407676876,0.0679651230711452,0.19487682158218408,0.02880069181546864,0.3384291122452683,0.8518778089059706,0.02296068488557969,0.0,-0.18104054672721445,0.0,0.0,0.0,0.2600479764813686,-0.4410885232085817,0.0,0.0,0.0,-0.18104054672721445,0.0,-0.7463830548991254
39,0.3491598346363814,2.6743987401102083,3.120845912575211,1.923889433422311,2.4819479800812028,5.756567210903055,-1.4666351991911277,3.273779631823066,-4.433412894929922,0.5984464463212859,-2.4853270868068464,0.0,0.0,0.0,-1.337876330897374,-0.5490043095881753,0.0,0.0,0.0,-1.8868806404855438,0.0,0.41573644932497134
5,0.15869802637189825,0.08289894273470352,-0.030432518922713717,0.06081019263936495,0.106470985904328,-0.12474859959391432,0.223697555283131,-0.004811259658259825,-0.09586636128427216,0.09586729773892062,-0.4941503038089583,0.1915606991498588,0.0,-0.13315396439607613,-0.22631493846719652,-0.23037480235662255,0.1915606991498588,0.0,-0.11447459036150745,-0.4753691148583875,0.0,-0.8352887988485169
10,0.07270797084414998,-0.03146491485823975,0.024439643785875324,0.05965993638934828,0.0111252541411684,0.18797155051343148,0.0677524402638268,0.03225896031681471,-0.16653669274512414,-0.1045313803857413,-0.6079398840855492,0.08765427960183328,0.0,-0.2009713861401309,-0.27840796348543195,-0.32074619444756736,0.08765427960183328,0.0,-0.3305774995534207,-0.4695480445197064,0.0,-0.9277858700049486
20,-0.05164395459463823,-0.05326496025210482,-0.07476377563713658,0.1760003353987906,0.05146570973064958,0.015335858587273665,0.06081772342089951,0.03147983110426611,-0.5258047678120612,-0.30626243091286426,-0.4973313823637355,-0.08092637608527731,0.0,-0.07890712127505564,-0.11991221003758819,-0.5238481058786814,-0.08092637608527731,0.0,-0.44271547561498686,-0.279951961576338,0.0,-1.3823269892805274
40,1.1314652562164145,1.0327231768143623,-1.4384400048160852,0.10210835195584189,0.9700982235570658,0.044139336511408625,-0.6042923506988397,-0.08167288492616519,-1.3023427523446214,0.04288132013112542,-0.3930080947493845,-0.21419105060672627,0.0,0.0,0.7435271850741942,-0.8794629090857315,-0.21419105060672627,0.0,1.1081351826935384,-1.2440709067050872,0.0,-0.8221386555116152
80,0.413233191898382,-0.09042599178800653,-0.7431795032723553,0.15440065477893783,0.6837095867036419,0.06547048906825696,0.7986926015441137,0.17675445757533115,-0.8196005506876929,-0.7556703567388717,-0.45598941236345136,0.12612081256280458,0.0,0.0,-0.13969691104818405,-1.1980836706169489,0.12612081256280458,0.0,-0.5449756985254717,-0.7928048831396592,0.0,-1.63774086060375
160,-0.37677339012818495,0.018889971906399083,-0.3703301694678935,0.25181754547072566,0.31853285638927736,0.03351621575279942,0.7760503750996433,0.21809540145138467,-0.8222904248727495,-0.7727819396587718,-0.5221101327904929,0.11771258075560358,0.0,0.0,-0.1289463374453663,-1.2836583157594998,0.11771258075560358,0.0,-0.5889154030725001,-0.8236892501323655,0.0,-2.6346263778067383
81,0.8823692862098703,1.2919755182736443,-0.24393346899564264,-0.9941673707769112,0.25165104803071,-0.6771156543856851,-0.29647038461222075,-0.06557053115926187,-0.06172280895447443,0.27883168465038377,0.4194628430975196,0.0,0.0,0.0,0.08633074347119675,0.611963784276704,0.0,0.0,-1.1862097000482599,1.8845042277961563,0.0,2.594546187868974
162,-2.5145628858682114,-0.46395979523887965,-0.5256436233060124,0.15340457484371517,-0.27402626404006075,1.286532887751453,-0.22049933939930724,0.3756465569701127,0.05182472927042019,0.0,-0.40862793805420355,0.0,0.0,0.0,0.0,-0.40862793805420355,0.0,0.0,-0.40862793805420355,0.0,0.0,0.005374854142913943
41,-0.13791677690305942,-0.09622534115350415,0.010977020419663721,0.1548231432458201,0.05043873060380746,0.013429943516243843,0.22291435027114162,0.021092300776162757,0.0922657817906314,-0.25489526620651687,-0.4726025267744122,0.0,0.0,-0.17802447733806684,-0.18014282298323703,-0.36933049265962586,0.0,0.0,-0.37169269744370403,-0.35580509553722606,0.0,-0.9689304750706461
82,0.08893591503068445,0.027783722762702075,0.04566503260058929,0.056052982894887346,-0.07700846214064334,0.07263645640928784,0.031110891125982847,0.04624167842159984,0.09858757267679497,-0.18660083297150648,-0.5907430549333985,0.0,0.0,0.018746134596923314,-0.5991623954165303,-0.19692762708529402,0.0,0.0,-0.35160607547083783,-0.42573781243406345,0.0,-1.0915374584650626
164,-0.057827523970953594,-0.041420967394677446,-0.11328552138911763,0.10098659400008048,0.1284138121967887,-0.1765340881793912,0.18903643051371163,-0.20137901790609017,0.09253801506157952,-0.2413447046867184,-0.488299594831594,0.0,0.0,0.0,-0.3853606879124884,-0.3442836116058258,0.0,0.0,-0.2239262586565562,-0.5057180408617565,0.0,-0.8729018450356067
165,-0.03262966387666657,0.20347989985752954,0.36703484061691216,0.5249152586061121,-0.2912705249487704,0.13600172699324325,0.688838872146621,-0.015258189716457524,0.11909076500389093,-0.49512096610994283,-0.44388661636889554,0.0,0.0,-0.4356661782241738,-0.04238601710664368,-0.4609553871480188,0.0,0.0,-0.8272077525963224,-0.11179982988251168,0.0,-0.5534428224873174
83,-0.47425359460396416,1.0311023984457588,-0.16430508800234356,-0.12391368326589737,-0.7768900190724715,-1.1695835968806485,0.17810997703622078,-0.31025343448166925,-0.04186180949752059,0.0,0.33007224811405156,0.0,0.0,-1.8854773438992771,1.053612877766853,1.1619367142464663,0.0,0.0,0.17142669441931724,0.15864555369473538,0.0,-0.3091907537924077
166,1.7465031287058104,1.1922780092508052,-0.515348279305033,0.012560507705134293,0.26523205606531486,-0.24665056953753978,-0.018054113798910344,0.012419820763998765,0.004243321374090632,0.0,-0.03345776597400464,0.0,0.0,0.0338794040591097,-0.04864933509815339,-0.018687834934962264,0.0,0.0,1.2150168827040058,-1.248474648678003,0.0,-0.8298017912948845
167,-6.485471490808826,0.9298429956446328,1.1365477336402368,-0.06421413391081612,-1.4095807126367608,-0.06116115396970729,0.09229955574570621,-0.012864920114918537,-0.021693486707635476,0.0,0.17104893488767003,0.0,0.0,0.0,-0.07419901409126532,0.245247948978935,0.0,0.0,-0.056739297050621355,0.22778823193829192,0.0,0.09898058677272425
21,0.08481894343035087,0.1729184342520765,0.6326099784749347,-0.09507862918785391,-0.006303461763814407,0.09627467527506708,0.0007008737650791711,-0.06788883036752087,2.13412390568337,-0.293698847191037,-0.11286952738055288,0.5772654787695352,0.0,-0.1354356981263583,-0.7470359979989974,-0.10136215721575985,0.5772654787695352,0.0,-0.5756129729199817,-0.4082208804211443,0.0,-0.2817024097276093
42,0.006573634911693311,0.4770775078360971,0.3956635194009552,0.7765388368623103,-0.3362871235141503,0.8232888703727347,-0.07130297251535431,0.016707377677702372,0.2127185848525349,-1.2644759572893174,-0.6236729019390377,0.0,0.0,-0.2663932007115673,-1.1037926099314666,-0.5179630485853137,0.0,0.0,-1.297079281504285,-0.5910695777240751,0.0,-0.8809107083202085
84,0.08402787755500228,0.2694907236656868,-0.12807426928541646,0.11875471029126104,1.4364282803479467,0.11591545598232073,-0.13000580171908413,0.1083072148428082,0.27813591034590557,-1.5413993352987938,-0.8401079230702784,0.0,0.0,-0.19448899886486176,-1.1221427274200095,-1.0648755320842027,0.0,0.0,-0.8278392636416868,-1.5536679947273768,0.0,-2.0222343866304526
168,0.45452569767324535,1.6826296564767504,1.2010722574417185,0.2989415094348091,1.5054674671535708,-1.1671080067159743,-0.08268279940966941,-1.7000408002850926,0.1798593388170379,-1.0128666950586407,-0.5469548574440479,0.0,0.0,-0.16522387674861255,0.03189863929268839,-1.4264963150467502,0.0,0.0,0.23868559828854813,-1.7985071507912358,0.0,-1.5785395849085702
169,2.146627658352796,-4.621682785816015,2.4827104535017073,-0.14690465905167766,0.25390536096850197,-1.777273631395135,0.21115654672343537,-0.17857879100357205,-0.04962886010194204,0.0,0.3913139355850337,0.0,0.0,0.0,1.6432831500233769,-1.251969214438341,0.0,0.0,-2.192289161286495,2.583603096871517,0.0,-1.101138652822205
85,1.9385945081615528,-5.267581140417018,0.48398147596059043,0.20208493807616645,-0.21703325096914192,-1.932099372707558,0.7361679888753616,0.3380173731831845,-0.2563456194565584,0.4730765922505318,1.548158894792292,0.0,0.0,-3.5015320523236353,2.746770301297332,2.775997238069125,0.0,0.0,2.2736937090467877,-0.2524582220039743,0.0,-0.031210679874878577
43,-0.3752847509702129,-0.722492345928815,-0.8212097628099438,-0.24682444784729143,0.9233609362325661,-0.3561979325915343,-0.16497670665151126,-0.010870100448707303,1.0104405768074944,1.9331218146691898,0.4457209797799814,0.2787240375711746,0.0,0.0,2.2794241731987688,-0.1793054163207646,0.2787240375711746,0.0,0.9295601824409248,1.1705585744370695,0.0,0.4460447696669937
86,1.3562622287291854,3.6319727900413894,-0.9226688775973539,1.1644678053790198,3.6549686560448325,1.2333222203188774,-0.8599167771946312,-0.2341967641138458,-1.246899902370957,0.17922200214804102,-1.523923910139382,-0.03396061012645952,0.0,0.0,0.0,-1.3107412978648831,-0.03396061012645952,0.0,0.8646821644939154,-2.1754234623587916,0.0,0.03493982366974041
172,-2.7859475471320043,-1.694989727232736,-1.9781291846204292,1.1512237081415164,1.1744054439179452,2.056144711689097,-0.7876999653783644,-1.1618967487670457,-2.079866108875121,0.21792581465397526,-1.3750470066091762,-0.031498020765637604,0.0,0.0,0.0,-1.12562317118956,-0.031498020765637604,0.0,-0.5422587647187304,-0.5833644064708324,0.0,-0.7345397090070249
87,3.0969026782328237,-1.1301209360804496,-0.39371642349648556,0.3852978435791629,-0.4646798614339581,0.29671835978753114,0.15902726299793643,0.847054202961648,0.9748905841307152,0.9278736844838251,0.6553969253915063,0.09017797416597265,0.0,0.0,0.6670008668113523,0.8260917688980125,0.09017797416597265,0.0,0.12557580492699305,1.3675168307823766,0.0,0.38687497129692594
175,1.427462563047154,0.1731561593017208,-0.33860079853586883,0.2319476794497255,-0.3215539302909061,0.5972385465506979,0.18898594655870887,0.5618987137838782,0.9067435251620625,0.8510926538629852,0.6810693784723468,0.09467574203584418,0.0,0.0,0.6388949771363972,0.7985913131630963,0.09467574203584418,0.0,0.10208816293547497,1.3353981273640136,0.0,1.6567771412307766
11,-0.05685978188370956,0.023288242369906842,0.019666923918273377,0.005887713354671172,-0.010759049512859333,-0.11012726004304525,0.016327569604456707,-0.06166105269102802,-0.05941175534891165,-0.30771366920440885,-0.10520551994678097,-0.04790311869369922,0.0,-0.1277919372151752,-0.13025666132127545,-0.10696747192103957,-0.04790311869369922,0.0,-0.3839873281843418,0.018971257726846838,0.0,-0.10723114117085238
22,0.05303045079016956,-0.021790813586628998,0.01076355961523394,0.026738242038188382,-0.0140069999380615,-0.023320381196082787,-0.10992263471736957,-0.029880184518442852,-0.023690577528853396,-0.158414107234654,-0.2517516060866292,-0.026940876588410632,0.0,-0.12695223000325773,-0.11783267446184617,-0.13843993226776807,-0.026940876588410632,0.0,-0.18050746698299064,-0.20271736974988272,0.0,-0.6489686187825472
44,-0.5975094201192636,0.011925880140453298,0.002274050472248787,-0.13093097008993734,-0.3505493508812438,0.6182636007595371,-0.42337828256139376,0.09257333700801905,-0.544695605239335,-0.5570951389624047,-0.22750673372934763,0.0,0.0,-0.6048303490124425,0.02091444570087823,-0.2006859693801866,0.0,0.0,-0.5356328779743325,-0.24896899471742212,0.0,-0.7649540746901629
88,0.3127620503713357,0.07010248385376791,0.0591541935405006,-0.3166187258521079,0.7843175616351123,-0.10421429105059923,-0.5316070045058838,0.025578118611415353,-0.3479944784266045,-0.4089894902009991,-0.5761811443151672,0.0,0.0,0.0,-0.2084079532363202,-0.7767626812798403,0.0,0.0,-0.3612338526561609,-0.6239367818599992,0.0,-0.7874215201238892
176,0.327174902269601,0.058576546558657024,0.01813926459285544,-0.18092008750146943,0.869559876435049,-0.30842297623856574,-0.7489092731751048,-0.01574602243623687,-0.31682031541178957,-0.42619789603928676,-0.9616758858999183,0.0,0.0,0.0,-1.3588186440886545,-0.0290551378505539,0.0,0.0,-0.5649410465623624,-0.8229327353768462,0.0,-1.4172000153575233
177,3.4023776857263393,-0.2542144903351649,-1.2689401734903993,0.034604289915019994,-0.5281863108580542,6.594600240330162,-0.04973921458611998,4.62459188053683,0.011690381191487199,0.0,-0.09217638815667788,0.0,0.0,0.0,-0.09217638815667788,0.0,0.0,0.0,-1.4518696752432847,1.3596932870866167,0.0,-0.015176384457147085
89,-0.22452645448772393,0.14604460233483035,-0.30426175091025276,0.01085787709115557,-0.2344137886406649,-0.9247850624496585,-0.015606801350727716,-0.07784141028094102,0.003668120988398912,0.0,-0.02892242250223009,0.0,0.0,-1.1993128939334228,-0.11548972089739275,1.2858801923285748,0.0,0.0,-0.02892242250223009,0.0,0.0,-0.23452640918562476
178,2.408814787548972,-0.7073834622611618,0.09567523310259131,-0.07927638773588416,2.4132961260084076,-2.146541616018943,0.11394960771889935,-0.6821127526127366,-0.026781973980467718,0.0,0.211170670039683,0.0,0.0,-0.33520553889749183,-0.041304259259095026,0.5876804681962686,0.0,0.0,0.211170670039683,0.0,0.0,-0.030084960226560042
179,-3.2956339100498813,0.43140854811022183,0.5711285065323674,0.19527313156978068,-0.8009259798896868,2.0695197192747106,-0.2806800029101935,0.3116945443373008,0.06596920064281715,0.0,-0.5201543512769355,0.0,0.0,0.0,0.16878104072127867,-0.6889353919982125,0.0,0.0,-0.5201543512769355,0.0,0.0,0.5902172394576308
45,0.030288353850132056,0.08995608662095161,-0.07513845965765258,0.014550133121342344,0.0956207516129504,-0.11399050125543025,-0.0050996537982872904,-0.15039180090459403,0.10343538031514432,-0.06567073474152198,-0.2649235566616372,-0.022551185220439057,0.0,0.0,-0.1892003845707282,-0.118842721611993,-0.022551185220439057,0.0,-0.11804938155613279,-0.18999372462658984,0.0,-0.3950400445721085
90,0.012970065040922912,0.06607905873064619,0.08373752212880713,0.2573684517241595,-0.024338170034242115,-0.02689013979988691,-0.05727830053957223,-0.13049042784675735,0.14678511305744132,-0.2184758611757967,-0.19107502367467855,-0.06288106257162858,0.0,0.0,-0.17082204024042602,-0.1758477820384203,-0.06288106257162858,0.0,-0.20254951782692707,-0.14412030445192148,0.0,-0.8317531904238137
180,2.268027603158007,1.239705425260895,1.3169742288725326,0.8112172003985013,2.2352752806806873,-0.5831179670301283,-0.9011135641576342,-1.3177656508613242,0.21179186582415513,0.0,-1.6699377815712553,-0.02117196120709891,0.0,0.0,1.4023932907385548,-3.0511591111027037,-0.02117196120709891,0.0,0.34740835094847533,-1.9961741713126289,0.0,-1.3674169421277171
181,-0.06759490852277214,-0.06379366479636236,-0.01800644273210594,-0.011818562495858144,-0.07510175559934656,0.04425006789096864,-0.06245203469929076,0.578242395449954,0.12469111181967577,-0.03660591336637656,-0.12996537427675195,0.0,0.0,0.0,-0.1139507739508804,-0.05262051369224681,0.0,0.0,-0.19557936801065565,0.029008080367527285,0.0,-0.4708699291752554
91,-0.23284928947936653,-1.1343494906732725,0.40648138385737054,-0.5308613116261316,-0.24430595369822483,0.8047146524970574,1.1665704777388954,-0.013023517109845588,-0.15846831607473527,-0.21692597062946406,0.5741958293404238,-0.27581524683208836,0.0,0.0,0.755836864469149,-0.12275175892609913,-0.27581524683208836,0.0,0.41914069445263924,0.2139444110904118,0.0,-0.10687202155102826
182,-0.4101864216640442,-1.2214838356586712,0.3079254836769661,-1.0816380044014242,1.3248488500336104,0.4559564630249543,1.7414307465619305,-0.32312985590353904,3.95224807287686,0.1323997992829622,0.003366129590633303,-0.5713570076154886,0.0,0.0,1.3923751983661246,-0.6852522618770461,-0.5713570076154886,0.0,0.6372022965111193,0.06992063997796168,0.0,-0.7819141621632617
183,0.18935658604756891,-0.4253873239368551,0.05144457557550441,-0.19484796614240582,0.12311869488774013,0.3302589495551409,-0.08831891852028298,0.19620524580091864,-1.2711742864191917,0.29241356214996606,0.13103548928715292,0.05866344253517357,0.0,0.0,0.28445430091463314,0.08033130798731396,0.05866344253517357,0.0,0.4328719236829522,-0.06808631478100534,0.0,0.5048594824388284
23,2.1045619175817696,3.229559952177039,0.5389657174715033,0.30417704771679255,-0.5433508099578204,0.31069347570763856,-0.4372153708604462,-2.6877707260544508,0.10276025447258154,0.0,-0.8102446745056756,0.0,0.0,0.0,0.0,-0.8102446745056756,0.0,0.0,0.0,-0.8102446745056756,0.0,1.6811046494052677
46,2.7866533117493737,-8.213180911366559,-4.885476893628082,-0.4237970259817002,0.757027721365981,-1.0006890071020764,0.6091536993832024,-1.3994498427834479,-0.14317151988124494,0.0,1.128879663835534,0.0,0.0,0.0,0.0,1.128879663835534,0.0,0.0,0.0,1.128879663835534,0.0,-0.43063242355182507
3,0.047637695859785674,-0.20252751283287396,-0.2355859379093918,0.24809241883279487,-0.1673491331667319,-0.1027476308841328,-0.23211513759121277,-0.006184756604763395,0.008435301295700469,-0.20950140116125435,-0.04164993212072344,0.0,0.04211103529892702,-0.12142267706213099,-0.06864572752017369,-0.10319396399859994,0.0,0.0,0.355620489793966,-0.6067718230759453,0.0,0.35373534121279915
6,-0.010108787422660312,-0.05863238773099548,0.09658482158326355,0.05678440056811799,0.035813385154785445,0.1116138961973579,0.023827103923039408,-0.012716970324131927,-0.044958917132090596,0.18062999144095743,0.1538805155124078,0.0,0.0,1.1077481098366941,-0.15937419885063614,-0.6138634040326931,0.0,0.0,0.2354113221394473,0.09909918481391751,0.0,-0.26065264148902917
12,0.24452318242342208,-0.3290718578987524,0.11766813563480354,0.11714286495410547,0.1294748357087835,-0.5135170068737132,-0.30569480532178644,0.14744598573389606,-0.03487515164532175,-0.3621162687386595,-0.8697273301544342,0.0,0.0,0.0,-0.7373985116801783,-0.4944450872129154,0.0,0.0,-0.4760447557634145,-0.7557988431296787,0.0,-0.5886628793968152
24,-0.1506037425780447,0.14290125390284303,0.4736214184951498,-0.22367317856343116,-0.7572146170220442,0.2812909767973099,-0.23671397521342563,-0.4552287676191868,0.134077189617197,-1.0120305934656668,0.04609229840078324,0.0,0.0,0.0,-0.4539132551334781,-0.512025039931398,0.0,0.0,-0.14725370269019367,-0.8186845923746884,0.0,-0.8663650891281164
48,-0.41618757439398824,0.32312441923937263,0.6502195636583543,-1.5383664434535718,-1.26102377961497,0.2888732547894348,0.21629883149202792,-0.6341466804445488,0.41859257845502745,-0.22314785651087024,-0.37454697745098925,0.0,0.0,0.0,-0.7403076008986473,0.14261276693678906,0.0,0.0,0.13809801843323002,-0.7357928523950882,0.0,-1.2969573490074522
96,-0.05882601330362554,-0.3165364645075838,-0.4661730387684974,-0.021937687559237185,-1.1571770104270904,-0.7557015794229709,0.908679533450552,-0.4106836044068673,0.12429715492040182,-0.763221291436801,-0.9680700092912998,0.0,0.0,0.0,-0.5067122952525517,-1.2245790054755534,0.0,0.0,-0.07938806851259803,-1.6519032322155074,0.0,-1.8872681269110594
192,-1.381189488740701,-0.9740823284710383,-0.33956031400462283,-0.011466399941087158,-1.3663005839064153,0.6232476711193091,0.611265603142843,-0.3674448551161261,0.1715649097079438,-0.5324713432218492,-0.7174293788071624,0.0,0.0,0.0,-0.40442550861243826,-0.8454752134165818,0.0,0.0,-0.6473613592159546,-0.6025393628130666,0.0,-2.598196727366763
193,5.747838982389059,1.3107437292594672,3.0811420896729524,0.869277883997479,-1.552789225530968,1.4929042390326803,-1.2494751174868646,0.49195471431844956,0.29366849746710094,0.0,-2.315519140781128,0.0,0.0,0.0,0.0,-2.315519140781128,0.0,0.0,-2.315519140781128,0.0,0.0,0.09061357980574858
97,0.1694522902970185,0.0885979675810816,-0.6009348713920355,-0.8601854484792026,0.2551500866442648,0.9190529629120641,-0.9554340418892701,0.0009688482156939839,-0.024359387397570858,0.39466576677992254,-0.3992259153518455,0.0,0.0,0.0,0.0,-0.004560148571925016,0.0,0.0,-0.3992259153518455,0.39466576677992254,0.0,-0.04017206398947126
194,-0.2915745767032427,-0.5916652028754414,0.307923479167712,-0.004721016675846706,-0.1325029086641711,0.35254605793054206,-0.03440981159563524,0.09112324660846517,0.2285069688619977,-0.08159687888775007,-0.34729955314326333,0.0,0.0,0.0,0.0,-0.4288964320310133,0.0,0.0,-0.34729955314326333,-0.08159687888775007,0.0,-1.1945225018334773
49,1.3164044561313604,-1.3136976489043826,0.37541568544859083,0.45112606723460996,-0.43686074041118833,-0.36846117119856464,-1.2082703126166392,0.15685587751858063,-0.14148735153389427,-0.2698588993713173,-0.4684261015996973,0.0,0.0,0.0,0.0,-0.7382850009710146,0.0,0.0,0.2018992148059097,-0.9401842157769199,0.0,0.27552730531676883
98,-0.2908302489373947,-0.9442002976177263,-0.9276756415901726,-0.08304399308108014,-2.65889062718714,0.5039301460564812,-0.9565906887270983,0.3248103932872409,0.13901099554607016,-0.8095660757738519,-0.719242696438457,0.0,0.0,0.0,0.0,-1.528808772212315,0.0,0.0,-0.9682935802107847,-0.5605151920015238,0.0,-0.8057492132049995
197,0.7548069324473516,1.2766519296725747,-0.17416433905189382,-1.292117385049425,-0.4800161578036235,-0.20826959309297088,-0.26051825696625597,-0.029519424599739587,-0.15316175313025396,0.13894122913373705,0.0,0.0,0.0,0.0,0.0,0.13894122913373705,0.0,0.0,0.39741688481792226,-0.2584756556841841,0.0,0.03442718887397482
99,0.6966025038652081,1.1336070635998812,-1.593587722503874,0.8218606463279772,1.4668419153844414,-0.6280203316948332,-0.09722854447730159,-0.21019530224386188,-0.12037002616090393,0.2613589647201895,0.7279825975864486,0.0,0.0,0.0,0.0,0.9893415623066357,0.0,0.0,1.2483053042905565,-0.2589637419839065,0.0,0.6319949105806848
199,-0.817410949294643,0.7002488896197724,0.4484595281683652,-1.5518236810712924,-0.6301466027681327,-0.41215807469598104,0.19243571242407218,-0.18305881909354124,0.11004108818941763,0.11285365061715613,0.7487626469055106,0.0,0.0,0.0,0.0,0.8616162975226697,0.0,0.0,1.1805013957129917,-0.31888509819032396,0.0,0.9424074746931489
25,0.20344952563446558,0.13129469406759056,0.03843964079184072,-0.1471100761948694,-0.0008601087639883256,0.0008581539829251757,-0.49239091650138406,0.2163231062165151,-0.15269025874548794,0.04932324323109323,-0.7411080283159196,0.0,0.0,0.0,0.0,-0.6917847850848297,0.0,0.0,-0.9232941015366232,0.23150931645179693,0.0,-0.5889639193082135
50,1.046845731500595,-6.832986748006572,1.5423498016027328,0.0985891297558351,-0.26659580110545855,0.5959144320423041,0.7454116889132045,0.08446288718063943,-0.7040769318383682,-0.3975476324550615,0.0,0.0,0.0,0.0,0.0,-0.3975476324550615,0.0,0.0,0.5543981526896313,-0.9519457851446934,0.0,-0.4075204721327259
51,0.2194228701920116,0.22436559004276965,0.03983402351283555,-0.003372043170142124,0.006073536686909024,-0.04345532956779922,-0.4014167538665575,0.1360911646000135,0.4994554388447846,0.038167552689437036,-0.6112789163128709,0.0,0.0,0.0,0.0,-0.5731113636234326,0.0,0.0,-0.49091220179482153,-0.08219916182860935,0.0,-0.2705083226312928
102,-0.03776047785589779,-3.3481678377263058,3.2920038144692487,-1.2598709014104807,-1.0462913975272976,2.51511971323771,2.428590284071161,0.3759185623625874,0.24230744241565777,-1.4327384559459735,-0.4778087280604715,0.0,0.0,0.0,0.0,-1.910547184006441,0.0,0.0,-0.035437986957453066,-1.8751091970489826,0.0,-1.1953073012470918
205,3.141772375018174,4.234247100526261,-1.2075291812063218,-7.272757972535299,4.0587743407111505,1.4555596934859438,1.820716450375075,0.2063060861846397,0.12315279554154795,-0.9710359053718572,0.0,0.0,0.0,0.0,0.0,-0.9710359053718572,0.0,0.0,-0.9710359053718572,0.0,0.0,0.16868634190429965
103,0.18191744114222302,-0.21451036696751527,0.24520658040481472,-0.21394031936430302,0.14837298449366437,-0.43304258092305065,-0.3719322763993893,0.14094115496237242,0.3704577584448601,0.042257388109309825,-0.5424271809679949,0.0,0.0,0.0,0.0,-0.5001697928586802,0.0,0.0,-0.42284829206811364,-0.07732150079056796,0.0,0.16845579531966265
206,-0.2812123970444374,-0.578369726439984,0.22154300053317352,-0.7989168761177539,1.0138779817692685,-1.0273705846064627,1.0122029711184741,-0.15522115500802847,0.3672022862127155,-0.2696491131570477,0.9388355702949162,0.0,0.0,0.0,0.0,0.6691864571378694,0.0,0.0,-0.2601942590930588,0.9293807162309299,0.0,-0.07149444860982412
207,0.282043106498531,-0.2889910506719611,0.008559943020651831,-0.07491517543773335,-0.05543631402592683,-0.5174208537339583,-0.6388666918610155,0.3946991222020895,0.12947702574064568,0.10745570119895174,-0.8105582556877345,0.0,0.0,0.0,0.0,-0.7031025544887896,0.0,0.0,-0.32264968305859903,-0.3804528714301892,0.0,1.1590673838676242
13,-0.16649181188560622,0.14976311834839895,-0.1997247347656227,0.11860499956673862,-0.8341190887376794,0.020666157452986167,-0.15596630357852878,-0.05470876169191512,-0.08579040741279848,-0.05879508073284247,1.0931477657002124,0.0,0.0,1.3926832785093581,-0.35878270710984306,0.00045211356785567223,0.0,0.0,0.32583274346856855,0.708519941498802,0.0,-0.18209660049637955
26,0.10392231682871758,0.44798364109409616,0.62808458718541,0.21728508024870763,-2.3524561746585775,0.6550581410606946,-1.058176367532488,0.254987534782611,-0.06039670077134908,0.6591335545125877,-1.200898056161605,0.0,0.0,0.0,-1.0267104472778747,0.4849459456288573,0.0,0.0,-0.3246720577762765,-0.21709244387273552,0.0,0.13245475480449687
52,-0.03922055926707588,-0.1885867828468062,0.401479309371876,0.2532694990282413,-0.8233901165111507,0.4057227828175454,-0.47350579027565853,0.028007461916686367,-0.09744024036270073,0.6573450567253272,-1.5237217574650412,0.0,0.0,0.0,-1.5635190929394225,0.697142392199696,0.0,0.0,-0.23807205549230442,-0.6283046452474187,0.0,-1.442885847427678
104,-0.3907875682929916,0.48423311043073486,1.089242908185909,-2.041941317514401,-2.523863985344844,0.6501851172031038,0.44656209639193206,-0.3129347778348014,-0.5977267389909287,-0.6229572660013349,-1.3370758641638765,0.0,0.0,0.0,-1.3624357673606688,-0.5975973628045276,0.0,0.0,-1.6920692040594851,-0.2679639261057142,0.0,-0.4517375010368134
105,0.0726327509643967,0.07498630778863441,-0.02156435746969002,0.27659472467617136,-0.3954594343752032,-2.3225654545918855,1.8657330459389823,-0.030911635230766833,1.1615961447963927,-0.9625850743249484,-0.22664039255028365,0.0,0.0,0.0,-0.9625850743249484,-0.22664039255028365,0.0,0.0,0.9396281399396035,-2.128853606814835,0.0,-0.7948718249648958
210,0.9663917363753799,-0.5157791715483081,-5.29723460321533,1.0523687175459147,-0.8415239816409722,-2.5944182954055046,-0.7343492962688647,0.3865492358823992,-2.8033744749092513,-0.5540319755209202,-1.2653675108322715,0.0,0.0,0.0,-0.5540319755209202,-1.2653675108322715,0.0,0.0,0.049899030927442425,-1.8692985172806276,0.0,-0.5301569440419709
211,-0.44914429349205653,0.0018731221358007425,4.987164598845044,-0.6075087674583365,-0.9843515919867808,0.15422030788839958,0.2177454636610938,-0.46631682642254535,0.6716284590204167,-0.5772758441153282,-0.9277810234436837,0.0,0.0,0.0,-0.5772758441153282,-0.9277810234436837,0.0,0.0,-1.1463781168193496,-0.3586787507396623,0.0,-0.14081586613747998
53,0.6260707981720902,-0.9691376264116947,2.6696535466644575,-1.2486985003677376,-0.6388173168724248,0.34078603546877995,0.28184278070468155,0.7037572470990502,0.0031032198723110623,-0.12219081682384343,0.0977225300502719,0.0,0.0,0.0,2.388740093014817,-2.413208379788382,0.0,0.0,-0.024468286773569423,0.0,0.0,0.14722591316082045
107,-1.0217129683245552,1.5498892917472928,0.4289032708318315,-1.1605327299444517,-0.07078392222329793,-0.11491671120020473,-0.43608656225954556,1.3015494783708323,-0.06180110549090042,0.2894983433551074,0.19779138611832203,0.0,0.0,0.0,0.9701397589449584,-0.48285002947153344,0.0,0.0,0.48728972947343036,0.0,0.0,1.1289987999373148
214,8.291569006475376,-0.10008342493753274,0.18040038008071232,-0.04786855983044339,0.0855075060745618,-0.19113263114605333,-0.23908213952920432,-0.02709048983039545,-0.016171454836369815,0.12750878466998805,0.0,0.0,0.0,0.0,0.0,0.12750878466998805,0.0,0.0,0.12750878466998805,0.0,0.0,-0.001567188473255321
27,0.48353844719930383,0.04527434000821179,-0.18216023440279092,0.03845521513404111,-0.7690663977529691,-0.05471075987459792,0.22639744973218498,-0.020308845583082033,0.15421885052130538,0.22736332657352606,0.4774430369181683,0.0,0.0,1.256789076402324,0.3313720645640798,-0.8833547774747067,0.0,0.0,0.08615944657128921,0.6186469169204035,0.0,1.4920680635202583
54,0.21594708517636182,0.06786500877736841,0.1649538002542357,0.228507172995278,0.8117990392825433,0.39029493531946363,0.4952735163436998,-0.08892925501787813,0.14768947350478986,0.10819555844488207,-0.2706724810998759,0.0,0.0,0.0,0.7145680987201087,-0.8770450213751046,0.0,0.0,-0.21030129999627203,0.04782437734127559,0.0,0.1458714864960043
108,0.28510708957315556,0.6744392320784075,-0.9155036770712199,-0.02154359902981255,1.722431945214615,-0.16266968540254237,0.7791428850553905,0.01697499722964193,-1.3452836626343967,-0.45799532059512416,0.19593841201479278,0.0,0.0,0.0,0.5718368343434658,-0.8338937429238004,0.0,0.0,-0.8585675258545896,0.5965106172742664,0.0,-0.7051903816750866
217,-0.3169405887851919,0.24624330714450351,-0.1488427319579208,-0.26832585393797,0.09454508347817485,-0.747475325401785,0.3314985007051822,0.03693989683487283,-0.7856563072861975,-0.10732582595791462,0.2413968163552011,0.0,0.0,0.0,-0.10732582595791462,0.2413968163552011,0.0,0.0,0.2413968163552011,-0.10732582595791462,0.0,0.5331303871187171
109,0.37444422514883896,-0.26439488690879626,0.172108729922794,-0.20246031909567727,-0.796427423063375,0.5997664362193817,-0.6355034743917195,-0.8993270507511707,0.030265287882483928,0.6129571385740354,-0.4763536458991385,0.0,0.0,0.0,0.5572712035805208,-0.4206677109056234,0.0,0.0,0.43801606695525763,-0.30141257428036644,0.0,0.141138600981231
218,0.7699833993065314,2.2983352662012133,-0.11617063894950297,-1.3199742942868629,0.002586506487511508,-0.004590068619445825,0.49220086014243564,-1.0812595642929426,-0.18058034567536768,-0.21274796520107958,0.1728902371516923,0.0,0.0,0.0,-0.34582590276666647,0.3059681747172755,0.0,0.0,0.1728902371516923,-0.21274796520107958,0.0,2.998076721361956
219,0.04149712990713433,-0.1219201319094395,0.5513690364268705,0.7798817584728913,-0.5783108833817933,1.2696875893102826,-0.467125619199425,-0.448508419983608,-0.022260176951710946,0.3737170633608363,-0.42914969385142954,0.0,0.0,0.0,0.3737170633608363,-0.42914969385142954,0.0,0.0,0.20922630219005134,-0.2646589326806421,0.0,0.8485516433644354
55,0.4039653400166843,-2.840847182320185,1.0231932049966606,0.8723750153987551,-2.5927828502775463,-0.9408481361236751,-0.4564481431375775,0.13773998785103606,0.3532339190320365,1.0014078029962774,1.673681938050278,0.0,0.0,2.110712922197185,-0.769006696718267,1.3333835155676672,0.0,0.0,1.9847930810398242,0.6902966600067516,0.0,0.32640883558593226
7,-0.04290113192763753,-0.07468033929942178,-0.14621674030526136,0.018022067243552348,-0.13298665183710187,-0.33679330047352635,-0.10857107817667197,-0.27635279832493126,0.04280854232078269,-0.09774430166033626,0.1976971127738318,0.0,0.08236247811028413,-0.21855300570103098,0.018134060980810284,0.21800927772343257,0.0,0.0,0.2021970722146999,-0.10224426110120483,0.0,0.9668814699986483
14,-0.14099697118741839,-0.03697765200435766,0.25926480020731235,0.10622655634527209,0.12590581281484609,-0.24651912996301903,0.17352164823444496,-0.21391415485607362,0.3486973108957776,-0.31402092528716713,1.1887884880876982,0.0,0.2898827328828526,0.01946846000737131,0.42170216599783034,0.14371420391247217,0.0,0.0,-0.0014768293992492938,0.876244392199781,0.0,0.05830765520440197
28,-0.9035847976870073,-2.778109215032397,0.041817547791643074,-1.3369769744732791,3.6979370473178563,1.1403703088821202,1.3246434152714306,-0.3881782537756061,-5.930630368086158,-0.43564451835603657,1.6399743882928715,0.0,0.0,2.246486646483949,-1.203086671288919,0.1609298947418197,0.0,0.0,1.2043298699368294,0.0,0.0,0.14708670760914605
29,0.017337688784378982,-0.11521999520945421,0.10275772247192419,0.2632945890463785,-0.0534670434420505,-0.22820594753869125,0.4602271102252722,-0.19716505172033066,0.25123640722716617,0.17525915277557524,0.43928270958512994,0.0,0.299502560745403,-0.3034302666196476,0.36802817737912485,0.25044139085581757,0.0,0.0,0.09294328730198366,0.5215985750587169,0.0,0.6083066350049491
58,0.540277686643188,0.008727225742635002,-0.19089389418693556,0.4212598578516085,0.2877638496366993,0.17801302136568475,-0.36776246605062496,0.142887522862227,-0.9180654210447847,0.10135646372637692,-0.3293432037893653,0.0,0.0,0.5554837405856706,-0.14218583166415708,-0.6412846489845047,0.0,0.0,-0.2279867400629887,0.0,0.0,0.16112742161703902
116,-1.1263493107951588,-0.5812105599182239,0.5357941687231602,1.2863388457834342,0.29997023196914757,-0.5452629368700063,1.2666302602516792,-0.26881588227137915,0.29666997517120536,-0.5836621574195114,0.31921111758533094,0.0,0.0,0.31921111758533094,0.03834278520333554,-0.6220049426228489,0.0,0.0,-0.26445103983418294,0.0,0.0,-0.3668467525398034
232,2.074866821430201,1.7069799603556641,-0.9169394364101097,-0.2373930371048549,2.360778175384895,0.20771090413950946,-0.19095965099372783,-0.8954681073920377,-2.6158063376130127,0.3477703378804178,0.8545415636083703,0.0,0.0,0.8545415636083703,0.8762853596427168,-0.528515021762303,0.0,0.0,1.2023119014887846,0.0,0.0,-1.283827654222156
233,0.7344751633055207,-2.5505789155268483,1.6236662789462546,0.5142804259979866,-1.335686270249727,-0.18603375266531696,-0.64361988278215,-0.38259597182501814,2.568683313957209,0.18934064610203724,-0.5348343563245826,0.0,0.0,-0.5348343563245826,2.9915066321070585,-2.8021659860050145,0.0,0.0,-0.34549371022254954,0.0,0.0,0.39581518494484813
117,0.33831967076527103,0.08750820139146977,-0.03805190905479729,-0.39215966404647257,0.09560941037372497,1.6513379004550182,-1.7177881555080572,0.46447186940520246,-1.031502020693033,0.721186097060376,-0.6774280268384483,0.0,0.0,0.7036700252623639,-0.18558421907058192,-0.4743277359698548,0.0,0.0,0.04375807022192725,0.0,0.0,0.4049531698113531
235,0.7475753438723995,-0.3388864314417868,-0.275379794754277,-0.30122951391286307,-0.012346793531908483,0.059392229294516194,-0.8494641245050096,0.8631811701794055,-0.08387946912530804,0.38756233005396346,-0.22752606242385304,0.0,0.0,-0.49861308984855945,0.0557604495732291,0.6028889079054428,0.0,0.0,0.16003626763011491,0.0,0.0,1.3121550128266104
59,-0.3713487800150193,-0.23089681152046532,-0.44636151517039674,-0.7483242764484985,-0.43555292618248975,-0.11103945554805074,-0.16983821997607904,-0.48917929729076426,0.209270180777355,0.5863274100342398,0.5411907435888031,0.0,0.45125225840101063,-0.4175239873655616,0.2627547159590236,0.8310351666285728,0.0,0.0,0.9356339328311574,0.1918842207918779,0.0,1.348801778325239
118,-0.20263280412716178,-0.09112588768137792,-0.26761178105595285,-0.9066413911457893,0.3416651786949986,-0.9709807385805741,0.25686292630420055,-0.13505940219229876,-0.29291408008120584,0.048921015372328513,0.41291035469474574,0.0,0.6865854270545378,-0.9224095660598274,0.7991747378958926,-0.10151922882353344,0.0,0.0,0.5456857488281663,-0.08385437876109238,0.0,-0.044550283687211256
236,0.38042502896417857,-0.4244967151469921,0.15767820545582775,-0.8897189198388458,3.0149412829607067,0.3625479269453548,2.092295989986729,0.3543546572794965,2.7431731102023633,-2.796740935909704,1.36272026499376,0.0,0.0,-1.327843689777763,-0.20784100607177117,0.10166402493358741,0.0,0.0,-1.2527947820973164,-0.18122588881862692,0.0,0.006551246555594581
237,-0.1452543556204624,-0.1878518235244302,-0.27678573311557186,0.7206855012256888,-0.28292857174522457,-0.41467460886261365,0.7717901062371303,-0.13005880356487357,-0.2829231034394412,0.43259645795077584,-0.011785202429046505,0.0,0.5049924436602132,0.0,-0.038619863774782257,-0.04556132436370502,0.0,0.0,0.3733950924326744,0.04741616308905415,0.0,0.7375448692572989
119,0.4403165354243252,1.64673567718097,-0.9205694869650438,0.7081282130646072,-1.005468964818673,-0.37968602594862444,-0.08693727033799171,-0.8729418822508468,1.2146133009534636,0.6103740892656399,0.8057348427247989,0.0,0.0,0.26970777204598534,-1.2105852780074289,2.356986437951874,0.0,0.0,0.8587913163779964,0.557317615612448,0.0,1.8771937360490718
238,-1.3415599011428518,-2.3738605319051107,-0.42474295697118025,-0.023451861365467497,2.320665827254264,-0.5919040835790877,0.06305576963098193,-1.636596095245924,-2.2197286693211455,0.05812752488672626,0.31883512420694143,0.0,0.0,1.4315682286657119,-2.586675066926018,1.5320694873540033,0.0,0.0,0.1579909683258707,0.21897168076779994,0.0,0.10217614781263484
239,1.4175831031019164,0.15529867728642027,-1.072384224066197,0.709092382908271,-1.4545314322317113,-0.35150039495331853,0.13699906541768078,-0.3051828311584598,1.0873669117043094,0.6308192706518676,0.8933380301296567,0.0,0.0,0.21384586293603258,1.3405008975870862,-0.030189459741583397,0.0,0.0,1.7010719627872444,-0.17691466200571754,0.0,1.7846929296668428
15,0.6369538578976988,0.09721926152098774,-0.12135218984199317,0.08080735892520835,-0.13981353439478064,-0.05330568895722895,-0.32882546593489326,-2.0076825363783946e-05,0.01660034944805117,0.21523129230346746,-0.21513679524497198,0.0,0.0,-0.21513679524497198,-0.0027979522644441517,0.21802924456791056,0.0,0.0,0.24123413120229123,-0.24113963414379616,0.0,0.8067826056009295
30,0.19290192683249774,1.3792424470672464,-2.0838018740051347,0.05018873634339169,2.5767586284857096,0.5921581404136413,-0.12820264490923433,0.1560483388483884,0.6413909242294451,-0.11104442448662137,-0.6234396753174274,0.0,0.0,-0.6234396753174274,1.3361756746325792,-1.4472200991192028,0.0,0.0,-1.31281117597222,0.5783270761681785,0.0,-0.3887225716508853
31,0.5063526547287296,0.04352658935564793,-0.08737208647027361,0.04827282513856936,-0.14367063446864725,-0.18812732966047344,-0.19970966596401102,-0.04305579852880642,0.02275396436754319,0.20265386775119126,0.0,0.0,0.0,0.0,0.0010216336890415752,0.20163223406215128,0.0,0.0,0.30433135091078245,-0.10167748315958833,0.0,1.4518089773105407
62,-0.12178085806190073,0.18351794198389776,0.08822046327519185,-0.06158103286637947,0.08660236763104287,-0.22672460574673067,-0.21179305599512097,-0.06518630645668887,-0.035542989325081695,0.30681714378202013,0.0,0.0,0.0,0.0,0.1450310427710443,0.16178610101097426,0.0,0.0,0.07176400424765006,0.2350531395343706,0.0,1.415457708699737
124,0.13126951499285647,0.02662319997998778,0.13493880713110987,0.22020832533222745,0.028537455608354953,-0.15792374058411307,-0.13277262748184382,-0.052194244749003346,-0.012347153414449323,0.24566645920319083,0.0,0.0,0.0,0.0,0.23130793301917543,0.014358526184014862,0.0,0.0,-0.029321028139444087,0.27498748734263473,0.0,0.8850469134046852
248,-0.22344254890874957,-0.6643003340830735,-0.2785571095446309,-0.05923777211445461,-0.46989958594326586,0.29861761200900194,0.5490587246442342,-0.03846255024591654,0.510452915623447,0.1810344909918366,0.0,0.0,0.0,0.0,-0.5359938392676618,0.717028330259499,0.0,0.0,0.1810344909918366,0.0,0.0,-0.13579670516704595
249,0.11858276153830948,-0.01180507061412581,-0.0031652353420558144,-0.8485275339366787,0.03435204386074565,-0.5113906281360243,-0.6396833694844924,-0.07248277035590125,-0.039656064490443135,0.34115994267571753,0.0,0.0,0.0,0.0,0.17731404901778208,0.1638458936579358,0.0,0.0,0.15681039102196279,0.18434955165375208,0.0,0.9673159996980433
125,-0.9217860278183226,-3.24757781301474,0.4131166329242189,-0.2864880731816682,0.8753345118106202,-1.1099854597966035,-1.3884478907826652,-0.15732556827268748,0.6933742160929611,0.7404957287061689,0.0,0.0,0.0,0.0,0.0,0.7404957287061689,0.0,0.0,0.7404957287061689,0.0,0.0,1.291714821243664
250,-0.2935045704786773,-1.1109843576648077,3.37542903328742,-0.47498884381071027,-5.8274167691047465,0.4300210256503684,0.5379005470628954,0.060949719325192185,-0.11133918708429888,-0.28687649008149335,0.0,0.0,0.0,0.0,0.0,-0.28687649008149335,0.0,0.0,-0.28687649008149335,0.0,0.0,-0.32084249447726343
251,0.01672233961237938,0.594806333771014,0.46378158569092287,1.1529093448912973,0.035332637738206864,-0.6767926427092094,-0.8465798438828398,-0.09592629000429498,0.12542783422268663,0.45150326675248476,0.0,0.0,0.0,0.0,0.0,0.45150326675248476,0.0,0.0,0.45150326675248476,0.0,0.0,3.1895179116830024
63,0.2860504583270042,-0.6258226219080144,0.0250282857243538,0.3512128165197343,-0.2399872122883885,-0.2644969691882494,-0.3308514140853026,-0.0374889018740569,-0.010219466575631548,0.17645174917472625,0.0,0.0,0.0,0.0,1.045328108423469,-0.8688763592487502,0.0,0.0,0.6925491294368227,-0.5160973802620954,0.0,0.8296429011915103
126,0.28727503102823904,-0.8681489689535813,0.0073669784478461765,-2.5574164879574237,1.2909595996737233,0.17872067668803754,0.22355639382179682,0.025331261570919437,-0.7147052000056795,-0.11922849668969468,0.0,0.0,0.0,0.0,0.0,-0.11922849668969468,0.0,0.0,0.32530735270084615,-0.44453584939053525,0.0,-0.1383577356245822
127,0.027784574153248004,-0.42278750269652166,0.01850170067443242,0.5804414114712767,-0.31488048067958874,-0.3045727465294111,-0.3809810153604517,-0.04316910641054105,0.09082813563880249,0.20318718222368795,0.0,0.0,0.0,0.0,0.8143350921959517,-0.6111479099722675,0.0,0.0,-0.2077877637152174,0.4109749459389018,0.0,1.7805494938407291
254,0.21232480915151242,0.8822494303763974,-0.7084047221562534,-0.48915040988450226,-0.24650114949468205,-0.024329384154981246,-0.030432905058247004,-0.0034483642593015206,-2.2751140414045157,0.016230667609030205,0.0,0.0,0.0,0.0,0.0,0.016230667609030205,0.0,0.0,0.016230667609030205,0.0,0.0,-0.7842742754275489
255,-0.5990171884982104,0.9732591124669502,-0.27659003296147394,-0.11448894688573849,-0.5868604055227497,-0.4681819679047077,-0.5856349379197118,-0.06635852164147274,0.07110159371599557,0.3123344945024805,0.0,0.0,0.0,0.0,-0.5092273725712579,0.8215618670737369,0.0,0.0,0.102248296063558,0.21008619843892584,0.0,2.9823757577875094
