1,0.21010906878464078,0.0045857233178781985,-0.05178783080003217,0.2880654872121064,0.09055912841299836,-0.023812465335738886,-0.3063722262063954,0.05134915523395372,0.007489453508333128,0.32788014316657577,-0.2275407742580685,0.8882746938999605,0.08131123090616062,0.26388685788175087,-0.6687634887132191,-0.4643699250668264,0.8882746938999605,0.0,0.20440378539885282,-0.7178681958530579,-0.2744709145379896,-0.5119538009109901
2,0.39869232963623547,0.0853955744966784,0.04396199311117884,-0.02380228040232365,0.19101877609324688,-0.020955674605245368,0.5338187258480369,0.06393004487446154,-0.03687365894491842,0.6668956212097743,-0.9349218234369266,0.21239986705015784,0.0,-0.00831897168055598,-0.3044864962273285,-0.1676206013703814,0.21239986705015784,0.0,0.2830761504978687,-0.5467254695860492,-0.21677675018966025,-1.145934087568683
5,0.12235912204341752,0.0683517088744539,0.00416712315658124,0.060933489983486515,0.039387146556311356,-0.11392935081911532,0.23937884508008883,-0.010551114484801272,-0.05155365953426713,0.2773823188458101,-0.4405273786193901,0.059496338219684815,0.0,0.35380951864957505,-0.299400898649339,-0.2770500179939233,0.059496338219684815,0.0,0.019034211095829777,-0.24167560908956806,0.0,-0.7184937845799908
10,0.0548644453847852,0.03396036828461607,0.12756140404799257,0.12335661307696795,-0.1769740718010239,0.16454284909755273,0.2580768074300085,0.03259408354629618,-0.19976362013460083,-0.26107133428370166,-0.28064095837643854,0.05120747298201069,0.0,0.0,-0.40359744678790155,-0.18932231885425405,0.05120747298201069,0.0,-0.24048161886664873,-0.35243814677552054,0.0,-0.41445148470048065
20,0.21579756574482908,0.10048957019853633,-0.04919672618918038,0.2428918463002356,-0.34128492791544834,-0.22061642845247115,0.2716481193782317,0.022001647655850387,-0.1691306685345572,-0.24836604262425743,-0.23265563606442993,0.029721673979867656,0.0,0.0,-0.19905327990565416,-0.311690072762965,0.029721673979867656,0.0,-0.3520388014985159,-0.1587045511700783,0.0,-0.07088436283456896
11,0.0037823777824750235,-0.02937208633052736,-0.033460826988902716,-0.06580173062663594,0.043041416750486484,-0.07044272303617799,0.18026700052151687,-0.018593337008935035,0.2532210435649283,0.09054914658490278,-0.23962255423296844,0.0,0.0,0.29231708438217513,-0.19135498404982204,-0.2500355079803677,0.0,0.0,-0.164692865701022,0.015619458052939628,0.0,-0.34442345900587756
23,-0.2642148451256229,0.23753436459850122,0.05608488444693654,0.05592657636074598,-0.13147989057126358,-0.006274273509675112,0.16039171480273778,0.5349930556272784,0.20455958606058355,-0.25902012008458614,0.47712836905857164,0.0,0.0,0.1394641977413833,0.06918879402384023,0.009455257208758082,0.0,0.0,0.46992392409182043,-0.2518156751178369,0.0,0.13429683913573776
3,0.0583404129263669,-0.19109832895522952,-0.24783318863931988,0.248995895350556,-0.1226522513733345,-0.11170695770406353,-0.3718210907815079,-0.019031474389169613,0.009393244201050276,-0.3001730583293552,0.1735817293156817,0.2892769694224381,0.13132784380201296,-0.4507969821744945,-0.04091611798665058,-0.05548304207653012,0.2892769694224381,0.0,0.2753298246642786,-0.6911981230998642,0.0,0.4916862526530472
6,0.04664765591285274,-0.09043108856206158,0.004709258408846903,0.11535321772432833,0.0789747833588596,-0.05708430139440424,-0.10939695851687363,0.0077999190482056086,-0.06144077883553355,-0.031840034603617166,0.09912438584063077,0.35354636509951315,0.0,0.3127073432726314,-0.1991700421766115,-0.3997993149585576,0.35354636509951315,0.0,0.0028942634038864627,-0.28915627726637655,0.0,-0.39926663925632827
12,-0.042463939947026935,-0.29241092513022865,0.21160447270811825,-0.07639137818936559,-0.09420358298816281,0.26017364792339054,-0.2534050178996394,-0.4269092006640349,-0.017284176302697202,-0.44859880753451264,0.2352695603564329,0.015439258800470495,0.0,0.0,-0.29383431999085524,0.06506581401231062,0.015439258800470495,0.0,-0.09163093863474733,-0.1371375673437961,0.0,-0.5910789417826188
25,0.201611589990439,0.10067022267049777,-0.6075795596217652,0.15532212420419364,-0.0015017070053772433,-0.0064785532883539455,-0.19441789095706324,-0.08543986051660274,-0.0012622132207795488,-0.09763513171198285,-0.00995198551792385,-0.02710234735861301,0.0,0.0,0.0,-0.08048476987129155,-0.02710234735861301,0.0,0.19379674509162795,-0.2742815149629185,0.0,-0.4344289670304417
50,-0.14675889643157775,0.11517583901216294,-0.4449155214715782,0.15783754455847956,-0.33285022351462706,0.05097622127684334,0.16569031347400826,0.04602039116650529,0.06867874500235516,-0.18387872749279324,-0.08379787400722842,0.0,0.0,0.0,0.0,-0.2676766015000161,0.0,0.0,-0.24086923565968318,-0.026807365840333025,0.0,-0.5227065043725593
100,0.055909315637748494,-0.2485060100891369,-0.39545140898914255,0.04594997713665295,-0.21903052228306985,-0.09607809302841053,0.08366743543047074,0.04515390346268958,-0.026382141749517484,-0.18506318729743101,-0.0703231018853533,0.0,0.0,0.0,0.0,-0.2553862891827835,0.0,0.0,-0.31104071657519605,0.055654427392408286,0.0,-0.8490943383856084
200,-0.060374736449259434,0.04146597010534495,-0.41855801176129526,0.03497781554939543,-0.49571094798436577,-0.040498128507063705,0.2380028964825994,0.059114969644703745,-0.02061583049728069,-0.24663606902901886,-0.0809196747253438,0.0,0.0,0.0,0.0,-0.3275557437543625,0.0,0.0,-0.19350574889232888,-0.13404999486203337,0.0,-0.8645839672102495
401,0.08335617633575562,-0.07698694080224584,-0.09064826563082759,0.013401121290837235,0.11991947643177482,0.11214108922687765,0.14027396253971017,0.015894497025726723,0.5500308943511601,-0.0748117886158412,0.0,0.0,0.0,0.0,0.0,-0.0748117886158412,0.0,0.0,-0.035839057680574424,-0.03897273093526958,0.0,-0.9965788254125394
13,0.029759531228083023,0.11935098917977015,0.10511657786688874,0.2487030818658122,-0.057551275715902295,-0.16256953638626048,0.04921595851306351,0.015592911015851243,-0.08158242049323373,-0.04698563430066614,0.04055164351016901,0.0,0.0,0.4255950821481614,-0.2546800566553892,-0.17734901628327565,0.0,0.0,-0.004353381472350149,-0.0020806093181645405,0.0,0.09050312485407602
26,-0.12069073796521876,0.2861758176607945,0.16779883853669728,0.11587660089137104,0.45375755983692767,0.30351547413807667,-0.2792487928998499,-0.06428628329093189,0.05259032359477805,-0.3191926705438408,0.2572973453770129,0.0,0.0,0.41537511582532444,-0.3844090737311596,-0.09286136726099689,0.0,0.0,-0.23657710196071025,0.1746817767938781,0.0,-0.2598529477526493
53,-0.20063293778447297,0.039822362968955825,0.1461782977378665,0.009886241524652093,0.08657714171397989,0.43590863209074343,-0.5477654696345864,0.16159644112161958,-0.03352559507817117,-0.39345397592781756,0.46201436233500087,0.0,0.0,0.3073475413061223,-0.040369482950905956,-0.1984176719480347,0.0,0.0,0.05346975669252618,0.01509062971465482,0.0,-0.25598998510425397
107,0.26482046511963275,0.06929902865145983,-0.20447165849307505,0.057092673477934085,0.07612831825471877,-0.08555741204897674,-0.34259138399250055,0.1331391416806031,-0.06262034555286844,-0.28876225761406843,0.3336454342374897,0.0,0.0,0.3180530505997724,-0.2372562998678066,-0.035913574108549215,0.0,0.0,-0.016379106781406,0.061262283404823384,0.0,-0.03378463800432141
215,0.0011758673713631615,0.054086064809462396,-0.1491554571557076,0.28168610857951737,0.10677002838650769,0.39723769311091545,-0.16103427643664892,0.11209927683754721,0.38456277051128707,0.09932717586653043,0.04671279264972787,0.0,0.0,0.250365154807778,-0.2293665966837783,0.12504141039226105,0.0,0.0,0.2542850987199491,-0.1082451302036895,0.0,-0.011965004606346322
