1,0.21282794719930806,-0.001686137419251428,-0.057918137838115356,0.20262290857961066,0.06986079953249004,-0.01731487412959047,-0.36405272581918685,0.05103236986817268,0.007257677595988941,0.1670464703354653,-0.39970922105263906,0.19807778690514213,0.00800206549737114,0.2508910026257974,-0.4478640976283118,-0.2417695081171772,0.19807778690514213,0.0,0.2571576162205582,-0.6638614926205034,-0.024036661222365717,-0.29725452837684757
2,0.3852109452685826,0.08511333760068275,0.027843665682803338,-0.004012474037620359,0.20436716258081208,-0.01180588346267811,0.048233895118502366,0.06023546188732988,0.04134356014266787,0.06928343835565791,-0.6332125132284471,0.12314084663918447,0.0,-0.036651001471072565,-0.38868558265360803,-0.26173333738728666,0.12314084663918447,0.0,0.09270675704224829,-0.752619343874908,-0.027157334679303046,-1.408752625140668
4,0.8123777007636498,0.0402476605405773,0.0849975317083407,0.3182625973355374,0.30111466495863753,0.06193479360397198,0.03505798125705251,0.12571835559395056,0.07271118880823572,-0.08664821315729128,-0.49627118050446156,-0.0016212330236956233,0.0,-0.018112297872492567,-0.3786527694827826,-0.1845330932827801,-0.0016212330236956233,0.0,0.2917310476746105,-0.8397967150591378,-0.03323249325352935,-1.6310492890423558
8,0.5197949741942304,0.011159363656382882,-0.12379777949015314,0.4963992491589944,0.10441839248106038,-0.1879590867675939,0.12018197703336368,0.1787940320278028,0.08381963167836103,-0.1360963112836024,-0.5248052263292562,-0.0023002344287034538,0.0,-0.03608476009969675,-0.3584141309886851,-0.26410241209577534,-0.0023002344287034538,0.0,0.3308146506122869,-0.9720215572719765,-0.01739439652447164,-0.9253543792752665
16,0.6197086974996139,0.05572851961264585,-0.0917026199896102,0.5542373913947742,0.13999015320847516,-0.1623131438202589,0.04111181715456301,0.263967519856645,0.10602946610526923,-0.13726975103034483,-0.6987520230826869,-0.001358358614823403,0.0,-0.06299860692447454,-0.4559835192025144,-0.31568128937121515,-0.001358358614823403,0.0,-0.19866756658098114,-0.6228441468576834,-0.013151702059541378,-1.7852338175547806
32,0.5815878932408838,0.030725030913355825,-0.05415140195571561,0.61928460372437,0.11275697610286774,-0.12135418224298795,-0.14321341676299665,-0.275050984350233,0.10730072067159441,-0.12975893870609834,-0.7162864310820469,-0.001253270209749086,0.0,-0.06921471746488837,-0.45299648305562445,-0.32258089905788484,-0.001253270209749086,0.0,-0.2118498649136577,-0.6179937612873,-0.014948473377440513,-2.2409496567353973
64,0.21283034447364677,-0.013712803253825907,0.1776608928422047,0.9066981112110356,-0.17048924201749524,-0.15353189715942028,-0.07497899428432112,-0.37941072001753634,0.13609887991563321,-0.2087615231191738,-0.8643517464402253,-0.0012483471586029957,0.0,-0.02934154739541177,-0.524454603554096,-0.5180687714512876,-0.0012483471586029957,0.0,-0.13321660423708218,-0.9386483181637085,0.0,-2.520009370312111
128,0.2754755854088572,0.05983599973369832,0.23491534532435074,0.8621912856546102,-0.023584999549961218,0.17124658172912152,-0.17195666792410388,-0.16809699970476227,0.139917632985304,-0.17532789343255512,-0.9278955033723784,-0.0011804211545604771,0.0,0.0,-0.5673077969965683,-0.5347351786538084,-0.0011804211545604771,0.0,0.0,-1.102042975650372,0.0,-3.0323052691553816
129,-0.15641308845590002,-0.022125951517634402,-0.5314626051411478,0.2691507042183004,0.06315757753435737,-0.027736739007376984,-0.38686950854924446,-0.3824977666274523,0.09092729074909828,0.0,-0.7169440507403865,0.0,0.0,-0.17688194693655493,-0.19576278351691762,-0.3442993202869175,0.0,0.0,-0.1989866533000524,-0.5179573974403383,0.0,-1.3830228284264974
65,0.3298239666282425,-0.037580257525716566,-0.012102495580199539,0.37054805963849474,0.04694238057513167,0.15575740562282314,-0.3357627035376308,0.07791669213838047,0.10697940327725851,-0.04945011878866836,-0.7940617256698401,0.0,0.0,-0.12418115407891217,-0.3130163175505752,-0.40631437282902366,0.0,0.0,-0.3801955043769693,-0.4311932518528782,-0.03212308822866291,-2.0718115339087992
130,0.5843341143570272,-0.01803525431532047,0.0016194155051701927,0.3400687974737979,0.3464477567171704,0.17808646604077732,-0.4474257742157092,0.25667541429145085,0.10516004120695363,0.0,-0.8291665274288134,0.0,0.0,0.0,-0.2548716195626001,-0.5742949078662027,0.0,0.0,-0.27928984623729625,-0.5498766811915167,0.0,-2.4218672538762487
131,0.05302860579287271,0.030244113649996133,-0.00019941887357896238,0.39341246348007175,-0.08395840946866823,-0.09777930077670073,-0.26150321294526313,0.014959848448814265,0.10747444853328691,-0.08107634817411281,-0.7663388321061644,0.0,0.0,-0.18728394237893672,-0.39068253974939543,-0.269448698151937,0.0,0.0,-0.4044659186236096,-0.3962415695741338,-0.04670769208252472,-1.7048217990312038
33,-0.06004214025918059,0.047950504264948964,-0.2885161485459667,0.24092154258723977,0.23515836476643484,-0.055477017900868314,0.8730148232810445,0.32669343886727276,0.12038326645173325,-0.16574138164256147,-0.7834573240509964,0.0,0.0,0.0,-0.4370256964303682,-0.5121730092631862,0.0,0.0,0.0,-0.9491987056935576,0.0,-0.8227910101303996
66,-0.5248082246532858,-0.03417746295595918,0.2552334064640236,0.12192525112233811,-0.21680404848012003,0.21286399796005076,0.9730802784608191,-0.3209753870399924,0.08923800562159048,-0.2042316826196065,-0.4993926825545154,0.0,0.0,0.0,-0.4233431427404924,-0.2802812224336268,0.0,0.0,0.0,-0.7036243651741221,0.0,-1.699525411529565
133,-0.3224697092921452,0.04100297097623528,-0.13794310474386856,0.19169296192756557,-0.04371420354359104,-0.19490628070477503,-0.27553396967194177,-0.004103115476684183,0.06475971049143782,0.0,-0.5106177560334559,0.0,0.0,0.0,-0.13205536104430254,-0.3785623949891582,0.0,0.0,0.0,-0.5106177560334559,0.0,-1.4094241191758379
67,0.2097856764493197,4.03285607975309,1.8723458752904443,-0.08070410843277537,7.640160146389154,-3.5033427771166883,0.11600177253101032,0.4309532143864097,-0.027264301438208183,0.0,0.21497372848876664,0.0,0.0,0.0,-2.1874104385836257,2.40238416707239,0.0,0.0,0.0,0.21497372848876664,0.0,0.11359568216682536
17,-0.21196143269635373,-6.352936263940311,1.4194305014905084,0.0720540386458366,1.1516653903447092,4.2276029602792375,-0.10356841012496092,-0.9765970347261185,0.024342044880116282,0.0,-0.19193230234705938,0.0,0.0,1.6584019753641894,0.2088087330578856,-2.059143010769134,0.0,0.0,-0.1378853216240232,-0.05404698072303608,0.0,-0.12787157429227092
9,-0.006248088054762527,-0.06730511713914579,0.06921104194759926,0.11690385582288279,0.554621272846256,0.14228069884439767,-0.16888047631825842,-0.0015067016530503421,0.08937615789296592,-0.03972400494158797,-0.714359500136637,0.0,0.0,-0.03164763694938431,-0.26450093127237906,-0.45793493685645426,0.0,0.0,-0.265603230658259,-0.42825156250874374,-0.06022871191122448,-1.3846153250492481
18,0.6662062906428445,-0.33039775490563567,0.6696384146143549,0.008549959176554097,1.0804186689583664,0.18526889360510554,0.062560401224877,-0.0535827308113812,0.11341090712003166,-0.16106903234858042,-0.733153972416178,0.0,0.0,-0.05324472064577008,0.043499519302965126,-0.8844778034219563,0.0,0.0,-0.12809333153720848,-0.4497089465514413,-0.31642072667610416,-0.7100238747085985
36,0.43798982274015935,-0.19517965696166215,0.49409890216243646,-0.04462864479373919,0.844905895677086,0.08736225896952517,0.048610398350522374,-0.08801497303828745,0.12436284083309582,-0.20321140153173575,-0.7773654762561449,0.0,0.0,-0.0690899475809413,-0.10081346140907727,-0.8106734687978623,0.0,0.0,-0.19273117642553056,-0.5056444942158339,-0.2822012071465096,-2.3790662922372636
72,-0.31381207790527516,-1.2290311362687587,0.12267350146529034,0.2979548530641399,2.794956473331601,0.5636426256898492,-0.9402005803020244,0.4096558471966931,0.2625264966544762,-0.23589744602202115,-1.8340730588454615,0.0,0.0,-0.027013744685152417,-1.097329469268432,-0.9456272909138973,0.0,0.0,-0.5310068408318771,-1.5389636640355777,0.0,-1.8119385913274098
73,0.002640451518089126,0.0468879446787362,0.06971864860314705,0.28991689405541743,-0.019097934917020543,-0.1967158450101104,0.19709793500675726,-0.013367964800373089,0.0979427410209241,0.0,-0.7722595153738836,0.0,0.0,0.0,-0.308868575951759,-0.4633909394221166,0.0,0.0,0.13174541770865644,-0.42293539171778344,-0.4810695413647543,-1.510740250110011
146,-0.2913009084236954,-0.046673540290181274,-0.16708581674923906,0.2806988908590256,0.03099526555543285,-0.024370767159724836,0.06466692761109227,-0.016315325308687283,0.0948286192905026,0.0,-0.747705269563695,0.0,0.0,0.0,-0.20493163680177534,-0.542773632761917,0.0,0.0,0.0,-0.4919096667221814,-0.2557956028415112,-1.5442492889376682
147,0.9884873127027579,-0.40817133930600336,0.2617878418253641,0.3245658528596718,-0.837045006366797,0.43849954618414994,-0.46652165504217696,-0.4549654758988402,0.10964821272124374,0.0,-0.86455488926565,0.0,0.0,0.0,-2.0644959643658796,1.19994107510024,0.0,0.0,-0.022190271817867584,0.07756318632862805,-0.9199278037764035,-1.278857039358018
37,3.486386046942907,0.19351781529855144,4.032112755973246,-0.057193738727117305,-4.4281174319051955,-0.35202702082467413,0.08220864090887589,1.8209092073673925,-0.019321783776759388,0.0,0.15234851730779253,0.0,0.0,0.0,-2.627947087012706,2.7802956043204845,0.0,0.0,0.0,0.15234851730779253,0.0,0.12186540581774574
19,-0.35142081202195746,0.01655069634681689,-0.1365080725427875,0.054112863133378264,-0.08158032598799228,0.01684845165057684,-0.023006937980675057,0.025887256374034766,-0.04492175964320645,0.006662812808640605,-0.40267952170087223,0.0,0.0,0.0,-0.12110909722770376,-0.27490761166453287,0.0,0.0,0.0,-0.39601670889223545,0.0,-0.8198597982797223
38,-0.2630029148105493,-0.0009092969026567951,-0.083106979190068,0.04531557778223433,-0.1685576934133045,0.02620211473214632,-0.030420348588925065,-0.18180882250510644,0.05221794298669335,0.0,-0.411728351936869,0.0,0.0,0.0,-0.19065024936740135,-0.22107810256946575,0.0,0.0,0.0,-0.411728351936869,0.0,-1.187942882941997
76,0.12203966938170838,0.26568379668417313,0.19385594829755284,0.19709266438030254,-0.20731256565800885,0.39257867179843275,-0.28329534722534355,-0.15285224910527714,0.06658389414462379,0.0,-0.525001090308955,0.0,0.0,0.0,-0.13881840876636276,-0.38618268154259133,0.0,0.0,0.0,-0.525001090308955,0.0,-1.2143867144657106
152,0.34419673826933594,-0.16281964833228937,-0.35943612821041776,0.1624296041869861,-0.27085994770924005,-0.3640527370952387,-0.2334716579255184,-0.1406868212348943,0.054873658566362914,0.0,-0.4326681541636431,0.0,0.0,0.0,0.01717711270053155,-0.44984526686417314,0.0,0.0,0.0,-0.4326681541636431,0.0,-2.063687695189703
153,-1.2040548101556303,-0.6989262942975204,0.888111266963043,0.11032766779269712,0.4029440607464633,-0.676919139380778,-0.15858182776191665,1.8850823571432658,0.03727204042134005,0.0,-0.29388280920819115,0.0,0.0,0.0,-0.4618474506841843,0.16796464147599288,0.0,0.0,0.0,-0.29388280920819115,0.0,-0.5233158634679445
77,-0.026481992799235105,-0.19393456845892545,0.051728045463116185,-0.08977962707439645,-0.10267351811877877,-0.2631550341628625,0.19392781688813426,1.506368912796479,0.033611554325915845,0.0,-0.2650205863561492,0.0,0.0,0.0,-0.2007417446961212,-0.06427884166003353,0.0,0.0,0.0,-0.2650205863561492,0.0,-1.062283845591508
154,1.2981381571879353,0.11941549791661472,-0.08185459640788158,-0.12546806345790618,-0.45686463687243944,0.4049228232355737,-0.33208788539253425,0.1659313027646825,0.07805177467351886,0.0,-0.6154231038986799,0.0,0.0,0.0,-0.4413266362372902,-0.17409646766139014,0.0,0.0,0.0,-0.6154231038986799,0.0,-1.6703742751142219
155,-0.5890481023616253,0.250238291376448,0.025620473407676852,0.06796512307114506,0.1948768215821837,0.028800691815468658,0.3384291122452682,0.8518778089059705,0.022960684885579678,0.0,-0.18104054672721442,0.0,0.0,0.0,0.2600479764813688,-0.44108852320858155,0.0,0.0,0.0,-0.18104054672721442,0.0,-0.7463830548991253
39,0.3491598346363818,2.6743987401102065,3.1208459125752093,1.9238894334223136,2.4819479800812037,5.756567210903055,-1.4666351991911293,3.273779631823067,-4.43341289492992,0.5984464463212851,-2.4853270868068464,0.0,0.0,0.0,-1.3378763308973771,-0.5490043095881771,0.0,0.0,0.0,-1.8868806404855447,0.0,0.4157364493249691
5,0.15869802637189825,0.08289894273470352,-0.030432518922713717,0.06081019263936493,0.106470985904328,-0.12474859959391432,0.22369755528313112,-0.004811259658259821,-0.0958663612842722,0.09586729773892064,-0.49415030380895847,0.19156069914985874,0.0,-0.13315396439607613,-0.2263149384671965,-0.23037480235662247,0.19156069914985874,0.0,-0.11447459036150741,-0.4753691148583875,0.0,-0.8352887988485169
10,0.07270797084414997,-0.03146491485823975,0.024439643785875334,0.059659936389348286,0.011125254141168401,0.18797155051343142,0.06775244026382687,0.03225896031681471,-0.16653669274512414,-0.1045313803857412,-0.6079398840855489,0.08765427960183321,0.0,-0.20097138614013094,-0.278407963485432,-0.32074619444756736,0.08765427960183321,0.0,-0.3305774995534209,-0.4695480445197066,0.0,-0.9277858700049486
20,-0.05164395459463825,-0.05326496025210481,-0.07476377563713657,0.17600033539879062,0.05146570973064953,0.015335858587273732,0.06081772342089949,0.03147983110426612,-0.5258047678120613,-0.30626243091286426,-0.4973313823637356,-0.08092637608527731,0.0,-0.07890712127505566,-0.11991221003758797,-0.5238481058786812,-0.08092637608527731,0.0,-0.4427154756149871,-0.2799519615763381,0.0,-1.3823269892805277
40,1.1314652562164147,1.0327231768143623,-1.438440004816085,0.10210835195584174,0.9700982235570659,0.04413933651140836,-0.6042923506988395,-0.08167288492616512,-1.3023427523446214,0.042881320131125604,-0.39300809474938464,-0.21419105060672652,0.0,0.0,0.7435271850741944,-0.8794629090857313,-0.21419105060672652,0.0,1.1081351826935382,-1.244070906705088,0.0,-0.822138655511615
80,0.4132331918983819,-0.09042599178800652,-0.7431795032723552,0.15440065477893797,0.6837095867036416,0.06547048906825718,0.7986926015441133,0.17675445757533112,-0.8196005506876929,-0.755670356738872,-0.45598941236345125,0.12612081256280466,0.0,0.0,-0.13969691104818413,-1.1980836706169489,0.12612081256280466,0.0,-0.5449756985254716,-0.7928048831396591,0.0,-1.6377408606037502
160,-0.37677339012818495,0.018889971906399013,-0.37033016946789377,0.25181754547072555,0.3185328563892777,0.03351621575279939,0.7760503750996437,0.2180954014513847,-0.8222904248727495,-0.7727819396587718,-0.5221101327904932,0.11771258075560355,0.0,0.0,-0.12894633744536627,-1.2836583157594996,0.11771258075560355,0.0,-0.5889154030725,-0.8236892501323653,0.0,-2.6346263778067383
81,0.8823692862098702,1.2919755182736439,-0.24393346899564278,-0.9941673707769105,0.2516510480307099,-0.6771156543856856,-0.2964703846122204,-0.06557053115926198,-0.061722808954474316,0.2788316846503839,0.419462843097519,0.0,0.0,0.0,0.08633074347119672,0.6119637842767046,0.0,0.0,-1.1862097000482585,1.8845042277961566,0.0,2.5945461878689735
162,-2.5145628858682105,-0.4639597952388791,-0.5256436233060136,0.15340457484371525,-0.2740262640400607,1.286532887751453,-0.22049933939930688,0.3756465569701128,0.05182472927042025,0.0,-0.4086279380542032,0.0,0.0,0.0,0.0,-0.4086279380542032,0.0,0.0,-0.4086279380542032,0.0,0.0,0.005374854142913943
41,-0.13791677690305945,-0.09622534115350413,0.010977020419663716,0.15482314324582033,0.05043873060380749,0.013429943516243815,0.22291435027114162,0.021092300776162753,0.09226578179063144,-0.25489526620651687,-0.47260252677441217,0.0,0.0,-0.17802447733806676,-0.1801428229832369,-0.3693304926596257,0.0,0.0,-0.3716926974437041,-0.35580509553722617,0.0,-0.9689304750706462
82,0.08893591503068438,0.02778372276270208,0.04566503260058928,0.05605298289488737,-0.07700846214064327,0.07263645640928781,0.03111089112598271,0.046241678421599826,0.09858757267679488,-0.1866008329715065,-0.5907430549333981,0.0,0.0,0.018746134596923328,-0.5991623954165304,-0.19692762708529424,0.0,0.0,-0.3516060754708379,-0.42573781243406356,0.0,-1.0915374584650626
164,-0.057827523970953545,-0.041420967394677446,-0.11328552138911763,0.10098659400008031,0.12841381219678874,-0.17653408817939123,0.1890364305137116,-0.20137901790609014,0.09253801506157959,-0.24134470468671831,-0.4882995948315938,0.0,0.0,0.0,-0.3853606879124883,-0.34428361160582577,0.0,0.0,-0.22392625865655644,-0.505718040861757,0.0,-0.8729018450356066
165,-0.03262966387666669,0.20347989985752954,0.36703484061691216,0.5249152586061121,-0.29127052494877037,0.13600172699324312,0.688838872146621,-0.015258189716457557,0.11909076500389094,-0.49512096610994283,-0.4438866163688954,0.0,0.0,-0.4356661782241739,-0.04238601710664367,-0.4609553871480189,0.0,0.0,-0.8272077525963222,-0.11179982988251148,0.0,-0.5534428224873176
83,-0.47425359460396416,1.0311023984457588,-0.16430508800234353,-0.12391368326589702,-0.7768900190724716,-1.1695835968806485,0.17810997703622056,-0.3102534344816692,-0.04186180949752044,0.0,0.33007224811405145,0.0,0.0,-1.885477343899277,1.0536128777668534,1.1619367142464665,0.0,0.0,0.17142669441931702,0.15864555369473518,0.0,-0.3091907537924081
166,1.7465031287058104,1.1922780092508052,-0.5153482793050329,0.012560507705134163,0.26523205606531475,-0.24665056953753978,-0.018054113798910133,0.012419820763998767,0.004243321374090601,0.0,-0.0334577659740043,0.0,0.0,0.03387940405910972,-0.048649335098153154,-0.018687834934962063,0.0,0.0,1.215016882704005,-1.2484746486780036,0.0,-0.8298017912948845
167,-6.485471490808825,0.9298429956446327,1.1365477336402365,-0.06421413391081608,-1.4095807126367605,-0.061161153969707796,0.09229955574570646,-0.012864920114918747,-0.021693486707635535,0.0,0.17104893488767053,0.0,0.0,0.0,-0.07419901409126518,0.2452479489789348,0.0,0.0,-0.05673929705062187,0.2277882319382926,0.0,0.09898058677272448
21,0.08481894343035082,0.17291843425207654,0.6326099784749347,-0.09507862918785402,-0.006303461763814443,0.09627467527506688,0.0007008737650791992,-0.06788883036752089,2.13412390568337,-0.2936988471910367,-0.11286952738055267,0.5772654787695346,0.0,-0.13543569812635836,-0.7470359979989973,-0.10136215721575974,0.5772654787695346,0.0,-0.5756129729199817,-0.4082208804211442,0.0,-0.2817024097276093
42,0.00657363491169308,0.4770775078360971,0.3956635194009552,0.7765388368623106,-0.3362871235141503,0.823288870372734,-0.07130297251535424,0.01670737767770232,0.21271858485253484,-1.2644759572893176,-0.6236729019390366,0.0,0.0,-0.26639320071156725,-1.103792609931466,-0.5179630485853134,0.0,0.0,-1.2970792815042855,-0.5910695777240751,0.0,-0.8809107083202088
84,0.08402787755500227,0.2694907236656868,-0.12807426928541646,0.11875471029126115,1.4364282803479465,0.11591545598232059,-0.13000580171908413,0.1083072148428082,0.27813591034590546,-1.5413993352987938,-0.8401079230702782,0.0,0.0,-0.19448899886486176,-1.1221427274200093,-1.0648755320842027,0.0,0.0,-0.8278392636416868,-1.5536679947273768,0.0,-2.022234386630452
168,0.4545256976732454,1.6826296564767502,1.2010722574417183,0.29894150943480896,1.5054674671535706,-1.1671080067159747,-0.08268279940966931,-1.7000408002850924,0.17985933881703786,-1.0128666950586405,-0.5469548574440478,0.0,0.0,-0.16522387674861255,0.03189863929268872,-1.42649631504675,0.0,0.0,0.23868559828854824,-1.7985071507912356,0.0,-1.5785395849085704
169,2.146627658352796,-4.621682785816015,2.4827104535017073,-0.14690465905167757,0.25390536096850236,-1.7772736313951343,0.21115654672343537,-0.17857879100357205,-0.04962886010194199,0.0,0.39131393558503375,0.0,0.0,0.0,1.6432831500233769,-1.2519692144383414,0.0,0.0,-2.192289161286496,2.5836030968715162,0.0,-1.1011386528222054
85,1.938594508161553,-5.267581140417018,0.48398147596059166,0.20208493807616673,-0.2170332509691429,-1.9320993727075617,0.7361679888753621,0.3380173731831846,-0.25634561945655887,0.47307659225053195,1.5481588947922955,0.0,0.0,-3.501532052323635,2.746770301297334,2.775997238069127,0.0,0.0,2.273693709046786,-0.2524582220039731,0.0,-0.031210679874878355
43,-0.37528475097021297,-0.722492345928815,-0.8212097628099435,-0.24682444784729174,0.9233609362325662,-0.35619793259153393,-0.16497670665151146,-0.010870100448707301,1.0104405768074944,1.9331218146691898,0.445720979779981,0.27872403757117403,0.0,0.0,2.279424173198769,-0.1793054163207646,0.27872403757117403,0.0,0.929560182440924,1.1705585744370688,0.0,0.4460447696669941
86,1.3562622287291852,3.6319727900413876,-0.9226688775973533,1.1644678053790216,3.654968656044833,1.2333222203188767,-0.8599167771946316,-0.23419676411384535,-1.2468999023709568,0.17922200214804107,-1.523923910139382,-0.033960610126459505,0.0,0.0,0.0,-1.310741297864883,-0.033960610126459505,0.0,0.8646821644939158,-2.1754234623587916,0.0,0.03493982366974058
172,-2.785947547132004,-1.6949897272327352,-1.9781291846204292,1.1512237081415166,1.174405443917946,2.0561447116890976,-0.7876999653783654,-1.1618967487670457,-2.079866108875121,0.21792581465397484,-1.375047006609176,-0.031498020765637604,0.0,0.0,0.0,-1.12562317118956,-0.031498020765637604,0.0,-0.5422587647187306,-0.5833644064708331,0.0,-0.7345397090070254
87,3.096902678232824,-1.13012093608045,-0.3937164234964847,0.3852978435791634,-0.46467986143395973,0.2967183597875312,0.15902726299793665,0.847054202961648,0.9748905841307152,0.9278736844838249,0.6553969253915067,0.09017797416597231,0.0,0.0,0.6670008668113522,0.8260917688980115,0.09017797416597231,0.0,0.12557580492699327,1.367516830782377,0.0,0.38687497129692616
175,1.4274625630471545,0.17315615930172068,-0.3386007985358694,0.2319476794497258,-0.3215539302909063,0.5972385465506975,0.18898594655870884,0.5618987137838786,0.9067435251620627,0.8510926538629849,0.6810693784723478,0.09467574203584433,0.0,0.0,0.6388949771363972,0.7985913131630968,0.09467574203584433,0.0,0.10208816293547472,1.3353981273640136,0.0,1.6567771412307764
11,-0.056859781883709555,0.023288242369906842,0.01966692391827339,0.005887713354671168,-0.010759049512859336,-0.11012726004304522,0.016327569604456818,-0.06166105269102803,-0.059411755348911625,-0.3077136692044086,-0.10520551994678089,-0.04790311869369921,0.0,-0.12779193721517523,-0.1302566613212755,-0.10696747192103964,-0.04790311869369921,0.0,-0.3839873281843419,0.018971257726846765,0.0,-0.10723114117085239
22,0.05303045079016953,-0.02179081358662899,0.010763559615233929,0.026738242038188403,-0.014006999938061489,-0.023320381196082773,-0.10992263471736954,-0.029880184518442855,-0.023690577528853358,-0.15841410723465382,-0.2517516060866289,-0.026940876588410618,0.0,-0.12695223000325773,-0.11783267446184637,-0.13843993226776827,-0.026940876588410618,0.0,-0.18050746698299075,-0.2027173697498828,0.0,-0.6489686187825472
44,-0.5975094201192634,0.011925880140453276,0.0022740504722487936,-0.13093097008993734,-0.35054935088124384,0.618263600759537,-0.4233782825613938,0.09257333700801905,-0.544695605239335,-0.5570951389624047,-0.22750673372934785,0.0,0.0,-0.6048303490124426,0.020914445700878276,-0.2006859693801865,0.0,0.0,-0.5356328779743321,-0.24896899471742198,0.0,-0.7649540746901629
88,0.3127620503713357,0.07010248385376787,0.0591541935405006,-0.3166187258521078,0.7843175616351119,-0.10421429105059922,-0.5316070045058834,0.025578118611415346,-0.3479944784266046,-0.40898949020099906,-0.5761811443151669,0.0,0.0,0.0,-0.2084079532363203,-0.7767626812798405,0.0,0.0,-0.3612338526561609,-0.6239367818599992,0.0,-0.787421520123889
176,0.3271749022696012,0.05857654655865709,0.01813926459285544,-0.18092008750146946,0.8695598764350492,-0.30842297623856585,-0.7489092731751046,-0.015746022436236875,-0.3168203154117896,-0.4261978960392867,-0.9616758858999186,0.0,0.0,0.0,-1.3588186440886545,-0.029055137850553983,0.0,0.0,-0.5649410465623623,-0.8229327353768464,0.0,-1.4172000153575233
177,3.4023776857263397,-0.25421449033516536,-1.2689401734903993,0.03460428991501975,-0.5281863108580538,6.594600240330162,-0.04973921458611974,4.62459188053683,0.011690381191487149,0.0,-0.09217638815667727,0.0,0.0,0.0,-0.09217638815667727,0.0,0.0,0.0,-1.451869675243286,1.3596932870866163,0.0,-0.01517638445714753
89,-0.22452645448772401,0.14604460233483038,-0.30426175091025276,0.0108578770911556,-0.23441378864066476,-0.9247850624496584,-0.015606801350727745,-0.077841410280941,0.0036681209883988983,0.0,-0.028922422502230292,0.0,0.0,-1.1993128939334228,-0.11548972089739241,1.285880192328575,0.0,0.0,-0.028922422502230292,0.0,0.0,-0.23452640918562476
178,2.408814787548972,-0.7073834622611613,0.095675233102591,-0.07927638773588376,2.4132961260084076,-2.146541616018943,0.11394960771889928,-0.6821127526127365,-0.026781973980467597,0.0,0.21117067003968296,0.0,0.0,-0.3352055388974917,-0.041304259259095304,0.5876804681962687,0.0,0.0,0.21117067003968296,0.0,0.0,-0.03008496022655982
179,-3.2956339100498817,0.4314085481102219,0.5711285065323674,0.19527313156978043,-0.8009259798896865,2.069519719274711,-0.2806800029101929,0.31169454433730087,0.06596920064281706,0.0,-0.520154351276936,0.0,0.0,0.0,0.168781040721279,-0.688935391998213,0.0,0.0,-0.520154351276936,0.0,0.0,0.5902172394576306
45,0.030288353850132062,0.08995608662095161,-0.07513845965765258,0.014550133121342368,0.09562075161295042,-0.11399050125543027,-0.005099653798287346,-0.150391800904594,0.10343538031514439,-0.06567073474152196,-0.26492355666163714,-0.022551185220439036,0.0,0.0,-0.18920038457072816,-0.11884272161199295,-0.022551185220439036,0.0,-0.11804938155613286,-0.18999372462658992,0.0,-0.3950400445721085
90,0.012970065040922924,0.06607905873064622,0.08373752212880711,0.2573684517241595,-0.024338170034242088,-0.02689013979988692,-0.057278300539572356,-0.1304904278467574,0.1467851130574414,-0.2184758611757967,-0.1910750236746786,-0.06288106257162858,0.0,0.0,-0.17082204024042597,-0.17584778203842025,-0.06288106257162858,0.0,-0.20254951782692698,-0.14412030445192148,0.0,-0.8317531904238137
180,2.268027603158008,1.2397054252608957,1.3169742288725335,0.8112172003985012,2.2352752806806877,-0.5831179670301284,-0.9011135641576343,-1.3177656508613251,0.211791865824155,0.0,-1.6699377815712564,-0.021171961207098907,0.0,0.0,1.4023932907385563,-3.0511591111027045,-0.021171961207098907,0.0,0.34740835094847583,-1.9961741713126286,0.0,-1.367416942127718
181,-0.06759490852277214,-0.06379366479636236,-0.01800644273210597,-0.011818562495858163,-0.07510175559934652,0.04425006789096863,-0.06245203469929091,0.5782423954499541,0.12469111181967577,-0.03660591336637656,-0.12996537427675178,0.0,0.0,0.0,-0.11395077395088038,-0.05262051369224679,0.0,0.0,-0.19557936801065573,0.029008080367527216,0.0,-0.4708699291752554
91,-0.2328492894793666,-1.1343494906732723,0.40648138385737054,-0.5308613116261314,-0.2443059536982249,0.8047146524970575,1.1665704777388948,-0.013023517109845503,-0.1584683160747352,-0.21692597062946412,0.5741958293404243,-0.2758152468320881,0.0,0.0,0.7558368644691492,-0.1227517589260989,-0.2758152468320881,0.0,0.41914069445263885,0.21394441109041146,0.0,-0.10687202155102812
182,-0.4101864216640442,-1.2214838356586708,0.3079254836769662,-1.0816380044014244,1.32484885003361,0.4559564630249544,1.7414307465619312,-0.3231298559035392,3.952248072876859,0.13239979928296255,0.003366129590632694,-0.5713570076154889,0.0,0.0,1.3923751983661241,-0.6852522618770462,-0.5713570076154889,0.0,0.6372022965111188,0.06992063997796188,0.0,-0.7819141621632621
183,0.18935658604756897,-0.42538732393685497,0.05144457557550433,-0.1948479661424058,0.1231186948877402,0.3302589495551409,-0.08831891852028308,0.1962052458009187,-1.2711742864191913,0.2924135621499659,0.13103548928715286,0.058663442535173686,0.0,0.0,0.2844543009146331,0.08033130798731389,0.058663442535173686,0.0,0.4328719236829523,-0.06808631478100532,0.0,0.5048594824388286
23,2.1045619175817687,3.2295599521770377,0.5389657174715032,0.3041770477167923,-0.5433508099578199,0.3106934757076394,-0.43721537086044726,-2.6877707260544517,0.10276025447258137,0.0,-0.8102446745056747,0.0,0.0,0.0,0.0,-0.8102446745056747,0.0,0.0,0.0,-0.8102446745056747,0.0,1.6811046494052684
46,2.7866533117493746,-8.213180911366559,-4.8854768936280815,-0.4237970259816996,0.7570277213659824,-1.0006890071020769,0.6091536993832026,-1.39944984278345,-0.14317151988124485,0.0,1.1288796638355332,0.0,0.0,0.0,0.0,1.1288796638355332,0.0,0.0,0.0,1.1288796638355332,0.0,-0.4306324235518244
3,0.0476376958597857,-0.2025275128328739,-0.23558593790939183,0.24809241883279487,-0.1673491331667319,-0.10274763088413287,-0.23211513759121266,-0.006184756604763387,0.008435301295700462,-0.20950140116125435,-0.04164993212072372,0.0,0.04211103529892703,-0.12142267706213095,-0.0686457275201736,-0.10319396399859988,0.0,0.0,0.3556204897939661,-0.6067718230759452,0.0,0.35373534121279915
6,-0.010108787422660305,-0.05863238773099548,0.09658482158326354,0.05678440056811799,0.035813385154785445,0.11161389619735791,0.02382710392303944,-0.012716970324131925,-0.044958917132090596,0.18062999144095743,0.15388051551240767,0.0,0.0,1.1077481098366941,-0.15937419885063608,-0.6138634040326931,0.0,0.0,0.23541132213944735,0.09909918481391755,0.0,-0.26065264148902917
12,0.24452318242342197,-0.3290718578987522,0.11766813563480352,0.11714286495410542,0.12947483570878354,-0.5135170068737129,-0.3056948053217862,0.147445985733896,-0.03487515164532175,-0.36211626873865943,-0.8697273301544343,0.0,0.0,0.0,-0.7373985116801784,-0.4944450872129154,0.0,0.0,-0.47604475576341404,-0.755798843129678,0.0,-0.588662879396815
24,-0.15060374257804462,0.1429012539028429,0.47362141849514977,-0.22367317856343122,-0.7572146170220442,0.2812909767973094,-0.2367139752134259,-0.45522876761918696,0.13407718961719706,-1.012030593465668,0.04609229840078333,0.0,0.0,0.0,-0.4539132551334782,-0.5120250399313986,0.0,0.0,-0.14725370269019336,-0.8186845923746876,0.0,-0.8663650891281159
48,-0.41618757439398824,0.3231244192393724,0.6502195636583543,-1.5383664434535727,-1.2610237796149704,0.28887325478943404,0.21629883149202792,-0.6341466804445487,0.41859257845502745,-0.22314785651087,-0.37454697745098947,0.0,0.0,0.0,-0.740307600898647,0.1426127669367896,0.0,0.0,0.1380980184332299,-0.7357928523950886,0.0,-1.2969573490074522
96,-0.05882601330362549,-0.31653646450758366,-0.46617303876849725,-0.021937687559237057,-1.1571770104270906,-0.7557015794229714,0.9086795334505526,-0.41068360440686713,0.12429715492040196,-0.7632212914368007,-0.9680700092912996,0.0,0.0,0.0,-0.5067122952525517,-1.2245790054755537,0.0,0.0,-0.07938806851259797,-1.6519032322155076,0.0,-1.8872681269110592
192,-1.3811894887407015,-0.9740823284710376,-0.3395603140046229,-0.011466399941086872,-1.3663005839064146,0.6232476711193098,0.6112656031428434,-0.36744485511612623,0.17156490970794372,-0.5324713432218487,-0.7174293788071627,0.0,0.0,0.0,-0.4044255086124382,-0.8454752134165809,0.0,0.0,-0.6473613592159551,-0.6025393628130672,0.0,-2.598196727366763
193,5.747838982389063,1.3107437292594661,3.0811420896729538,0.8692778839974787,-1.5527892255309677,1.49290423903268,-1.249475117486865,0.49195471431845,0.2936684974671011,0.0,-2.3155191407811304,0.0,0.0,0.0,0.0,-2.3155191407811304,0.0,0.0,-2.3155191407811304,0.0,0.0,0.09061357980575169
97,0.16945229029701864,0.08859796758108172,-0.600934871392035,-0.8601854484792018,0.25515008664426486,0.9190529629120642,-0.95543404188927,0.0009688482156939867,-0.024359387397570674,0.39466576677992166,-0.3992259153518455,0.0,0.0,0.0,0.0,-0.0045601485719248885,0.0,0.0,-0.3992259153518455,0.39466576677992166,0.0,-0.040172063989471485
194,-0.29157457670324277,-0.591665202875442,0.3079234791677125,-0.004721016675846976,-0.1325029086641708,0.35254605793054145,-0.034409811595634616,0.09112324660846531,0.2285069688619979,-0.08159687888774976,-0.3472995531432634,0.0,0.0,0.0,0.0,-0.4288964320310128,0.0,0.0,-0.3472995531432634,-0.08159687888774976,0.0,-1.1945225018334773
49,1.3164044561313595,-1.3136976489043828,0.3754156854485911,0.4511260672346098,-0.43686074041118755,-0.3684611711985657,-1.2082703126166372,0.15685587751858046,-0.14148735153389427,-0.26985889937131646,-0.4684261015996969,0.0,0.0,0.0,0.0,-0.7382850009710127,0.0,0.0,0.20189921480590964,-0.9401842157769197,0.0,0.2755273053167686
98,-0.2908302489373945,-0.9442002976177256,-0.9276756415901739,-0.08304399308108033,-2.6588906271871386,0.5039301460564818,-0.9565906887270995,0.3248103932872417,0.13901099554607016,-0.8095660757738514,-0.7192426964384573,0.0,0.0,0.0,0.0,-1.5288087722123134,0.0,0.0,-0.9682935802107849,-0.5605151920015244,0.0,-0.8057492132050004
197,0.7548069324473513,1.2766519296725758,-0.1741643390518941,-1.2921173850494252,-0.480016157803622,-0.20826959309297133,-0.2605182569662558,-0.02951942459973964,-0.153161753130254,0.1389412291337377,0.0,0.0,0.0,0.0,0.0,0.1389412291337377,0.0,0.0,0.39741688481792226,-0.2584756556841846,0.0,0.03442718887397471
99,0.6966025038652086,1.13360706359988,-1.5935877225038733,0.8218606463279771,1.4668419153844419,-0.6280203316948336,-0.09722854447730322,-0.21019530224386224,-0.12037002616090407,0.2613589647201888,0.727982597586449,0.0,0.0,0.0,0.0,0.9893415623066342,0.0,0.0,1.2483053042905565,-0.25896374198390665,0.0,0.6319949105806852
199,-0.8174109492946428,0.7002488896197734,0.4484595281683638,-1.5518236810712918,-0.6301466027681321,-0.4121580746959815,0.1924357124240723,-0.1830588190935407,0.11004108818941759,0.11285365061715624,0.7487626469055104,0.0,0.0,0.0,0.0,0.8616162975226703,0.0,0.0,1.1805013957129917,-0.31888509819032473,0.0,0.9424074746931489
25,0.20344952563446556,0.13129469406759064,0.03843964079184073,-0.1471100761948695,-0.0008601087639883118,0.0008581539829249933,-0.4923909165013839,0.2163231062165151,-0.15269025874548792,0.04932324323109313,-0.7411080283159196,0.0,0.0,0.0,0.0,-0.6917847850848297,0.0,0.0,-0.9232941015366232,0.23150931645179712,0.0,-0.5889639193082136
50,1.0468457315005957,-6.832986748006572,1.5423498016027328,0.09858912975583513,-0.26659580110545855,0.5959144320423041,0.7454116889132051,0.08446288718063946,-0.7040769318383682,-0.3975476324550609,0.0,0.0,0.0,0.0,0.0,-0.3975476324550609,0.0,0.0,0.5543981526896316,-0.9519457851446933,0.0,-0.4075204721327256
51,0.21942287019201157,0.22436559004276962,0.039834023512835506,-0.0033720431701421004,0.0060735366869089985,-0.04345532956779931,-0.40141675386655723,0.13609116460001347,0.4994554388447846,0.03816755268943702,-0.6112789163128711,0.0,0.0,0.0,0.0,-0.5731113636234322,0.0,0.0,-0.4909122017948215,-0.08219916182860947,0.0,-0.2705083226312929
102,-0.03776047785589742,-3.3481678377263058,3.2920038144692474,-1.2598709014104799,-1.0462913975272976,2.5151197132377088,2.4285902840711597,0.3759185623625876,0.24230744241565783,-1.4327384559459722,-0.4778087280604715,0.0,0.0,0.0,0.0,-1.9105471840064425,0.0,0.0,-0.03543798695745298,-1.8751091970489828,0.0,-1.1953073012470905
205,3.141772375018174,4.234247100526263,-1.2075291812063194,-7.272757972535303,4.058774340711151,1.4555596934859376,1.8207164503750832,0.20630608618463955,0.12315279554154768,-0.9710359053718589,0.0,0.0,0.0,0.0,0.0,-0.9710359053718589,0.0,0.0,-0.9710359053718589,0.0,0.0,0.16868634190430187
103,0.18191744114222305,-0.21451036696751538,0.24520658040481477,-0.21394031936430302,0.14837298449366448,-0.4330425809230506,-0.37193227639938975,0.14094115496237244,0.3704577584448601,0.04225738810930947,-0.5424271809679949,0.0,0.0,0.0,0.0,-0.5001697928586806,0.0,0.0,-0.4228482920681135,-0.07732150079056783,0.0,0.16845579531966254
206,-0.2812123970444373,-0.5783697264399835,0.2215430005331729,-0.7989168761177552,1.013877981769268,-1.0273705846064631,1.0122029711184737,-0.15522115500802838,0.3672022862127155,-0.26964911315704715,0.9388355702949162,0.0,0.0,0.0,0.0,0.6691864571378687,0.0,0.0,-0.2601942590930589,0.92938071623093,0.0,-0.07149444860982412
207,0.28204310649853104,-0.28899105067196107,0.008559943020651833,-0.07491517543773343,-0.05543631402592682,-0.5174208537339583,-0.6388666918610159,0.39469912220208947,0.12947702574064565,0.10745570119895163,-0.8105582556877341,0.0,0.0,0.0,0.0,-0.7031025544887899,0.0,0.0,-0.3226496830585995,-0.38045287143018935,0.0,1.1590673838676242
13,-0.16649181188560627,0.14976311834839892,-0.19972473476562275,0.1186049995667385,-0.8341190887376795,0.0206661574529861,-0.15596630357852864,-0.05470876169191512,-0.08579040741279848,-0.0587950807328424,1.0931477657002124,0.0,0.0,1.3926832785093581,-0.35878270710984306,0.0004521135678556853,0.0,0.0,0.3258327434685688,0.7085199414988024,0.0,-0.1820966004963796
26,0.10392231682871765,0.4479836410940963,0.6280845871854108,0.21728508024870777,-2.352456174658578,0.655058141060694,-1.0581763675324878,0.2549875347826111,-0.060396700771348996,0.6591335545125871,-1.2008980561616054,0.0,0.0,0.0,-1.0267104472778752,0.48494594562885635,0.0,0.0,-0.32467205777627617,-0.2170924438727353,0.0,0.1324547548044971
52,-0.03922055926707587,-0.1885867828468061,0.4014793093718759,0.2532694990282413,-0.8233901165111509,0.4057227828175456,-0.47350579027565876,0.028007461916686384,-0.09744024036270076,0.6573450567253275,-1.5237217574650408,0.0,0.0,0.0,-1.5635190929394225,0.697142392199696,0.0,0.0,-0.23807205549230467,-0.6283046452474188,0.0,-1.4428858474276782
104,-0.3907875682929915,0.4842331104307348,1.089242908185909,-2.0419413175144006,-2.523863985344844,0.6501851172031042,0.4465620963919312,-0.3129347778348014,-0.5977267389909288,-0.6229572660013347,-1.3370758641638765,0.0,0.0,0.0,-1.3624357673606688,-0.5975973628045275,0.0,0.0,-1.6920692040594851,-0.267963926105714,0.0,-0.4517375010368141
105,0.072632750964397,0.07498630778863433,-0.021564357469690328,0.27659472467617136,-0.3954594343752034,-2.322565454591886,1.8657330459389827,-0.030911635230766597,1.1615961447963923,-0.9625850743249477,-0.22664039255028404,0.0,0.0,0.0,-0.9625850743249477,-0.22664039255028404,0.0,0.0,0.9396281399396025,-2.128853606814835,0.0,-0.7948718249648961
210,0.9663917363753796,-0.5157791715483084,-5.29723460321533,1.0523687175459149,-0.8415239816409719,-2.594418295405503,-0.7343492962688661,0.38654923588239887,-2.803374474909251,-0.5540319755209208,-1.265367510832271,0.0,0.0,0.0,-0.5540319755209208,-1.265367510832271,0.0,0.0,0.049899030927443334,-1.8692985172806276,0.0,-0.5301569440419704
211,-0.44914429349205653,0.0018731221358008012,4.9871645988450455,-0.6075087674583372,-0.9843515919867809,0.15422030788839963,0.21774546366109312,-0.4663168264225454,0.6716284590204167,-0.5772758441153287,-0.927781023443685,0.0,0.0,0.0,-0.5772758441153287,-0.927781023443685,0.0,0.0,-1.1463781168193496,-0.3586787507396619,0.0,-0.14081586613748004
53,0.6260707981720908,-0.9691376264116944,2.669653546664457,-1.248698500367737,-0.6388173168724256,0.34078603546877884,0.28184278070468216,0.7037572470990506,0.003103219872311107,-0.12219081682384333,0.09772253005027189,0.0,0.0,0.0,2.3887400930148175,-2.4132083797883808,0.0,0.0,-0.02446828677356969,0.0,0.0,0.14722591316082045
107,-1.0217129683245554,1.5498892917472935,0.42890327083183094,-1.160532729944451,-0.07078392222329792,-0.11491671120020515,-0.43608656225954545,1.3015494783708323,-0.06180110549090035,0.2894983433551077,0.19779138611832198,0.0,0.0,0.0,0.9701397589449584,-0.4828500294715329,0.0,0.0,0.4872897294734305,0.0,0.0,1.128998799937315
214,8.291569006475376,-0.10008342493753221,0.18040038008071171,-0.047868559830443226,0.08550750607456184,-0.19113263114605414,-0.23908213952920415,-0.02709048983039549,-0.016171454836369774,0.12750878466998816,0.0,0.0,0.0,0.0,0.0,0.12750878466998816,0.0,0.0,0.12750878466998816,0.0,0.0,-0.0015671884732554875
27,0.4835384471993036,0.04527434000821177,-0.18216023440279078,0.03845521513404102,-0.7690663977529694,-0.05471075987459792,0.22639744973218545,-0.020308845583082085,0.15421885052130535,0.2273633265735261,0.4774430369181685,0.0,0.0,1.256789076402324,0.33137206456408025,-0.8833547774747067,0.0,0.0,0.08615944657128931,0.6186469169204042,0.0,1.4920680635202588
54,0.2159470851763619,0.06786500877736842,0.16495380025423564,0.22850717299527804,0.8117990392825429,0.3902949353194637,0.49527351634369965,-0.0889292550178781,0.14768947350478986,0.10819555844488198,-0.27067248109987574,0.0,0.0,0.0,0.7145680987201085,-0.8770450213751046,0.0,0.0,-0.21030129999627203,0.04782437734127579,0.0,0.14587148649600418
108,0.28510708957315545,0.6744392320784076,-0.91550367707122,-0.0215435990298127,1.722431945214615,-0.16266968540254237,0.7791428850553904,0.01697499722964192,-1.345283662634397,-0.4579953205951244,0.19593841201479306,0.0,0.0,0.0,0.5718368343434659,-0.8338937429238004,0.0,0.0,-0.8585675258545896,0.5965106172742666,0.0,-0.7051903816750873
217,-0.31694058878519177,0.2462433071445034,-0.14884273195792092,-0.2683258539379704,0.09454508347817481,-0.7474753254017851,0.3314985007051822,0.0369398968348729,-0.7856563072861976,-0.10732582595791444,0.24139681635520097,0.0,0.0,0.0,-0.10732582595791444,0.24139681635520097,0.0,0.0,0.24139681635520097,-0.10732582595791444,0.0,0.533130387118717
109,0.37444422514883874,-0.26439488690879626,0.17210872992279375,-0.20246031909567708,-0.7964274230633746,0.5997664362193819,-0.6355034743917192,-0.8993270507511706,0.03026528788248393,0.6129571385740358,-0.47635364589913815,0.0,0.0,0.0,0.5572712035805208,-0.42066771090562327,0.0,0.0,0.4380160669552576,-0.30141257428036655,0.0,0.14113860098123143
218,0.7699833993065315,2.2983352662012115,-0.11617063894950252,-1.3199742942868642,0.002586506487511999,-0.004590068619446785,0.4922008601424355,-1.081259564292943,-0.18058034567536768,-0.21274796520107875,0.17289023715169236,0.0,0.0,0.0,-0.345825902766666,0.3059681747172753,0.0,0.0,0.17289023715169236,-0.21274796520107875,0.0,2.998076721361955
219,0.04149712990713426,-0.12192013190943946,0.5513690364268707,0.7798817584728929,-0.5783108833817939,1.2696875893102828,-0.46712561919942425,-0.4485084199836085,-0.02226017695171095,0.37371706336083604,-0.4291496938514296,0.0,0.0,0.0,0.37371706336083604,-0.4291496938514296,0.0,0.0,0.2092263021900515,-0.2646589326806421,0.0,0.8485516433644351
55,0.4039653400166842,-2.8408471823201844,1.0231932049966597,0.872375015398755,-2.5927828502775467,-0.940848136123675,-0.4564481431375773,0.13773998785103594,0.35323391903203627,1.0014078029962774,1.6736819380502774,0.0,0.0,2.1107129221971848,-0.7690066967182667,1.3333835155676672,0.0,0.0,1.984793081039825,0.6902966600067514,0.0,0.3264088355859318
7,-0.04290113192763747,-0.07468033929942179,-0.14621674030526136,0.018022067243552417,-0.13298665183710187,-0.336793300473526,-0.10857107817667225,-0.27635279832493137,0.04280854232078269,-0.09774430166033632,0.1976971127738318,0.0,0.08236247811028413,-0.21855300570103098,0.01813406098081016,0.21800927772343243,0.0,0.0,0.20219707221469987,-0.1022442611012049,0.0,0.9668814699986483
14,-0.14099697118741847,-0.03697765200435764,0.2592648002073124,0.10622655634527214,0.12590581281484614,-0.24651912996301897,0.17352164823444505,-0.21391415485607362,0.3486973108957776,-0.3140209252871671,1.1887884880876987,0.0,0.2898827328828526,0.019468460007371256,0.4217021659978305,0.14371420391247222,0.0,0.0,-0.0014768293992494148,0.876244392199781,0.0,0.058307655204401995
28,-0.9035847976870072,-2.778109215032398,0.04181754779164287,-1.336976974473278,3.6979370473178563,1.1403703088821204,1.3246434152714297,-0.38817825377560616,-5.930630368086157,-0.4356445183560379,1.6399743882928715,0.0,0.0,2.2464866464839495,-1.20308667128892,0.16092989474181912,0.0,0.0,1.2043298699368283,0.0,0.0,0.14708670760914622
29,0.017337688784379,-0.11521999520945421,0.10275772247192419,0.2632945890463783,-0.0534670434420505,-0.2282059475386912,0.460227110225272,-0.19716505172033058,0.25123640722716617,0.17525915277557505,0.4392827095851296,0.0,0.29950256074540305,-0.3034302666196476,0.3680281773791249,0.2504413908558176,0.0,0.0,0.09294328730198395,0.5215985750587172,0.0,0.6083066350049491
58,0.540277686643188,0.008727225742634945,-0.19089389418693564,0.42125985785160863,0.2877638496366993,0.17801302136568484,-0.3677624660506252,0.1428875228622271,-0.9180654210447847,0.10135646372637691,-0.3293432037893651,0.0,0.0,0.5554837405856704,-0.14218583166415735,-0.6412846489845049,0.0,0.0,-0.22798674006298875,0.0,0.0,0.161127421617039
116,-1.1263493107951588,-0.5812105599182237,0.53579416872316,1.2863388457834337,0.2999702319691476,-0.5452629368700059,1.2666302602516788,-0.26881588227137904,0.29666997517120514,-0.5836621574195112,0.31921111758533105,0.0,0.0,0.31921111758533105,0.0383427852033355,-0.6220049426228491,0.0,0.0,-0.26445103983418305,0.0,0.0,-0.36684675253980326
232,2.0748668214302017,1.7069799603556643,-0.9169394364101099,-0.2373930371048547,2.3607781753848953,0.20771090413950966,-0.1909596509937284,-0.8954681073920376,-2.6158063376130127,0.34777033788041767,0.8545415636083707,0.0,0.0,0.8545415636083707,0.876285359642717,-0.5285150217623029,0.0,0.0,1.2023119014887844,0.0,0.0,-1.283827654222157
233,0.7344751633055204,-2.550578915526848,1.6236662789462541,0.5142804259979865,-1.335686270249727,-0.1860337526653168,-0.6436198827821504,-0.38259597182501787,2.5686833139572096,0.18934064610203777,-0.5348343563245828,0.0,0.0,-0.5348343563245828,2.991506632107059,-2.802165986005015,0.0,0.0,-0.34549371022254977,0.0,0.0,0.3958151849448499
117,0.33831967076527103,0.08750820139146953,-0.03805190905479731,-0.3921596640464717,0.095609410373725,1.651337900455017,-1.7177881555080545,0.46447186940520235,-1.0315020206930332,0.7211860970603776,-0.6774280268384489,0.0,0.0,0.7036700252623636,-0.18558421907058154,-0.4743277359698548,0.0,0.0,0.04375807022192733,0.0,0.0,0.4049531698113531
235,0.7475753438723999,-0.3388864314417866,-0.27537979475427676,-0.3012295139128626,-0.012346793531908366,0.059392229294516055,-0.8494641245050089,0.8631811701794058,-0.08387946912530815,0.38756233005396384,-0.22752606242385318,0.0,0.0,-0.49861308984855957,0.055760449573229294,0.6028889079054429,0.0,0.0,0.16003626763011447,0.0,0.0,1.3121550128266102
59,-0.3713487800150195,-0.23089681152046534,-0.4463615151703968,-0.7483242764484985,-0.4355529261824898,-0.11103945554805053,-0.16983821997607934,-0.489179297290764,0.20927018077735504,0.5863274100342393,0.5411907435888036,0.0,0.45125225840101063,-0.41752398736556157,0.26275471595902405,0.8310351666285731,0.0,0.0,0.9356339328311571,0.19188422079187759,0.0,1.3488017783252388
118,-0.20263280412716175,-0.09112588768137792,-0.2676117810559529,-0.906641391145789,0.34166517869499846,-0.9709807385805738,0.2568629263042005,-0.13505940219229876,-0.2929140800812058,0.0489210153723284,0.41291035469474563,0.0,0.6865854270545378,-0.9224095660598272,0.7991747378958929,-0.10151922882353326,0.0,0.0,0.5456857488281661,-0.0838543787610924,0.0,-0.04455028368721098
236,0.3804250289641781,-0.42449671514699144,0.15767820545582895,-0.8897189198388459,3.014941282960706,0.3625479269453536,2.0922959899867304,0.3543546572794965,2.743173110202363,-2.7967409359097033,1.3627202649937602,0.0,0.0,-1.3278436897777628,-0.2078410060717708,0.10166402493358746,0.0,0.0,-1.2527947820973167,-0.18122588881862697,0.0,0.006551246555594581
237,-0.1452543556204625,-0.1878518235244302,-0.276785733115572,0.7206855012256889,-0.2829285717452247,-0.41467460886261326,0.7717901062371302,-0.13005880356487357,-0.2829231034394411,0.43259645795077584,-0.011785202429046543,0.0,0.5049924436602132,0.0,-0.03861986377478218,-0.04556132436370489,0.0,0.0,0.3733950924326747,0.04741616308905431,0.0,0.7375448692572989
119,0.44031653542432486,1.64673567718097,-0.9205694869650439,0.7081282130646066,-1.005468964818673,-0.37968602594862455,-0.0869372703379917,-0.872941882250847,1.2146133009534639,0.6103740892656395,0.8057348427247992,0.0,0.0,0.26970777204598534,-1.210585278007428,2.3569864379518743,0.0,0.0,0.8587913163779958,0.557317615612448,0.0,1.8771937360490718
238,-1.341559901142852,-2.3738605319051107,-0.4247429569711809,-0.02345186136546799,2.320665827254264,-0.5919040835790882,0.0630557696309821,-1.6365960952459244,-2.2197286693211447,0.05812752488672594,0.3188351242069418,0.0,0.0,1.4315682286657105,-2.5866750669260186,1.5320694873540028,0.0,0.0,0.15799096832587028,0.21897168076779958,0.0,0.10217614781263507
239,1.4175831031019166,0.15529867728642002,-1.0723842240661974,0.709092382908271,-1.454531432231712,-0.3515003949533183,0.13699906541768103,-0.3051828311584599,1.0873669117043092,0.6308192706518675,0.8933380301296567,0.0,0.0,0.2138458629360327,1.3405008975870862,-0.03018945974158321,0.0,0.0,1.7010719627872444,-0.1769146620057176,0.0,1.7846929296668428
15,0.6369538578976992,0.09721926152098775,-0.12135218984199315,0.08080735892520831,-0.13981353439478064,-0.05330568895722902,-0.32882546593489337,-2.0076825363814917e-05,0.01660034944805117,0.21523129230346733,-0.21513679524497198,0.0,0.0,-0.21513679524497198,-0.0027979522644441457,0.21802924456791054,0.0,0.0,0.24123413120229129,-0.24113963414379608,0.0,0.8067826056009295
30,0.19290192683249774,1.3792424470672469,-2.0838018740051347,0.05018873634339152,2.5767586284857096,0.5921581404136411,-0.12820264490923408,0.15604833884838837,0.6413909242294453,-0.1110444244866212,-0.6234396753174273,0.0,0.0,-0.6234396753174273,1.3361756746325792,-1.4472200991192026,0.0,0.0,-1.3128111759722199,0.5783270761681784,0.0,-0.3887225716508853
31,0.5063526547287297,0.04352658935564794,-0.08737208647027359,0.04827282513856941,-0.14367063446864725,-0.18812732966047366,-0.19970966596401107,-0.04305579852880641,0.022753964367543185,0.2026538677511911,0.0,0.0,0.0,0.0,0.0010216336890414405,0.2016322340621511,0.0,0.0,0.30433135091078234,-0.10167748315958841,0.0,1.451808977310541
62,-0.12178085806190075,0.18351794198389776,0.08822046327519185,-0.061581032866379455,0.0866023676310429,-0.22672460574673092,-0.2117930559951206,-0.06518630645668892,-0.035542989325081716,0.3068171437820202,0.0,0.0,0.0,0.0,0.14503104277104437,0.16178610101097438,0.0,0.0,0.07176400424765016,0.23505313953437068,0.0,1.415457708699737
124,0.13126951499285636,0.026623199979987786,0.1349388071311099,0.22020832533222737,0.02853745560835496,-0.15792374058411351,-0.13277262748184337,-0.052194244749003284,-0.012347153414449318,0.24566645920319075,0.0,0.0,0.0,0.0,0.23130793301917565,0.014358526184015074,0.0,0.0,-0.029321028139443994,0.27498748734263484,0.0,0.8850469134046852
248,-0.22344254890874984,-0.6643003340830735,-0.2785571095446308,-0.05923777211445456,-0.46989958594326575,0.29861761200900144,0.5490587246442351,-0.03846255024591659,0.5104529156234471,0.1810344909918369,0.0,0.0,0.0,0.0,-0.5359938392676618,0.7170283302594992,0.0,0.0,0.1810344909918369,0.0,0.0,-0.1357967051670459
249,0.11858276153830949,-0.011805070614125848,-0.0031652353420558443,-0.8485275339366785,0.034352043860745564,-0.5113906281360241,-0.6396833694844924,-0.07248277035590124,-0.03965606449044311,0.3411599426757174,0.0,0.0,0.0,0.0,0.17731404901778208,0.1638458936579358,0.0,0.0,0.15681039102196298,0.1843495516537522,0.0,0.9673159996980439
125,-0.9217860278183226,-3.2475778130147397,0.4131166329242189,-0.28648807318166847,0.87533451181062,-1.1099854597966021,-1.3884478907826683,-0.1573255682726873,0.693374216092961,0.7404957287061676,0.0,0.0,0.0,0.0,0.0,0.7404957287061676,0.0,0.0,0.7404957287061676,0.0,0.0,1.2917148212436642
250,-0.29350457047867734,-1.1109843576648075,3.37542903328742,-0.4749888438107099,-5.8274167691047465,0.43002102565036904,0.5379005470628948,0.06094971932519218,-0.11133918708429894,-0.28687649008149374,0.0,0.0,0.0,0.0,0.0,-0.28687649008149374,0.0,0.0,-0.28687649008149374,0.0,0.0,-0.32084249447726254
251,0.016722339612379362,0.5948063337710141,0.4637815856909218,1.1529093448912973,0.03533263773820693,-0.6767926427092087,-0.8465798438828385,-0.09592629000429519,0.12542783422268666,0.45150326675248503,0.0,0.0,0.0,0.0,0.0,0.45150326675248503,0.0,0.0,0.45150326675248503,0.0,0.0,3.1895179116830024
63,0.28605045832700426,-0.6258226219080143,0.025028285724353783,0.3512128165197343,-0.23998721228838857,-0.2644969691882496,-0.33085141408530216,-0.03748890187405686,-0.010219466575631535,0.1764517491747259,0.0,0.0,0.0,0.0,1.0453281084234687,-0.86887635924875,0.0,0.0,0.6925491294368232,-0.5160973802620951,0.0,0.8296429011915104
126,0.28727503102823915,-0.8681489689535817,0.007366978447846181,-2.5574164879574237,1.2909595996737233,0.1787206766880375,0.2235563938217971,0.02533126157091945,-0.7147052000056795,-0.11922849668969453,0.0,0.0,0.0,0.0,0.0,-0.11922849668969453,0.0,0.0,0.3253073527008461,-0.4445358493905355,0.0,-0.13835773562458265
127,0.027784574153248066,-0.4227875026965217,0.01850170067443237,0.5804414114712769,-0.314880480679589,-0.3045727465294104,-0.38098101536045187,-0.04316910641054096,0.09082813563880252,0.20318718222368787,0.0,0.0,0.0,0.0,0.8143350921959517,-0.6111479099722678,0.0,0.0,-0.20778776371521718,0.4109749459389017,0.0,1.7805494938407294
254,0.21232480915151242,0.8822494303763975,-0.7084047221562535,-0.4891504098845024,-0.24650114949468194,-0.024329384154981128,-0.030432905058247268,-0.0034483642593015175,-2.2751140414045157,0.01623066760903021,0.0,0.0,0.0,0.0,0.0,0.01623066760903021,0.0,0.0,0.01623066760903021,0.0,0.0,-0.7842742754275489
255,-0.5990171884982107,0.9732591124669503,-0.27659003296147394,-0.11448894688573878,-0.5868604055227497,-0.46818196790470706,-0.5856349379197123,-0.0663585216414728,0.07110159371599556,0.3123344945024809,0.0,0.0,0.0,0.0,-0.5092273725712579,0.8215618670737369,0.0,0.0,0.1022482960635581,0.21008619843892595,0.0,2.9823757577875094
